{"learner":{"attributes":{},"feature_names":["Weight","Cube","Quantity","aisle_39","aisle_40","aisle_41","aisle_42","aisle_other","level_2","level_3","level_4","level_5+","level_nan","UoM_BX","UoM_EA","UoM_PK","UoM_PR","UoM_other","t25_products_1","t25_50_products_1","t50_75_products_1","other_products_1","worker_effect"],"feature_types":["float","float","float","float","float","float","float","float","float","float","float","float","float","float","float","float","float","float","float","float","float","float","float"],"gradient_booster":{"model":{"cats":{"enc":[],"feature_segments":[],"sorted_idx":[]},"gbtree_model_param":{"num_parallel_tree":"1","num_trees":"300"},"iteration_indptr":[0,1,2,3,4,5,6,7,8,9,10,11,12,13,14,15,16,17,18,19,20,21,22,23,24,25,26,27,28,29,30,31,32,33,34,35,36,37,38,39,40,41,42,43,44,45,46,47,48,49,50,51,52,53,54,55,56,57,58,59,60,61,62,63,64,65,66,67,68,69,70,71,72,73,74,75,76,77,78,79,80,81,82,83,84,85,86,87,88,89,90,91,92,93,94,95,96,97,98,99,100,101,102,103,104,105,106,107,108,109,110,111,112,113,114,115,116,117,118,119,120,121,122,123,124,125,126,127,128,129,130,131,132,133,134,135,136,137,138,139,140,141,142,143,144,145,146,147,148,149,150,151,152,153,154,155,156,157,158,159,160,161,162,163,164,165,166,167,168,169,170,171,172,173,174,175,176,177,178,179,180,181,182,183,184,185,186,187,188,189,190,191,192,193,194,195,196,197,198,199,200,201,202,203,204,205,206,207,208,209,210,211,212,213,214,215,216,217,218,219,220,221,222,223,224,225,226,227,228,229,230,231,232,233,234,235,236,237,238,239,240,241,242,243,244,245,246,247,248,249,250,251,252,253,254,255,256,257,258,259,260,261,262,263,264,265,266,267,268,269,270,271,272,273,274,275,276,277,278,279,280,281,282,283,284,285,286,287,288,289,290,291,292,293,294,295,296,297,298,299,300],"tree_info":[0,0,0,0,0,0,0,0,0,0,0,0,0,0,0,0,0,0,0,0,0,0,0,0,0,0,0,0,0,0,0,0,0,0,0,0,0,0,0,0,0,0,0,0,0,0,0,0,0,0,0,0,0,0,0,0,0,0,0,0,0,0,0,0,0,0,0,0,0,0,0,0,0,0,0,0,0,0,0,0,0,0,0,0,0,0,0,0,0,0,0,0,0,0,0,0,0,0,0,0,0,0,0,0,0,0,0,0,0,0,0,0,0,0,0,0,0,0,0,0,0,0,0,0,0,0,0,0,0,0,0,0,0,0,0,0,0,0,0,0,0,0,0,0,0,0,0,0,0,0,0,0,0,0,0,0,0,0,0,0,0,0,0,0,0,0,0,0,0,0,0,0,0,0,0,0,0,0,0,0,0,0,0,0,0,0,0,0,0,0,0,0,0,0,0,0,0,0,0,0,0,0,0,0,0,0,0,0,0,0,0,0,0,0,0,0,0,0,0,0,0,0,0,0,0,0,0,0,0,0,0,0,0,0,0,0,0,0,0,0,0,0,0,0,0,0,0,0,0,0,0,0,0,0,0,0,0,0,0,0,0,0,0,0,0,0,0,0,0,0,0,0,0,0,0,0,0,0,0,0,0,0,0,0,0,0,0,0,0,0,0,0,0,0,0,0,0,0,0,0],"trees":[{"base_weights":[-8.369562E-5,-7.1366155E-3,9.5745035E-2,-8.964775E-3,-3.871619E-4,5.082704E-2,1.3180058E-1,-1.0105831E-2,9.91921E-4,2.1671131E-3,-1.8864606E-2,2.9967973E-2,1.1395836E-1,4.0163937E-1,1.2229229E-1,-1.2434537E-2,-3.6742322E-3,2.5420023E-2,-1.211371E-2,1.7682206E-3,1.24074094E-1,-1.9710248E-2,1.21428594E-1,1.14120394E-1,2.0710684E-2,9.733545E-2,2.3750003E-1,1.3065E-2,2.2708336E-1,8.4940754E-2,1.6451713E-1,-1.373191E-2,-8.169727E-3,-5.9966515E-3,3.7135184E-3,9.0441655E-4,3.637155E-2,-1.637975E-2,4.714007E-3,5.6165205E-3,-7.7480837E-3,5.937502E-2,1.44375E-2,-2.3291644E-2,-1.569442E-2,6.9375006E-3,-5.6249945E-4,1.6064817E-1,6.636366E-2,1.881367E-2,1.44375E-2,1.2487925E-1,4.601772E-2,3.852273E-1,7.14286E-2,-5.999994E-4,1.05937505E-2,7.294984E-2,1.7165181E-1,4.2013893E-1,1.525543E-1,-1.4246012E-4,-4.3766678E-4,2.0009761E-4,-4.2628808E-4,-3.1452117E-4,8.802721E-5,1.3529419E-3,-1.605821E-4,7.135929E-4,-2.2105192E-4,-2.258965E-5,1.354078E-3,-5.1995553E-4,1.2096781E-3,3.423984E-5,3.9230776E-3,3.5516548E-4,-1.285235E-4,-3.267145E-4,5.6772976E-4,3.3000007E-3,-6.749993E-4,-7.478746E-4,-6.260073E-4,-5.651724E-4,4.650007E-4,1.14E-2,4.065001E-3,1.1808517E-3,6.0000005E-3,5.377944E-4,6.9375006E-3,3.0580994E-3,5.170455E-3,3.7037107E-4,3.8181825E-3,1.6446428E-2,2.6666673E-3,-6.8749936E-4,5.3250007E-3,1.6781418E-3,3.4303803E-3,6.2052635E-3,-7.0833263E-4,5.958334E-3,1.8236844E-2,5.88702E-3,3.7007423E-3],"categories":[],"categories_nodes":[],"categories_segments":[],"categories_sizes":[],"default_left":[0,0,0,0,0,0,0,0,0,0,0,0,0,0,0,0,0,0,0,0,0,0,0,0,0,0,0,0,0,0,0,0,0,0,0,0,0,0,0,0,0,0,0,0,0,0,0,0,0,0,0,0,0,0,0,0,0,0,0,0,0,0,0,0,0,0,0,0,0,0,0,0,0,0,0,0,0,0,0,0,0,0,0,0,0,0,0,0,0,0,0,0,0,0,0,0,0,0,0,0,0,0,0,0,0,0,0,0,0],"id":0,"left_children":[1,3,5,7,9,11,13,15,17,19,21,23,25,27,29,31,33,35,37,39,41,43,45,47,49,51,53,-1,55,57,59,61,63,65,67,69,71,73,75,77,79,81,-1,83,85,-1,-1,87,89,91,-1,93,95,97,99,-1,-1,101,103,105,107,-1,-1,-1,-1,-1,-1,-1,-1,-1,-1,-1,-1,-1,-1,-1,-1,-1,-1,-1,-1,-1,-1,-1,-1,-1,-1,-1,-1,-1,-1,-1,-1,-1,-1,-1,-1,-1,-1,-1,-1,-1,-1,-1,-1,-1,-1,-1,-1],"loss_changes":[3.2091103E1,5.457046E-1,5.2649117E0,3.953781E-1,4.44962E-1,1.9073493E0,4.5819817E0,4.6757555E-1,1.1461093E0,4.0256456E-1,1.3823396E-1,8.4832984E-1,7.16187E-1,2.616501E-1,2.7381744E0,1.2671661E-1,1.4244631E-1,3.3557123E-1,1.6734263E-1,3.02428E-1,5.9536743E-1,1.6015857E-2,1.1209822E-1,2.2931647E-1,8.5149086E-1,4.4515538E-1,1.0028813E0,0E0,3.8077605E-1,9.523616E-1,2.4373188E0,1.3522363E-1,4.795237E-1,2.5315315E-1,7.4539423E-1,7.3433846E-2,2.811569E-1,1.01059526E-1,2.1241826E-1,3.622883E-1,1.9951904E-1,1.0195311E-1,0E0,1.8620789E-3,5.32638E-2,0E0,0E0,2.4638987E-1,1.9059186E-1,1.8093345E-1,0E0,2.0786834E-1,3.0759913E-1,1.0138547E0,2.1422172E-1,0E0,0E0,5.6895304E-1,7.744763E-1,1.3766184E0,9.7433853E-1,0E0,0E0,0E0,0E0,0E0,0E0,0E0,0E0,0E0,0E0,0E0,0E0,0E0,0E0,0E0,0E0,0E0,0E0,0E0,0E0,0E0,0E0,0E0,0E0,0E0,0E0,0E0,0E0,0E0,0E0,0E0,0E0,0E0,0E0,0E0,0E0,0E0,0E0,0E0,0E0,0E0,0E0,0E0,0E0,0E0,0E0,0E0,0E0],"parents":[2147483647,0,0,1,1,2,2,3,3,4,4,5,5,6,6,7,7,8,8,9,9,10,10,11,11,12,12,13,13,14,14,15,15,16,16,17,17,18,18,19,19,20,20,21,21,22,22,23,23,24,24,25,25,26,26,28,28,29,29,30,30,31,31,32,32,33,33,34,34,35,35,36,36,37,37,38,38,39,39,40,40,41,41,43,43,44,44,47,47,48,48,49,49,51,51,52,52,53,53,54,54,57,57,58,58,59,59,60,60],"right_children":[2,4,6,8,10,12,14,16,18,20,22,24,26,28,30,32,34,36,38,40,42,44,46,48,50,52,54,-1,56,58,60,62,64,66,68,70,72,74,76,78,80,82,-1,84,86,-1,-1,88,90,92,-1,94,96,98,100,-1,-1,102,104,106,108,-1,-1,-1,-1,-1,-1,-1,-1,-1,-1,-1,-1,-1,-1,-1,-1,-1,-1,-1,-1,-1,-1,-1,-1,-1,-1,-1,-1,-1,-1,-1,-1,-1,-1,-1,-1,-1,-1,-1,-1,-1,-1,-1,-1,-1,-1,-1,-1],"split_conditions":[1E0,1E0,4.8E-2,2E0,1E0,1E1,4.9E-2,1.3E1,2.25E0,1.92E2,9.1E1,3.6E-3,1.896E-1,7E0,1.83E0,1E0,1E0,1E0,3.97E-1,1E0,2.45E-2,3.017E-1,9E-3,1E0,3.3E0,1E0,2.625E-1,9.68391E0,8E0,1E0,7.5E-2,5E-3,2.2E-2,1.278E-1,5E-2,9.2E-2,9.4E-2,1E0,4E0,1E0,1.8E1,1.13E-2,2.66412E0,1E1,7E0,6.312012E-2,-5.5882797E0,2E0,1E0,1E0,5.9969096E0,2.7E1,4.1E1,1E0,1.2E1,-7.10499E0,6.4976096E0,3E0,9.04E-1,1E0,3.8E-1,-1.0562872E0,-2.3340003E0,5.7003736E-1,-2.3146079E0,-1.2064192E0,2.8388017E-1,2.9074194E0,-5.2557653E-1,3.0812137E0,-5.712212E-1,9.5014936E-1,3.4124086E0,-2.676531E0,9.347311E0,8.770571E-2,4.7453094E0,2.294835E0,-7.6368976E-1,-2.1086552E0,1.9515426E0,7.1072993E0,-4.95258E0,-2.536928E0,-9.548738E-1,-2.508491E0,3.2638156E0,6.16521E0,9.278208E0,7.157973E0,3.8054996E0,2.619568E0,8.20983E0,7.117842E0,9.2043295E0,5.747034E0,2.7306E0,8.719021E0,9.3912E-1,-1.1123698E0,9.718711E0,6.4777956E0,7.2892685E0,9.464273E0,-2.6240098E0,9.58551E0,7.9845004E0,8.8750515E0,8.633763E0],"split_indices":[7,21,1,0,3,2,1,2,0,2,2,0,0,2,0,4,5,18,1,5,0,0,1,21,0,11,0,0,2,20,1,1,1,0,0,1,1,17,2,6,2,0,0,2,2,0,0,2,10,19,0,2,2,10,2,0,0,2,0,11,1,0,0,0,0,0,0,0,0,0,0,0,0,0,0,0,0,0,0,0,0,0,0,0,0,0,0,0,0,0,0,0,0,0,0,0,0,0,0,0,0,0,0,0,0,0,0,0,0],"split_type":[0,0,0,0,0,0,0,0,0,0,0,0,0,0,0,0,0,0,0,0,0,0,0,0,0,0,0,0,0,0,0,0,0,0,0,0,0,0,0,0,0,0,0,0,0,0,0,0,0,0,0,0,0,0,0,0,0,0,0,0,0,0,0,0,0,0,0,0,0,0,0,0,0,0,0,0,0,0,0,0,0,0,0,0,0,0,0,0,0,0,0,0,0,0,0,0,0,0,0,0,0,0,0,0,0,0,0,0,0],"sum_hessian":[4.7479E4,4.4225E4,3.254E3,3.4799E4,9.426E3,1.45E3,1.804E3,3.1221E4,3.578E3,8.282E3,1.144E3,1.091E3,3.59E2,6E1,1.744E3,2.2921E4,8.3E3,1.249E3,2.329E3,8.256E3,2.6E1,1.138E3,6E0,1.07E2,9.84E2,3.18E2,4.1E1,4.9E1,1.1E1,9.27E2,8.17E2,1.7573E4,5.348E3,6.315E3,1.985E3,3.86E2,8.63E2,1.858E3,4.71E2,5.879E3,2.377E3,2.3E1,3E0,5.99E2,5.39E2,3E0,3E0,5.3E1,5.4E1,9.81E2,3E0,2.06E2,1.12E2,2.1E1,2E1,4E0,7E0,8.16E2,1.11E2,3.5E1,7.82E2,1.531E3,1.6042E4,1.547E3,3.801E3,4.203E3,2.112E3,3.56E2,1.629E3,1.02E2,2.84E2,1.65E2,6.98E2,1.828E3,3E1,4.59E2,1.2E1,3.61E3,2.269E3,2.127E3,2.5E2,1.4E1,9E0,3.52E2,2.47E2,4.9E2,4.9E1,4E0,4.9E1,4.6E1,8E0,9.78E2,3E0,1.41E2,6.5E1,8E1,3.2E1,1.3E1,8E0,1.1E1,9E0,5.8E2,2.36E2,9.4E1,1.7E1,1.7E1,1.8E1,3.11E2,4.71E2],"tree_param":{"num_deleted":"0","num_feature":"23","num_nodes":"109","size_leaf_vector":"1"}},{"base_weights":[-4.4587828E-4,-7.215398E-3,9.043897E-2,-9.187629E-3,-1.3487757E-3,7.369544E-2,1.8933825E-1,-1.1671198E-2,-2.8300632E-3,6.436354E-3,-6.3060834E-3,6.1410025E-2,1.700472E-1,1.7199127E-1,5.7625E-1,-1.3513672E-2,-5.147877E-3,-3.5639463E-3,3.1250022E-2,-9.211799E-3,1.1228518E-2,-1.0663833E-2,3.7786684E-3,4.0958557E-2,9.0558276E-2,1.1903411E-1,4.118182E-1,1.8732314E-1,-7.2794047E-4,7.1000004E-1,4.3750005E-3,-1.4531612E-2,-2.2712287E-3,8.9597466E-5,-1.11122215E-2,-9.574631E-5,-1.1229686E-2,-4.950471E-3,6.901044E-2,3.673472E-2,-1.1530483E-2,1.4492644E-2,-3.4354066E-3,-1.3226441E-2,7.689027E-3,-1.640193E-5,1.4669836E-2,2.0664323E-2,8.204735E-2,7.9195626E-2,1.4880241E-1,3.0219804E-2,1.6479887E-1,1.6657894E-2,3.2702705E-1,2.1779938E-1,1.0452589E-1,2.559375E-2,4.7812504E-1,-3.9230988E-4,-5.3552736E-4,-4.0572614E-4,8.734651E-4,1.09957735E-4,-3.1912536E-4,-5.114981E-4,-1.4432702E-4,-1.1955744E-4,3.2383334E-4,-5.730987E-4,-2.8456E-4,2.2983941E-4,-7.312493E-4,1.2214286E-2,1.2583339E-3,-7.058817E-4,2.0000008E-3,-1.8982848E-4,-6.550919E-4,7.274917E-4,3.0471315E-4,1.9333339E-3,-2.6651713E-4,-5.540946E-4,-1.7095194E-4,8.738577E-6,1.9080888E-3,3.9230776E-3,-3.4270808E-5,6.374141E-4,-4.3622375E-4,5.033932E-4,4.4482765E-3,3.405661E-3,1.9961898E-3,2.6929895E-3,9.5283095E-4,9.62069E-3,3.3561157E-3,5.300001E-3,3.896174E-5,7.834822E-3,3.5420174E-3,8.977941E-3,1.44375E-2,6.7275753E-3,-6.66666E-4,4.1250004E-3,1.3604658E-3,6.9375006E-3,1.74E-2],"categories":[],"categories_nodes":[],"categories_segments":[],"categories_sizes":[],"default_left":[0,0,0,0,0,0,0,0,0,0,0,0,0,0,0,0,0,0,0,0,0,0,0,0,0,0,0,0,0,0,0,0,0,0,0,0,0,0,0,0,0,0,0,0,0,0,0,0,0,0,0,0,0,0,0,0,0,0,0,0,0,0,0,0,0,0,0,0,0,0,0,0,0,0,0,0,0,0,0,0,0,0,0,0,0,0,0,0,0,0,0,0,0,0,0,0,0,0,0,0,0,0,0,0,0,0,0,0,0,0,0],"id":1,"left_children":[1,3,5,7,9,11,13,15,17,19,21,23,25,27,29,31,33,35,37,39,41,43,45,47,49,51,53,55,-1,57,-1,59,61,63,65,67,69,71,73,75,77,79,81,83,85,87,89,91,93,95,97,99,101,-1,103,105,107,-1,109,-1,-1,-1,-1,-1,-1,-1,-1,-1,-1,-1,-1,-1,-1,-1,-1,-1,-1,-1,-1,-1,-1,-1,-1,-1,-1,-1,-1,-1,-1,-1,-1,-1,-1,-1,-1,-1,-1,-1,-1,-1,-1,-1,-1,-1,-1,-1,-1,-1,-1,-1,-1],"loss_changes":[2.921749E1,5.113616E-1,5.4373455E0,5.2223444E-1,4.292365E-1,3.3240995E0,3.095686E0,2.8580356E-1,2.3253667E-1,3.245787E-1,2.9865897E-1,1.4866028E0,3.8730278E0,1.3796434E0,1.0478225E0,2.1220994E-1,1.6368866E-1,2.4188127E-1,2.68263E-1,1.08557045E-1,1.586262E-1,2.232647E-1,8.47737E-2,1.2249207E0,6.6987705E-1,1.0680652E0,4.873705E-1,1.0471354E0,0E0,8.9906216E-2,0E0,8.1876755E-2,5.4466593E-1,1.07091986E-1,9.1585815E-2,2.6541224E-1,3.8741946E-2,2.4929492E-2,8.6150336E-1,8.9955986E-2,5.1712662E-2,1.1439264E-1,2.2395793E-1,1.6425782E-1,2.407181E-1,2.242779E-1,1.0213633E-1,4.8628563E-1,2.2966266E-1,4.3037224E-1,1.0242603E0,3.8519216E-1,7.527132E-1,0E0,1.439786E-2,4.8359108E-1,2.2011662E-1,0E0,6.707811E-2,0E0,0E0,0E0,0E0,0E0,0E0,0E0,0E0,0E0,0E0,0E0,0E0,0E0,0E0,0E0,0E0,0E0,0E0,0E0,0E0,0E0,0E0,0E0,0E0,0E0,0E0,0E0,0E0,0E0,0E0,0E0,0E0,0E0,0E0,0E0,0E0,0E0,0E0,0E0,0E0,0E0,0E0,0E0,0E0,0E0,0E0,0E0,0E0,0E0,0E0,0E0,0E0],"parents":[2147483647,0,0,1,1,2,2,3,3,4,4,5,5,6,6,7,7,8,8,9,9,10,10,11,11,12,12,13,13,14,14,15,15,16,16,17,17,18,18,19,19,20,20,21,21,22,22,23,23,24,24,25,25,26,26,27,27,29,29,31,31,32,32,33,33,34,34,35,35,36,36,37,37,38,38,39,39,40,40,41,41,42,42,43,43,44,44,45,45,46,46,47,47,48,48,49,49,50,50,51,51,52,52,54,54,55,55,56,56,58,58],"right_children":[2,4,6,8,10,12,14,16,18,20,22,24,26,28,30,32,34,36,38,40,42,44,46,48,50,52,54,56,-1,58,-1,60,62,64,66,68,70,72,74,76,78,80,82,84,86,88,90,92,94,96,98,100,102,-1,104,106,108,-1,110,-1,-1,-1,-1,-1,-1,-1,-1,-1,-1,-1,-1,-1,-1,-1,-1,-1,-1,-1,-1,-1,-1,-1,-1,-1,-1,-1,-1,-1,-1,-1,-1,-1,-1,-1,-1,-1,-1,-1,-1,-1,-1,-1,-1,-1,-1,-1,-1,-1,-1,-1,-1],"split_conditions":[1E0,9E-2,1E0,1.3E1,1.39E-1,1E0,1E0,1E0,1E0,2E0,1E0,7.2E-2,1E0,1E0,1.1E1,1E0,1E0,1E0,2.2E1,9.2E-2,1E0,4.29E-1,1E0,6E0,4E0,1.66E-1,4E0,5.52E-1,-4.059713E0,5E0,5.6414084E0,1E0,1E0,1E0,4E0,1E0,3E-3,2E1,2.3E1,1E0,1E0,1.02E-1,9.2E-2,1E0,3E0,1.41E-1,1E0,1E0,2E-3,1E0,1E0,1E-3,3.54E-1,9.369092E0,9E0,1E0,8.35E-1,7.7449656E0,8E0,-2.122255E0,-2.9204857E0,-1.8643945E0,2.6238456E0,9.203183E-1,-2.73839E0,-2.621043E0,-1.0270889E0,-4.0566364E-1,1.4657894E0,-2.7336485E0,-9.294382E-1,5.3023024E0,-3.2137755E-1,5.8535132E0,6.0062146E0,-4.7983566E-1,8.62944E0,-1.7363678E0,-2.8122072E0,2.8034482E0,1.0719507E0,1.9905901E0,-2.1237586E0,-2.9212196E0,-8.1965184E-1,1.4074482E-1,7.0690618E0,9.509089E0,-5.3678174E-2,3.523184E0,-1.9768423E0,4.5574355E0,7.035832E0,8.500888E0,6.366087E0,7.8135653E0,6.502431E0,6.9091425E0,7.548181E0,8.23848E0,1.2943255E0,8.864939E0,8.317049E0,8.578982E0,8.6313715E0,9.029219E0,-1.021583E0,9.593226E0,7.297963E0,2.719665E0,7.534275E0],"split_indices":[7,1,20,2,1,17,11,21,13,2,21,1,19,13,2,15,11,18,2,1,20,1,11,2,2,1,2,1,0,2,0,18,9,5,2,5,1,2,2,19,9,1,1,14,2,1,5,15,1,18,14,1,1,0,2,17,1,0,2,0,0,0,0,0,0,0,0,0,0,0,0,0,0,0,0,0,0,0,0,0,0,0,0,0,0,0,0,0,0,0,0,0,0,0,0,0,0,0,0,0,0,0,0,0,0,0,0,0,0,0,0],"split_type":[0,0,0,0,0,0,0,0,0,0,0,0,0,0,0,0,0,0,0,0,0,0,0,0,0,0,0,0,0,0,0,0,0,0,0,0,0,0,0,0,0,0,0,0,0,0,0,0,0,0,0,0,0,0,0,0,0,0,0,0,0,0,0,0,0,0,0,0,0,0,0,0,0,0,0,0,0,0,0,0,0,0,0,0,0,0,0,0,0,0,0,0,0,0,0,0,0,0,0,0,0,0,0,0,0,0,0,0,0,0,0],"sum_hessian":[4.7487E4,4.4196E4,3.291E3,3.3076E4,1.112E4,2.816E3,4.75E2,2.3784E4,9.292E3,4.326E3,6.794E3,2.499E3,3.17E2,4.56E2,1.9E1,1.8545E4,5.239E3,9.097E3,1.95E2,1.014E3,3.312E3,4.744E3,2.05E3,1.47E3,1.029E3,2.63E2,5.4E1,4.23E2,3.3E1,1.4E1,5E0,1.7005E4,1.54E3,2.79E3,2.449E3,6.264E3,2.833E3,1E2,9.5E1,4.8E1,9.66E2,2.709E3,6.03E2,4.163E3,5.81E2,1.521E3,5.29E2,9.85E2,4.85E2,8.63E2,1.66E2,9E1,1.73E2,1.8E1,3.6E1,3.08E2,1.15E2,7E0,7E0,1.1827E4,5.178E3,1.134E3,4.06E2,2.093E3,6.97E2,1.26E3,1.189E3,4.616E3,1.648E3,5.12E2,2.321E3,6.1E1,3.9E1,6E0,8.9E1,1.6E1,3.2E1,6.43E2,3.23E2,8.32E2,1.877E3,4.4E1,5.59E2,2.453E3,1.71E3,5.14E2,6.7E1,1.2E1,1.509E3,4.32E2,9.7E1,9.57E2,2.8E1,1.58E2,3.27E2,7.05E2,1.58E2,2.8E1,1.38E2,1.4E1,7.6E1,5.5E1,1.18E2,3.3E1,3E0,3E2,8E0,7.3E1,4.2E1,3E0,4E0],"tree_param":{"num_deleted":"0","num_feature":"23","num_nodes":"111","size_leaf_vector":"1"}},{"base_weights":[2.1913266E-4,-6.7661144E-3,9.322228E-2,-8.7412E-3,5.3731503E-4,6.899962E-2,1.6476732E-1,-9.877755E-3,1.2856978E-3,-5.451904E-4,3.1152671E-2,5.655582E-2,2.6183337E-1,1.4853145E-1,2.742991E-1,-1.1732466E-2,-4.7560004E-3,2.4257239E-2,-1.0171441E-2,-1.5224302E-3,3.234735E-2,5.0234765E-2,-6.421995E-3,4.452797E-2,1.8304458E-1,9.4345264E-2,4.6791047E-1,1.557778E-1,6.1637953E-2,4.073864E-1,1.7851564E-1,-1.2926467E-2,-7.7342326E-3,-5.49794E-3,2.5631336E-2,1.8703556E-2,8.203886E-2,-1.6331868E-2,3.2215004E-3,4.479013E-4,-1.5120944E-2,2.4081657E-2,1.4305557E-1,6.717794E-2,-4.901937E-3,-7.3706824E-4,1.3942331E-2,4.040998E-2,1.4814818E-1,2.1109553E-1,-7.199993E-4,-6.66666E-4,1.0690792E-1,4.9101564E-1,-5.6249945E-4,1.6293792E-1,5.885419E-2,5.3250007E-3,3.673472E-2,4.7569448E-1,2.6666673E-3,8.3783805E-2,8.919643E-3,-5.6924386E-4,-3.7876912E-4,-3.2614978E-4,9.970054E-5,-2.4987673E-4,9.715293E-5,1.6363707E-4,3.6838243E-3,7.3191803E-4,-1.6383424E-4,-5.999994E-4,2.5909096E-3,-5.1889743E-4,2.974145E-4,6.055335E-4,-1.5089569E-4,1.1834869E-3,-3.3567567E-6,-6.0503127E-4,-2.5967343E-4,4.477619E-4,1.9333339E-3,5.300001E-3,-5.6249945E-4,9.714292E-4,3.8389836E-3,-7.3255744E-4,2.6666673E-3,1.0367654E-3,-7.1052567E-4,9.1251824E-4,1.8954335E-3,8.031251E-3,2.8836215E-3,7.1296883E-3,-7.1052567E-4,5.958334E-3,2.3135599E-3,1.37625E-2,2.3400001E-2,1.1325001E-2,4.776253E-3,2.1093819E-4,4.5882356E-3,6.477279E-4,1.4196435E-3,1.5636364E-2,-5.6249945E-4,-6.249994E-4,3.0234382E-3],"categories":[],"categories_nodes":[],"categories_segments":[],"categories_sizes":[],"default_left":[0,0,0,0,0,0,0,0,0,0,0,0,0,0,0,0,0,0,0,0,0,0,0,0,0,0,0,0,0,0,0,0,0,0,0,0,0,0,0,0,0,0,0,0,0,0,0,0,0,0,0,0,0,0,0,0,0,0,0,0,0,0,0,0,0,0,0,0,0,0,0,0,0,0,0,0,0,0,0,0,0,0,0,0,0,0,0,0,0,0,0,0,0,0,0,0,0,0,0,0,0,0,0,0,0,0,0,0,0,0,0,0,0],"id":2,"left_children":[1,3,5,7,9,11,13,15,17,19,21,23,25,27,29,31,33,35,37,39,41,43,45,47,49,51,53,55,57,59,61,63,65,67,69,71,73,75,77,79,81,83,85,87,89,-1,91,93,95,97,-1,-1,99,101,-1,103,105,-1,107,109,-1,111,-1,-1,-1,-1,-1,-1,-1,-1,-1,-1,-1,-1,-1,-1,-1,-1,-1,-1,-1,-1,-1,-1,-1,-1,-1,-1,-1,-1,-1,-1,-1,-1,-1,-1,-1,-1,-1,-1,-1,-1,-1,-1,-1,-1,-1,-1,-1,-1,-1,-1,-1],"loss_changes":[3.0836266E1,6.3686395E-1,5.735298E0,3.9605093E-1,3.1151196E-1,5.9337635E0,1.4495125E0,2.9645777E-1,9.316696E-1,2.9188374E-1,2.3048067E-1,3.5366821E0,5.133175E0,4.513111E-1,1.2912636E0,1.0929394E-1,1.8726915E-1,3.7648672E-1,1.949323E-1,2.3627257E-1,2.3630613E-1,1.9931191E-1,4.0623534E-2,9.02473E-1,1.1782417E0,1.253851E-1,7.625799E-1,4.5884895E-1,1.6082934E-1,9.149771E-1,6.953895E-1,3.186369E-2,1.8293422E-1,2.0045592E-1,3.8749564E-1,1.4817667E-1,4.718089E-2,4.113856E-2,1.04377195E-1,1.6818298E-1,3.6238432E-2,8.958338E-2,1.0120487E-1,3.4064114E-1,9.552515E-2,0E0,4.1156337E-2,4.6431828E-1,4.7812104E-1,1.115623E0,0E0,0E0,1.9229794E-1,2.389288E-1,0E0,4.424305E-1,2.3296608E-1,0E0,6.8341196E-3,8.1998825E-1,0E0,6.789398E-2,0E0,0E0,0E0,0E0,0E0,0E0,0E0,0E0,0E0,0E0,0E0,0E0,0E0,0E0,0E0,0E0,0E0,0E0,0E0,0E0,0E0,0E0,0E0,0E0,0E0,0E0,0E0,0E0,0E0,0E0,0E0,0E0,0E0,0E0,0E0,0E0,0E0,0E0,0E0,0E0,0E0,0E0,0E0,0E0,0E0,0E0,0E0,0E0,0E0,0E0,0E0],"parents":[2147483647,0,0,1,1,2,2,3,3,4,4,5,5,6,6,7,7,8,8,9,9,10,10,11,11,12,12,13,13,14,14,15,15,16,16,17,17,18,18,19,19,20,20,21,21,22,22,23,23,24,24,25,25,26,26,27,27,28,28,29,29,30,30,31,31,32,32,33,33,34,34,35,35,36,36,37,37,38,38,39,39,40,40,41,41,42,42,43,43,44,44,46,46,47,47,48,48,49,49,52,52,53,53,55,55,56,56,58,58,59,59,61,61],"right_children":[2,4,6,8,10,12,14,16,18,20,22,24,26,28,30,32,34,36,38,40,42,44,46,48,50,52,54,56,58,60,62,64,66,68,70,72,74,76,78,80,82,84,86,88,90,-1,92,94,96,98,-1,-1,100,102,-1,104,106,-1,108,110,-1,112,-1,-1,-1,-1,-1,-1,-1,-1,-1,-1,-1,-1,-1,-1,-1,-1,-1,-1,-1,-1,-1,-1,-1,-1,-1,-1,-1,-1,-1,-1,-1,-1,-1,-1,-1,-1,-1,-1,-1,-1,-1,-1,-1,-1,-1,-1,-1,-1,-1,-1,-1],"split_conditions":[1E0,1E0,1.9E0,2E0,4.7E1,1E0,4E0,1.3E1,2.25E0,4.5E0,1E0,1E0,3.6E-3,1E0,2.4906E0,1E0,1E0,8E0,3E0,1E0,3E0,8E-2,3.3E-2,4.2E1,1E0,7E0,2.625E-1,1E0,2E0,1E0,5E0,2.68E-2,9.04E-1,1E0,3.8E1,1E0,2.1E0,1E0,1E0,3.6E-3,5E0,1E0,1E0,3.3E-2,1.539E-1,-1.1718867E-1,5.1E1,5.867E-1,1.13E-2,9.04E-1,-4.1659756E0,-4.5630627E0,1E1,1.1E1,-3.7551403E0,1.95E0,2E0,7.028831E0,3E0,9E0,8.705467E0,1E0,7.3660126E0,-2.731374E0,-2.0916378E0,-1.6788826E0,5.2023196E-1,-8.009032E-1,6.531884E-1,1.624086E0,9.560698E0,1.9750506E0,-4.03909E-1,-2.9217637E0,7.4917736E0,-2.4368415E0,7.508543E0,2.3630145E0,-7.9394627E-1,4.7579656E0,5.4160325E-4,-2.0636394E0,-8.829963E-1,2.0791361E0,7.2419376E0,6.5611753E0,-5.32242E0,3.344191E0,6.304178E0,-8.6568457E-1,1.42907E0,2.2879906E0,-1.1312892E0,5.023076E0,6.392492E0,8.815463E0,7.010425E0,8.914816E0,-2.8161662E0,7.110747E0,9.223799E0,9.116072E0,6.0371876E0,7.7656612E0,8.436446E0,4.784742E0,7.581328E0,9.161051E0,9.504162E0,7.3082466E0,-4.353057E0,-4.5373533E-3,6.399802E0],"split_indices":[7,21,0,0,2,19,2,2,0,0,6,20,0,19,0,4,13,2,0,3,2,0,0,2,13,2,0,10,2,9,2,0,0,5,2,19,0,17,13,0,2,10,13,0,0,0,2,0,0,0,0,0,2,2,0,0,2,0,2,2,0,14,0,0,0,0,0,0,0,0,0,0,0,0,0,0,0,0,0,0,0,0,0,0,0,0,0,0,0,0,0,0,0,0,0,0,0,0,0,0,0,0,0,0,0,0,0,0,0,0,0,0,0],"split_type":[0,0,0,0,0,0,0,0,0,0,0,0,0,0,0,0,0,0,0,0,0,0,0,0,0,0,0,0,0,0,0,0,0,0,0,0,0,0,0,0,0,0,0,0,0,0,0,0,0,0,0,0,0,0,0,0,0,0,0,0,0,0,0,0,0,0,0,0,0,0,0,0,0,0,0,0,0,0,0,0,0,0,0,0,0,0,0,0,0,0,0,0,0,0,0,0,0,0,0,0,0,0,0,0,0,0,0,0,0,0,0,0,0],"sum_hessian":[4.7464E4,4.4149E4,3.315E3,3.4751E4,9.398E3,2.478E3,8.37E2,3.1213E4,3.538E3,9.078E3,3.2E2,2.329E3,1.49E2,7.31E2,1.06E2,2.2914E4,8.299E3,1.177E3,2.361E3,8.817E3,2.61E2,2.12E2,1.08E2,2.128E3,2.01E2,8.3E1,6.6E1,6.74E2,5.7E1,4.3E1,6.3E1,1.7643E4,5.271E3,8.102E3,1.97E2,1.075E3,1.02E2,1.617E3,7.44E2,7.702E3,1.115E3,2.44E2,1.7E1,1.62E2,5E1,5.7E1,5.1E1,2.048E3,8E1,1.77E2,2.4E1,8E0,7.5E1,6.3E1,3E0,6.27E2,4.7E1,9E0,4.8E1,3.5E1,8E0,3.6E1,2.7E1,8.33E2,1.681E4,4.106E3,1.165E3,6.119E3,1.983E3,1.64E2,3.3E1,8.7E2,2.05E2,4E0,9.8E1,1.56E3,5.7E1,2.43E2,5.01E2,1.08E2,7.594E3,6.25E2,4.9E2,2E2,4.4E1,1.4E1,3E0,1.04E2,5.8E1,4.2E1,8E0,3.3E1,1.8E1,1.425E3,6.23E2,2.3E1,5.7E1,1.59E2,1.8E1,1.7E1,5.8E1,5.9E1,4E0,9E0,6.18E2,3.1E1,1.6E1,2.1E1,2.7E1,3.2E1,3E0,5E0,3.1E1],"tree_param":{"num_deleted":"0","num_feature":"23","num_nodes":"113","size_leaf_vector":"1"}},{"base_weights":[-7.44311E-4,-6.985047E-3,8.44788E-2,-8.75289E-3,1.9278852E-2,1.542523E-1,5.8729514E-2,-1.2274519E-2,-3.8164947E-3,2.7486296E-2,7.6956386E-3,1.9451323E-1,6.365316E-2,3.1005884E-2,1.0923399E-1,-1.0470724E-2,-1.7181251E-2,-5.7066013E-3,1.5168921E-2,2.4239013E-2,7.942711E-2,7.256947E-2,3.411196E-3,9.7103685E-2,2.3013547E-1,5.475666E-2,1.0597829E-1,1.0704985E-2,9.104384E-2,8.842939E-2,1.455738E-1,-9.217515E-3,-1.5934456E-2,-1.4238328E-2,-1.9373806E-2,-2.964321E-3,-8.869732E-3,-7.4444374E-4,1.8919885E-2,2.2192715E-2,1.0062502E-1,1.0031252E-1,-7.058817E-4,9.406782E-2,-6.964279E-4,5.4000006E-3,2.596531E-3,1.2556393E-1,-7.265618E-4,2.5581554E-1,8.964288E-2,2.821972E-2,9.105266E-2,6.796876E-3,4.0322606E-2,8.267741E-3,1.2214286E-2,7.237356E-2,1.2670457E-1,2.846154E-1,8.341257E-2,1.384167E-1,1.4375E-2,-3.6301184E-4,-1.3055535E-4,-4.0726442E-4,-6.3333265E-4,-5.428455E-4,-3.249656E-4,-5.5001676E-4,-6.8127754E-4,-2.0678203E-4,1.8282216E-3,-3.4769994E-4,7.157966E-5,1.0470093E-3,4.1198227E-4,2.0767003E-4,8.94174E-4,2.1093819E-4,1.2666668E-2,7.142864E-4,3.7625008E-3,1.4107149E-3,5.958334E-3,-5.6662455E-5,1.0202213E-3,5.529851E-3,1.9477619E-3,9.480682E-3,5.0612907E-3,3.933334E-3,4.32693E-4,4.897966E-4,1.0446435E-3,3.4153853E-3,1.2096781E-3,2.0113643E-3,-6.749993E-4,-1.4859425E-5,1.0358398E-3,2.4820634E-3,1.2857212E-4,1.726028E-3,6.262501E-3,3.0937504E-3,1.4375E-2,2.0391205E-3,4.086865E-3,2.5401467E-3,5.474086E-3],"categories":[],"categories_nodes":[],"categories_segments":[],"categories_sizes":[],"default_left":[0,0,0,0,0,0,0,0,0,0,0,0,0,0,0,0,0,0,0,0,0,0,0,0,0,0,0,0,0,0,0,0,0,0,0,0,0,0,0,0,0,0,0,0,0,0,0,0,0,0,0,0,0,0,0,0,0,0,0,0,0,0,0,0,0,0,0,0,0,0,0,0,0,0,0,0,0,0,0,0,0,0,0,0,0,0,0,0,0,0,0,0,0,0,0,0,0,0,0,0,0,0,0,0,0,0,0,0,0,0,0],"id":3,"left_children":[1,3,5,7,9,11,13,15,17,19,21,23,25,27,29,31,33,35,37,39,41,43,45,47,49,51,53,55,57,59,61,63,65,67,69,71,73,-1,75,77,79,81,-1,83,-1,-1,85,87,-1,89,91,93,95,-1,97,99,-1,101,103,105,107,109,-1,-1,-1,-1,-1,-1,-1,-1,-1,-1,-1,-1,-1,-1,-1,-1,-1,-1,-1,-1,-1,-1,-1,-1,-1,-1,-1,-1,-1,-1,-1,-1,-1,-1,-1,-1,-1,-1,-1,-1,-1,-1,-1,-1,-1,-1,-1,-1,-1],"loss_changes":[2.5348797E1,2.0620992E0,5.833542E0,7.232902E-1,2.660755E-1,3.1829205E0,3.324811E0,2.1475172E-1,6.218207E-1,2.745191E-1,3.2300618E-1,2.0804405E0,9.624088E-2,1.8711399E0,6.237078E-1,1.2145245E-1,4.18334E-2,1.3666159E-1,2.3578408E-1,2.3910725E-1,2.087881E-1,1.5044561E-1,1.5662852E-1,5.6931114E-1,1.5753498E0,2.151103E-1,3.550483E-1,1.106816E0,2.4915862E-1,5.0577545E-1,6.6188145E-1,2.0261157E-1,4.0158093E-2,3.645307E-2,1.2545705E-2,2.1197455E0,2.2406363E-1,0E0,1.184718E-1,1.7475706E-1,1.2010108E0,1.506573E-1,0E0,2.8083044E-1,0E0,0E0,1.5334865E-1,4.6196342E-1,0E0,1.9080906E0,2.1645522E-1,9.795524E-3,1.0525948E-1,0E0,5.3551324E-2,2.6304433E-1,0E0,1.8096375E-1,7.3710394E-1,4.0960538E-1,4.1973686E-1,6.9483757E-1,0E0,0E0,0E0,0E0,0E0,0E0,0E0,0E0,0E0,0E0,0E0,0E0,0E0,0E0,0E0,0E0,0E0,0E0,0E0,0E0,0E0,0E0,0E0,0E0,0E0,0E0,0E0,0E0,0E0,0E0,0E0,0E0,0E0,0E0,0E0,0E0,0E0,0E0,0E0,0E0,0E0,0E0,0E0,0E0,0E0,0E0,0E0,0E0,0E0],"parents":[2147483647,0,0,1,1,2,2,3,3,4,4,5,5,6,6,7,7,8,8,9,9,10,10,11,11,12,12,13,13,14,14,15,15,16,16,17,17,18,18,19,19,20,20,21,21,22,22,23,23,24,24,25,25,26,26,27,27,28,28,29,29,30,30,31,31,32,32,33,33,34,34,35,35,36,36,38,38,39,39,40,40,41,41,43,43,46,46,47,47,49,49,50,50,51,51,52,52,54,54,55,55,57,57,58,58,59,59,60,60,61,61],"right_children":[2,4,6,8,10,12,14,16,18,20,22,24,26,28,30,32,34,36,38,40,42,44,46,48,50,52,54,56,58,60,62,64,66,68,70,72,74,-1,76,78,80,82,-1,84,-1,-1,86,88,-1,90,92,94,96,-1,98,100,-1,102,104,106,108,110,-1,-1,-1,-1,-1,-1,-1,-1,-1,-1,-1,-1,-1,-1,-1,-1,-1,-1,-1,-1,-1,-1,-1,-1,-1,-1,-1,-1,-1,-1,-1,-1,-1,-1,-1,-1,-1,-1,-1,-1,-1,-1,-1,-1,-1,-1,-1,-1,-1],"split_conditions":[1E0,-1.655391E1,1E0,-3.2008564E1,1.04E-1,7.72E-1,8.4E-2,1E0,2E0,9E-2,1E0,-1.4538146E0,2.3703762E1,3.2995945E1,3.2995945E1,1E0,2.625E-1,2.2E-2,7.5E-2,2.35E0,1E0,3.2995945E1,1.02E-2,1E0,1E0,1.075E0,3.2995945E1,2.35E0,6.861281E1,8.9E-2,1E0,3.4E-2,1.77E-1,9.05E-2,2.25E0,2.1E-2,1E0,-2.1838038E0,-2.8649345E1,4.1379175E0,1E0,-1.4538146E0,-3.2873344E0,3.4640203E0,-2.0773842E0,8.99506E0,4.5E0,6.8E-2,-3.5541644E0,2.4906E0,2.3703762E1,4.1379175E0,5.1E0,8.807049E0,1.075E0,1.3544956E1,8.810446E0,6.2E-2,1.701E-1,3.017E-1,7.72E-1,1.83E0,6.1648865E0,-2.0575273E0,-9.8859566E-1,-2.2358959E0,-2.2009122E0,-2.9090533E0,-1.1697295E0,-2.9982617E0,-3.0368555E0,-9.2550933E-1,5.2548428E0,-1.4163195E0,1.5988345E-1,2.9673774E0,1.2074895E0,8.6655426E-1,4.812934E0,5.52977E0,8.942349E0,6.323981E0,8.774452E0,6.7303214E0,7.2469654E0,-2.4041761E-1,7.110427E0,8.935377E0,8.069152E0,8.550865E0,8.26262E0,8.772999E0,1.5987506E0,2.4191566E0,6.1282597E0,9.088517E0,1.7632452E0,5.2972283E0,-5.4302444E0,-6.6383337E-3,5.5449276E0,7.4575477E0,4.8520403E0,7.9649487E0,9.01143E0,9.420074E0,9.354784E0,5.5169096E0,8.622241E0,8.001201E0,7.4894557E0],"split_indices":[7,22,21,22,1,1,1,18,0,1,21,22,22,22,22,13,0,1,1,0,10,22,0,13,15,0,22,0,22,1,16,1,1,0,0,1,6,0,22,22,8,22,0,22,0,0,0,1,0,0,22,22,0,0,0,22,0,1,0,0,1,0,0,0,0,0,0,0,0,0,0,0,0,0,0,0,0,0,0,0,0,0,0,0,0,0,0,0,0,0,0,0,0,0,0,0,0,0,0,0,0,0,0,0,0,0,0,0,0,0,0],"split_type":[0,0,0,0,0,0,0,0,0,0,0,0,0,0,0,0,0,0,0,0,0,0,0,0,0,0,0,0,0,0,0,0,0,0,0,0,0,0,0,0,0,0,0,0,0,0,0,0,0,0,0,0,0,0,0,0,0,0,0,0,0,0,0,0,0,0,0,0,0,0,0,0,0,0,0,0,0,0,0,0,0,0,0,0,0,0,0,0,0,0,0,0,0,0,0,0,0,0,0,0,0,0,0,0,0,0,0,0,0,0,0],"sum_hessian":[4.7659E4,4.4408E4,3.251E3,4.1608E4,2.8E3,8.75E2,2.376E3,2.4283E4,1.7325E4,1.638E3,1.162E3,6.05E2,2.7E2,1.535E3,8.41E2,1.7758E4,6.525E3,1.5757E4,1.568E3,1.543E3,9.5E1,7.1E1,1.091E3,1.63E2,4.42E2,2.25E2,4.5E1,1.148E3,3.87E2,5.37E2,3.04E2,1.4447E4,3.311E3,2.789E3,3.736E3,8.441E3,7.316E3,1.34E2,1.434E3,1.504E3,3.9E1,7.9E1,1.6E1,5.8E1,1.3E1,4E0,1.087E3,1.32E2,3.1E1,3.73E2,6.9E1,1.31E2,9.4E1,1.5E1,3E1,1.142E3,6E0,2.56E2,1.31E2,1.2E1,5.25E2,2.99E2,5E0,9.071E3,5.376E3,2.277E3,1.034E3,1.306E3,1.483E3,2.853E3,8.83E2,7.953E3,4.88E2,5.892E3,1.424E3,3.5E2,1.084E3,5.01E2,1.003E3,3.1E1,8E0,2E1,5.9E1,4.1E1,1.7E1,9.52E2,1.35E2,6.6E1,6.6E1,2.19E2,1.54E2,4.4E1,2.5E1,4.8E1,8.3E1,6.4E1,3E1,2.1E1,9E0,8.57E2,2.85E2,2.22E2,3.4E1,7.2E1,5.9E1,7E0,5E0,4.08E2,1.17E2,1.36E2,1.63E2],"tree_param":{"num_deleted":"0","num_feature":"23","num_nodes":"111","size_leaf_vector":"1"}},{"base_weights":[-1.630698E-4,-6.4733815E-3,8.460493E-2,-8.488127E-3,2.3869006E-2,5.547874E-3,1.06639594E-1,-1.2039267E-2,-3.5370877E-3,1.9343395E-2,5.281504E-2,-2.3036015E-3,9.208336E-2,8.72475E-2,1.4959478E-1,-1.3275756E-2,-7.7026538E-3,-5.817378E-3,2.0055506E-2,6.6035375E-2,1.5120808E-2,6.9078974E-2,1.2268542E-2,-8.484325E-3,6.4732164E-2,8.325001E-3,5.392159E-2,7.587105E-2,2.1326533E-1,3.7555557E-1,1.3598287E-1,-1.4652004E-2,-9.8606255E-3,-1.1911356E-2,-2.1542201E-3,-7.0374683E-3,8.989253E-3,3.4624577E-2,2.4135686E-3,4.2281903E-2,1.3550003E-1,1.0319151E-1,1.3186709E-2,2.3588734E-2,1.0804198E-1,-7.3770416E-4,5.885419E-2,-1.1115893E-2,4.2500023E-2,2.6428574E-1,3.5500024E-2,6.9375006E-3,3.8020857E-2,6.459065E-2,1.5300483E-1,6.281252E-2,3.8713238E-1,-6.249994E-4,4.2562503E-1,1.1519889E-1,1.8290046E-1,-6.7618396E-4,-4.2408553E-4,-1.6170836E-4,-4.510148E-4,-4.74572E-4,6.93189E-5,-9.436363E-5,2.0000008E-3,-2.5413104E-4,1.3119337E-4,6.454701E-5,1.8453244E-3,6.852029E-4,1.684967E-3,-7.4423006E-4,2.601777E-4,4.3382423E-4,3.0156255E-3,2.8392863E-3,9.333333E-3,2.0581402E-3,1.14E-2,1.236571E-3,2.8867403E-4,1.454269E-3,-7.3255744E-4,6.4800004E-3,2.5336142E-3,3.4137936E-3,-7.124993E-4,-8.30689E-5,-6.330791E-4,6.9375006E-3,3.8888957E-4,1.44375E-2,-5.6249945E-4,2.2750008E-3,-7.1428507E-4,2.6111116E-3,-7.159084E-4,1.6079411E-3,3.7330322E-3,2.017242E-3,6.3872957E-3,1.5974033E-3,6.9375006E-3,1.2184615E-2,-5.6249945E-4,1.6428571E-2,8.287501E-3,3.1829644E-3,7.4545457E-3,5.710763E-3,-6.66666E-4],"categories":[],"categories_nodes":[],"categories_segments":[],"categories_sizes":[],"default_left":[0,0,0,0,0,0,0,0,0,0,0,0,0,0,0,0,0,0,0,0,0,0,0,0,0,0,0,0,0,0,0,0,0,0,0,0,0,0,0,0,0,0,0,0,0,0,0,0,0,0,0,0,0,0,0,0,0,0,0,0,0,0,0,0,0,0,0,0,0,0,0,0,0,0,0,0,0,0,0,0,0,0,0,0,0,0,0,0,0,0,0,0,0,0,0,0,0,0,0,0,0,0,0,0,0,0,0,0,0,0,0,0,0,0,0],"id":4,"left_children":[1,3,5,7,9,11,13,15,17,19,21,23,25,27,29,31,33,35,37,39,41,43,45,47,49,-1,51,53,55,57,59,61,63,65,67,69,71,73,75,77,79,81,83,85,87,-1,89,91,93,95,97,-1,99,101,103,105,107,-1,109,111,113,-1,-1,-1,-1,-1,-1,-1,-1,-1,-1,-1,-1,-1,-1,-1,-1,-1,-1,-1,-1,-1,-1,-1,-1,-1,-1,-1,-1,-1,-1,-1,-1,-1,-1,-1,-1,-1,-1,-1,-1,-1,-1,-1,-1,-1,-1,-1,-1,-1,-1,-1,-1,-1,-1],"loss_changes":[2.5500895E1,2.7126384E0,5.7532196E0,7.3150253E-1,3.6092734E-1,4.900821E-1,2.138565E0,1.2981796E-1,9.351252E-1,4.7041333E-1,2.4512565E-1,2.7483538E-1,4.0958637E-1,2.538559E0,2.4156895E0,8.846116E-2,1.2555978E-1,2.8638226E-1,3.936813E-1,3.2097614E-1,3.7235957E-1,4.6891952E-1,1.8689246E-1,8.191286E-2,3.1728703E-1,0E0,1.3500993E-1,1.4136009E0,3.8210254E0,9.019804E-1,7.180824E-1,5.4341555E-2,1.2521571E-1,1.6998619E-1,1.5854289E-1,2.3956472E-1,4.3333268E-1,2.1169674E-1,1.184577E-1,2.3996681E-1,3.2930386E-1,4.2390501E-1,2.1421859E-1,1.493331E-1,3.459121E-1,0E0,2.2053547E-1,4.8122875E-2,1.6425577E-1,4.3888393E-1,1.21413104E-1,0E0,1.4767742E-1,9.33383E-1,1.054317E0,1.16585106E-1,5.3260803E-1,0E0,5.776348E-1,6.140537E-1,3.576293E-1,0E0,0E0,0E0,0E0,0E0,0E0,0E0,0E0,0E0,0E0,0E0,0E0,0E0,0E0,0E0,0E0,0E0,0E0,0E0,0E0,0E0,0E0,0E0,0E0,0E0,0E0,0E0,0E0,0E0,0E0,0E0,0E0,0E0,0E0,0E0,0E0,0E0,0E0,0E0,0E0,0E0,0E0,0E0,0E0,0E0,0E0,0E0,0E0,0E0,0E0,0E0,0E0,0E0,0E0],"parents":[2147483647,0,0,1,1,2,2,3,3,4,4,5,5,6,6,7,7,8,8,9,9,10,10,11,11,12,12,13,13,14,14,15,15,16,16,17,17,18,18,19,19,20,20,21,21,22,22,23,23,24,24,26,26,27,27,28,28,29,29,30,30,31,31,32,32,33,33,34,34,35,35,36,36,37,37,38,38,39,39,40,40,41,41,42,42,43,43,44,44,46,46,47,47,48,48,49,49,50,50,52,52,53,53,54,54,55,55,56,56,58,58,59,59,60,60],"right_children":[2,4,6,8,10,12,14,16,18,20,22,24,26,28,30,32,34,36,38,40,42,44,46,48,50,-1,52,54,56,58,60,62,64,66,68,70,72,74,76,78,80,82,84,86,88,-1,90,92,94,96,98,-1,100,102,104,106,108,-1,110,112,114,-1,-1,-1,-1,-1,-1,-1,-1,-1,-1,-1,-1,-1,-1,-1,-1,-1,-1,-1,-1,-1,-1,-1,-1,-1,-1,-1,-1,-1,-1,-1,-1,-1,-1,-1,-1,-1,-1,-1,-1,-1,-1,-1,-1,-1,-1,-1,-1,-1,-1,-1,-1,-1,-1],"split_conditions":[1E0,-1.655391E1,-2.071512E1,-3.2008564E1,3.2995945E1,1.0275E0,1.83E0,1.5E1,2E0,4E-3,1.77E-1,7E0,1.2E0,1E0,7.5E-2,9E-2,9.45E-2,2.9E1,2.25E0,7.008416E0,3.3E-2,3E-2,2.25E0,9.7E-2,8E0,6.633182E0,1E0,6.861281E1,3.6E-3,2.35E0,3.2995945E1,2.68E-2,1E0,1E0,9.8E1,1E0,-2.071512E1,5E0,7.5E-2,5E1,1E0,1E0,1E0,1.2E-1,2.281E-1,-2.2362292E0,4.2288E0,3.7E-1,1.08E-1,1.979E-1,2.5E-1,2.6757486E0,2E0,1E0,1.701E-1,2.9E1,2.625E-1,-2.3463225E0,5E0,5E0,5E0,-3.315667E0,-2.304502E0,-9.8243403E-1,-2.3498135E0,-2.4511318E0,4.6231344E-2,-1.3925485E-1,1.5825453E0,-1.1807919E0,5.0541604E-1,6.426069E-1,2.2128608E0,1.7784749E0,6.197318E0,-2.0733683E0,1.0059662E0,4.1853228E0,4.6557255E0,9.145302E0,6.661537E0,8.618884E0,9.270773E0,6.1198153E0,2.690804E0,3.7930124E0,-7.509677E-1,9.411762E0,8.457956E0,9.598166E0,-1.2250112E0,-9.654552E-1,-3.8121529E0,1.9397873E0,5.31905E0,8.131436E0,-5.291463E0,7.8493795E0,-2.9546328E0,6.9464245E0,-1.1489053E0,5.8447013E0,6.9202466E0,7.289883E0,8.373695E0,5.273916E0,4.5213795E0,8.571841E0,-3.899012E0,8.546132E0,8.187777E0,7.7030425E0,6.8971534E0,7.215756E0,-2.9081725E-2],"split_indices":[7,22,22,22,22,0,0,2,0,1,1,2,0,19,1,1,0,2,0,22,0,1,0,1,2,0,21,22,0,0,22,0,13,5,2,15,22,2,1,2,10,15,21,0,0,0,0,0,1,0,0,0,2,8,0,2,0,0,2,2,2,0,0,0,0,0,0,0,0,0,0,0,0,0,0,0,0,0,0,0,0,0,0,0,0,0,0,0,0,0,0,0,0,0,0,0,0,0,0,0,0,0,0,0,0,0,0,0,0,0,0,0,0,0,0],"split_type":[0,0,0,0,0,0,0,0,0,0,0,0,0,0,0,0,0,0,0,0,0,0,0,0,0,0,0,0,0,0,0,0,0,0,0,0,0,0,0,0,0,0,0,0,0,0,0,0,0,0,0,0,0,0,0,0,0,0,0,0,0,0,0,0,0,0,0,0,0,0,0,0,0,0,0,0,0,0,0,0,0,0,0,0,0,0,0,0,0,0,0,0,0,0,0,0,0,0,0,0,0,0,0,0,0,0,0,0,0,0,0,0,0,0,0],"sum_hessian":[4.7671E4,4.4369E4,3.302E3,4.1607E4,2.762E3,7.2E2,2.582E3,2.4228E4,1.7379E4,2.39E3,3.72E2,6.61E2,5.9E1,1.781E3,8.01E2,1.8851E4,5.377E3,1.5848E4,1.531E3,1.97E2,2.193E3,2.65E2,1.07E2,6.06E2,5.5E1,9E0,5E1,1.635E3,1.46E2,4.4E1,7.57E2,1.3434E4,5.417E3,3.057E3,2.32E3,1.4642E4,1.206E3,8.38E2,6.93E2,1.48E2,4.9E1,4.6E1,2.147E3,1.23E2,1.42E2,6E1,4.7E1,5.77E2,2.9E1,6E0,4.9E1,3E0,4.7E1,1.428E3,2.07E2,7.9E1,6.7E1,5E0,3.9E1,5.27E2,2.3E2,8.22E2,1.2612E4,2.907E3,2.51E3,2.398E3,6.59E2,2.288E3,3.2E1,1.3008E4,1.634E3,1.068E3,1.38E2,5.43E2,2.95E2,1.29E2,5.64E2,1.01E2,4.7E1,4.1E1,8E0,4.2E1,4E0,2.41E2,1.906E3,8.1E1,4.2E1,2.4E1,1.18E2,2.8E1,1.9E1,3.15E2,2.62E2,3E0,2.6E1,3E0,3E0,2.9E1,2E1,2.6E1,2.1E1,1.208E3,2.2E2,8.6E1,1.21E2,7.6E1,3E0,6.4E1,3E0,2E1,1.9E1,4.95E2,3.2E1,2.22E2,8E0],"tree_param":{"num_deleted":"0","num_feature":"23","num_nodes":"115","size_leaf_vector":"1"}},{"base_weights":[-5.2708935E-4,-6.6163945E-3,8.259096E-2,-8.372811E-3,2.0213181E-2,5.7383277E-3,1.0308476E-1,-1.1634715E-2,-3.839385E-3,1.5061805E-2,5.2400023E-2,-2.5958228E-3,9.406782E-2,1.224918E-1,5.4979697E-2,-9.785351E-3,-1.6673066E-2,-5.713091E-3,1.5645502E-2,3.985918E-2,1.0637254E-2,7.068017E-2,4.086562E-3,-9.27698E-3,6.9811344E-2,1.8161768E-1,-7.211531E-4,1.3242981E-1,7.0323154E-2,4.5476545E-2,5.1000005E-1,-1.030978E-2,7.3055266E-3,-1.9873617E-2,-1.3693107E-2,-6.948219E-3,8.836578E-3,-7.4563886E-4,2.077493E-2,2.587893E-2,7.525002E-2,1.2855818E-3,1.854169E-2,5.3030327E-2,1.6607144E-1,-7.3636294E-4,3.5500024E-2,-1.428569E-2,1.2971722E-2,2.1176472E-1,2.7027258E-3,1.1379313E-1,1.4375E-2,1.4241926E-1,5.161767E-2,8.241782E-3,9.767159E-2,2.4958426E-2,1.4455648E-1,1.840909E-2,5.4000006E-3,-3.563647E-4,-1.2638698E-4,2.4142344E-5,1.6814523E-3,-6.0538907E-4,2.3250007E-3,-5.3445116E-4,-2.395531E-4,-2.581383E-4,1.8681222E-4,5.6250712E-5,1.64724E-3,3.307094E-4,1.1788015E-3,6.000007E-4,4.312501E-3,2.7500067E-4,3.063381E-3,2.4245761E-4,-6.095883E-4,4.1641173E-4,1.8786415E-3,-7.285707E-4,1.9949244E-3,1.65E-2,2.6041674E-3,6.9375006E-3,5.425539E-4,-5.3895277E-4,7.6875073E-4,1.4062506E-3,-7.352934E-4,8.538461E-3,-5.999994E-4,1.8125005E-3,-7.211531E-4,6.8125003E-3,9.58334E-4,3.760178E-3,5.4740747E-3,1.0738644E-3,3.1153853E-3,1.5000007E-3,-2.7692236E-4,2.6050538E-3,6.3529415E-3,6.3589815E-4,4.5882356E-3,7.230469E-3,1.2295088E-3],"categories":[],"categories_nodes":[],"categories_segments":[],"categories_sizes":[],"default_left":[0,0,0,0,0,0,0,0,0,0,0,0,0,0,0,0,0,0,0,0,0,0,0,0,0,0,0,0,0,0,0,0,0,0,0,0,0,0,0,0,0,0,0,0,0,0,0,0,0,0,0,0,0,0,0,0,0,0,0,0,0,0,0,0,0,0,0,0,0,0,0,0,0,0,0,0,0,0,0,0,0,0,0,0,0,0,0,0,0,0,0,0,0,0,0,0,0,0,0,0,0,0,0,0,0,0,0,0,0,0,0],"id":5,"left_children":[1,3,5,7,9,11,13,15,17,19,21,23,25,27,29,31,33,35,37,39,41,43,45,47,49,51,-1,53,55,57,59,61,63,65,67,69,71,-1,73,75,77,79,81,83,85,-1,87,89,91,93,95,97,-1,99,101,103,105,107,109,-1,-1,-1,-1,-1,-1,-1,-1,-1,-1,-1,-1,-1,-1,-1,-1,-1,-1,-1,-1,-1,-1,-1,-1,-1,-1,-1,-1,-1,-1,-1,-1,-1,-1,-1,-1,-1,-1,-1,-1,-1,-1,-1,-1,-1,-1,-1,-1,-1,-1,-1,-1],"loss_changes":[2.4053417E1,2.0868154E0,5.108717E0,6.1452794E-1,4.503703E-1,5.0377166E-1,2.3841553E0,2.250371E-1,6.350531E-1,2.5708234E-1,3.3090246E-1,3.034837E-1,6.144368E-1,9.3634605E-1,3.1680143E0,1.5855837E-1,6.160724E-2,2.8520244E-1,3.175315E-1,1.7369694E-1,1.4729813E-1,4.4914365E-1,9.441208E-2,6.415032E-2,5.0432134E-1,6.3163245E-1,0E0,1.2285767E0,4.983567E-1,1.4682361E0,4.025457E-1,1.6406882E-1,1.6694373E-1,9.471321E-2,7.898229E-2,3.1924313E-1,3.9824206E-1,0E0,2.4425107E-1,1.7452101E-1,1.765815E-1,1.343725E-1,2.2103685E-1,2.4213839E-1,1.2304189E0,0E0,1.6626608E-1,6.933186E-2,1.3584805E-1,2.9272395E-1,5.8555853E-2,2.6165286E-1,0E0,9.0880775E-1,1.3676557E-1,6.6857144E-2,2.3382986E-1,2.8610864E-1,1.2289505E0,0E0,0E0,0E0,0E0,0E0,0E0,0E0,0E0,0E0,0E0,0E0,0E0,0E0,0E0,0E0,0E0,0E0,0E0,0E0,0E0,0E0,0E0,0E0,0E0,0E0,0E0,0E0,0E0,0E0,0E0,0E0,0E0,0E0,0E0,0E0,0E0,0E0,0E0,0E0,0E0,0E0,0E0,0E0,0E0,0E0,0E0,0E0,0E0,0E0,0E0,0E0,0E0],"parents":[2147483647,0,0,1,1,2,2,3,3,4,4,5,5,6,6,7,7,8,8,9,9,10,10,11,11,12,12,13,13,14,14,15,15,16,16,17,17,18,18,19,19,20,20,21,21,22,22,23,23,24,24,25,25,27,27,28,28,29,29,30,30,31,31,32,32,33,33,34,34,35,35,36,36,38,38,39,39,40,40,41,41,42,42,43,43,44,44,46,46,47,47,48,48,49,49,50,50,51,51,53,53,54,54,55,55,56,56,57,57,58,58],"right_children":[2,4,6,8,10,12,14,16,18,20,22,24,26,28,30,32,34,36,38,40,42,44,46,48,50,52,-1,54,56,58,60,62,64,66,68,70,72,-1,74,76,78,80,82,84,86,-1,88,90,92,94,96,98,-1,100,102,104,106,108,110,-1,-1,-1,-1,-1,-1,-1,-1,-1,-1,-1,-1,-1,-1,-1,-1,-1,-1,-1,-1,-1,-1,-1,-1,-1,-1,-1,-1,-1,-1,-1,-1,-1,-1,-1,-1,-1,-1,-1,-1,-1,-1,-1,-1,-1,-1,-1,-1,-1,-1,-1,-1],"split_conditions":[1E0,-1.655391E1,-2.071512E1,-3.2008564E1,3.2995945E1,6E0,1E0,1E0,2E0,6.25E-2,1.77E-1,1.0275E0,2.5E-1,1E0,1E0,3.97E-1,7E0,2.8E1,9E-2,2.5E1,6E-1,1.21E-1,2.25E0,1E0,1.45E0,1.539E-1,-1.6367688E0,1E0,1.3544956E1,6.861281E1,9E0,1.5E1,3E0,1E0,2.1E-2,1E0,-2.071512E1,-2.293539E0,4E0,1E0,4.1379175E0,6.2E-2,6E0,5E-3,1.24E-1,-2.1059518E0,2.45E0,7.2E-2,3.7E-1,2.04E-1,1.83E0,2.2E-2,7.887493E0,3.2995945E1,2.3703762E1,-6.9124484E0,3.7E1,1.005E1,1E0,6.589922E0,3.9170444E0,-1.9093139E0,-6.039295E-1,2.211436E-1,5.685353E0,-2.9289865E0,1.0394277E1,-1.7729049E0,-1.1724938E0,-1.2169192E0,5.5691105E-1,1.6204448E-1,2.6742742E0,1.0535566E0,3.021565E0,4.26299E0,8.99265E0,2.8677063E-2,6.5938287E0,2.8501136E0,-2.3582447E0,3.0302808E0,7.4282703E0,-2.3984628E0,5.7593412E0,9.017974E0,8.198674E0,4.790721E0,6.251872E0,-3.4954093E0,5.487266E0,7.290463E0,-1.2379478E0,6.434187E0,-5.4284077E0,6.6680045E0,-4.7528136E-1,7.6138988E0,2.4132137E0,7.577355E0,7.7690587E0,5.6107316E0,8.3674965E0,2.5267456E0,1.1309448E0,7.9615183E0,5.1801157E0,3.1663086E0,7.0586185E0,7.295844E0,1.651769E0],"split_indices":[7,22,22,22,22,2,11,18,0,0,1,0,0,9,20,1,2,2,1,2,0,1,0,11,0,0,0,18,22,22,2,2,2,11,1,15,22,0,2,15,22,1,2,1,1,0,0,1,0,1,0,0,0,22,22,22,2,0,14,0,0,0,0,0,0,0,0,0,0,0,0,0,0,0,0,0,0,0,0,0,0,0,0,0,0,0,0,0,0,0,0,0,0,0,0,0,0,0,0,0,0,0,0,0,0,0,0,0,0,0,0],"split_type":[0,0,0,0,0,0,0,0,0,0,0,0,0,0,0,0,0,0,0,0,0,0,0,0,0,0,0,0,0,0,0,0,0,0,0,0,0,0,0,0,0,0,0,0,0,0,0,0,0,0,0,0,0,0,0,0,0,0,0,0,0,0,0,0,0,0,0,0,0,0,0,0,0,0,0,0,0,0,0,0,0,0,0,0,0,0,0,0,0,0,0,0,0,0,0,0,0,0,0,0,0,0,0,0,0,0,0,0,0,0,0],"sum_hessian":[4.7522E4,4.4279E4,3.243E3,4.1559E4,2.72E3,6.83E2,2.56E3,2.4168E4,1.7391E4,2.346E3,3.74E2,6.25E2,5.8E1,1.823E3,7.37E2,1.7681E4,6.487E3,1.5866E4,1.525E3,3.54E2,1.992E3,2.71E2,1.03E2,5.73E2,5.2E1,3.3E1,2.5E1,1.53E3,2.93E2,7.23E2,1.4E1,1.7155E4,5.26E2,3.125E3,3.362E3,1.4625E4,1.241E3,1.71E2,1.354E3,2.55E2,9.9E1,9.13E2,1.079E3,2.3E2,4.1E1,5.4E1,4.9E1,4.68E2,1.05E2,1.6E1,3.6E1,2.8E1,5E0,1.361E3,1.69E2,9E1,2.03E2,6E2,1.23E2,1E1,4E0,1.3643E4,3.512E3,4.65E2,6.1E1,3.116E3,9E0,1.951E3,1.411E3,1.2992E4,1.633E3,1.079E3,1.62E2,8.88E2,4.66E2,2.44E2,1.1E1,2.9E1,7E1,6.95E2,2.18E2,9.77E2,1.02E2,3.4E1,1.96E2,6E0,3.5E1,3E0,4.6E1,4.29E2,3.9E1,5.5E1,5E1,1.2E1,4E0,1.1E1,2.5E1,1.1E1,1.7E1,9.57E2,4.04E2,1.31E2,3.8E1,2.6E1,6.4E1,1.87E2,1.6E1,5.84E2,1.6E1,6.3E1,6E1],"tree_param":{"num_deleted":"0","num_feature":"23","num_nodes":"111","size_leaf_vector":"1"}},{"base_weights":[-9.687024E-4,-7.847618E-3,5.692983E-2,-1.138421E-2,-3.1421806E-3,1.1846826E-1,4.210042E-2,-1.187667E-2,1.01015E-2,-5.394167E-3,2.1240259E-2,1.0098579E-1,3.6601564E-1,2.4644298E-2,9.312684E-2,-1.4475101E-2,-9.247805E-3,3.9098863E-2,-3.3692485E-3,-7.0424587E-3,1.4733939E-2,1.6802432E-2,7.120002E-2,1.3368987E-1,4.8725236E-2,4.2187503E-1,-6.66666E-4,2.0758308E-2,6.821865E-2,7.404087E-2,1.6095135E-1,-1.7400634E-2,-1.3015489E-2,-1.1320677E-2,-3.5107168E-3,2.3636388E-2,3.5312504E-1,-5.7534007E-3,3.6428578E-3,-5.974163E-3,-1.9297866E-2,6.970014E-3,5.0000023E-2,1.44531485E-2,6.2318865E-2,5.7172153E-2,1.44375E-2,8.786767E-2,1.594274E-1,1.6323553E-2,7.839676E-2,-5.6249945E-4,4.4716984E-1,4.2935804E-2,1.5333805E-2,9.375E-3,6.188019E-2,5.354098E-2,1.275785E-1,1.5448433E-1,1.44375E-2,-1.2629462E-4,-5.647076E-4,-4.5029348E-4,-2.458003E-4,-4.069142E-4,-1.5765695E-4,-2.0818219E-4,3.0382845E-4,-2.5403153E-4,1.276443E-3,5.4000006E-3,1.44375E-2,1.5450716E-4,-7.443602E-4,-3.134712E-5,-3.0104403E-4,1.3970658E-4,-6.4323534E-4,4.123783E-5,1.118013E-3,7.3000006E-3,1.0845077E-3,6.9375006E-3,4.1387096E-4,1.2295088E-3,6.0000005E-3,1.0757582E-3,4.2812508E-3,3.0453303E-3,-7.173906E-4,9.933334E-3,4.0294593E-3,-1.093743E-4,7.195129E-4,2.5114291E-3,-6.749993E-4,1.1410715E-2,1.93125E-2,8.537628E-4,2.6138066E-3,3.8533466E-4,2.1929354E-3,1.072728E-3,3.4903854E-3,7.1707385E-4,2.079189E-3,1.5407616E-3,5.392046E-3,-6.8749936E-4,4.913916E-3],"categories":[],"categories_nodes":[],"categories_segments":[],"categories_sizes":[],"default_left":[0,0,0,0,0,0,0,0,0,0,0,0,0,0,0,0,0,0,0,0,0,0,0,0,0,0,0,0,0,0,0,0,0,0,0,0,0,0,0,0,0,0,0,0,0,0,0,0,0,0,0,0,0,0,0,0,0,0,0,0,0,0,0,0,0,0,0,0,0,0,0,0,0,0,0,0,0,0,0,0,0,0,0,0,0,0,0,0,0,0,0,0,0,0,0,0,0,0,0,0,0,0,0,0,0,0,0,0,0,0,0],"id":6,"left_children":[1,3,5,7,9,11,13,15,17,19,21,23,25,27,29,31,33,35,37,39,41,43,45,47,49,51,-1,53,55,57,59,61,63,65,67,69,71,73,-1,75,77,79,81,83,85,87,-1,89,91,93,95,-1,97,99,101,-1,103,105,107,109,-1,-1,-1,-1,-1,-1,-1,-1,-1,-1,-1,-1,-1,-1,-1,-1,-1,-1,-1,-1,-1,-1,-1,-1,-1,-1,-1,-1,-1,-1,-1,-1,-1,-1,-1,-1,-1,-1,-1,-1,-1,-1,-1,-1,-1,-1,-1,-1,-1,-1,-1],"loss_changes":[1.8861355E1,7.043536E-1,4.5843716E0,2.558062E-1,9.974803E-1,4.1869116E0,3.6086974E0,1.6123986E-1,2.1184573E-1,5.5180395E-1,3.3935434E-1,1.5539246E0,1.3973246E0,5.1029766E-1,1.3252983E0,5.0498486E-2,1.3964653E-1,8.2682025E-1,1.11084886E-1,2.0112795E-1,3.4436977E-1,1.5008587E-1,6.915018E-1,6.476078E-1,3.3809716E-1,6.32535E-1,0E0,3.3329976E-1,3.631091E-1,8.799615E-1,3.9378595E-1,7.4080825E-2,7.612848E-2,1.1731756E-1,1.4591973E-1,1.0053898E-1,9.082806E-2,7.5977765E-2,0E0,2.830149E-1,6.335387E-2,1.7506805E-1,5.990234E-1,1.8837425E-1,1.9448799E-1,2.1729839E-1,0E0,3.135401E-1,1.4989843E0,2.6092265E-2,1.006037E-1,0E0,4.5124912E-1,3.4618747E-1,3.2000697E-1,0E0,3.4015566E-1,2.7215827E-1,8.772719E-1,3.7217426E-1,0E0,0E0,0E0,0E0,0E0,0E0,0E0,0E0,0E0,0E0,0E0,0E0,0E0,0E0,0E0,0E0,0E0,0E0,0E0,0E0,0E0,0E0,0E0,0E0,0E0,0E0,0E0,0E0,0E0,0E0,0E0,0E0,0E0,0E0,0E0,0E0,0E0,0E0,0E0,0E0,0E0,0E0,0E0,0E0,0E0,0E0,0E0,0E0,0E0,0E0,0E0],"parents":[2147483647,0,0,1,1,2,2,3,3,4,4,5,5,6,6,7,7,8,8,9,9,10,10,11,11,12,12,13,13,14,14,15,15,16,16,17,17,18,18,19,19,20,20,21,21,22,22,23,23,24,24,25,25,27,27,28,28,29,29,30,30,31,31,32,32,33,33,34,34,35,35,36,36,37,37,39,39,40,40,41,41,42,42,43,43,44,44,45,45,47,47,48,48,49,49,50,50,52,52,53,53,54,54,56,56,57,57,58,58,59,59],"right_children":[2,4,6,8,10,12,14,16,18,20,22,24,26,28,30,32,34,36,38,40,42,44,46,48,50,52,-1,54,56,58,60,62,64,66,68,70,72,74,-1,76,78,80,82,84,86,88,-1,90,92,94,96,-1,98,100,102,-1,104,106,108,110,-1,-1,-1,-1,-1,-1,-1,-1,-1,-1,-1,-1,-1,-1,-1,-1,-1,-1,-1,-1,-1,-1,-1,-1,-1,-1,-1,-1,-1,-1,-1,-1,-1,-1,-1,-1,-1,-1,-1,-1,-1,-1,-1,-1,-1,-1,-1,-1,-1,-1,-1],"split_conditions":[-6.3756423E0,-3.2008564E1,1E0,3.97E-1,2E0,1E0,3.2995945E1,6E0,2.45E0,2.8E1,8E0,3.97E-1,1.539E-1,6.72E-1,2.15E0,2.9E-2,1E0,1E0,4E0,1E0,1.7E-2,6.5E0,1E0,1.701E-1,1E0,1.05E-1,-1.9414531E0,8.5E-2,1.35E0,6.861281E1,7E0,3.3E-2,1E0,3.3E-2,1E0,2E0,2E0,1E0,3.9585844E-1,-2.7197727E1,3E-3,-2.071512E1,3E1,3.8E-2,-2.071512E1,-2.2713074E1,3.7995327E0,1E0,4.25E-1,2E0,3E0,-5.309383E0,8.823524E0,1.2E-2,5.1E0,3.154075E0,1E0,1E0,1.701E-1,1.08E-1,8.24756E0,-1.2355585E0,-2.6749763E0,-2.3359606E0,-1.5369818E0,-1.688798E0,-1.1555299E0,-1.2355072E0,1.8830659E0,-1.2660891E0,5.877462E0,2.3332114E0,4.697122E0,5.648093E-1,-2.6104167E0,-9.761853E-2,-1.3059372E0,1.2336562E0,-2.742688E0,1.4513877E-1,2.2235126E0,6.74219E0,3.2572021E0,6.742058E0,1.352678E0,6.5205965E0,6.6058693E0,6.9014325E0,5.727818E0,7.9040165E0,-3.2848718E0,7.8669543E0,7.556331E0,5.2906466E0,2.7834365E0,6.67478E0,-3.086966E-1,7.6950088E0,8.123888E0,4.622923E0,7.9600196E0,3.290225E0,7.5124526E0,6.439187E0,7.912314E0,1.8891819E0,6.5963254E0,6.6774077E0,7.8313475E0,-1.0358624E0,7.1884704E0],"split_indices":[22,22,21,1,0,17,22,2,0,2,2,1,0,1,0,1,5,17,2,17,1,0,20,0,20,0,0,0,0,22,2,0,20,1,20,2,2,20,0,22,1,22,2,1,22,22,0,16,0,2,2,0,22,1,0,0,17,14,0,1,0,0,0,0,0,0,0,0,0,0,0,0,0,0,0,0,0,0,0,0,0,0,0,0,0,0,0,0,0,0,0,0,0,0,0,0,0,0,0,0,0,0,0,0,0,0,0,0,0,0,0],"split_type":[0,0,0,0,0,0,0,0,0,0,0,0,0,0,0,0,0,0,0,0,0,0,0,0,0,0,0,0,0,0,0,0,0,0,0,0,0,0,0,0,0,0,0,0,0,0,0,0,0,0,0,0,0,0,0,0,0,0,0,0,0,0,0,0,0,0,0,0,0,0,0,0,0,0,0,0,0,0,0,0,0,0,0,0,0,0,0,0,0,0,0,0,0,0,0,0,0,0,0,0,0,0,0,0,0,0,0,0,0,0,0],"sum_hessian":[4.7355E4,4.2327E4,5.028E3,2.4164E4,1.8163E4,9.75E2,4.053E3,2.3623E4,5.41E2,1.6628E4,1.535E3,9.12E2,6.3E1,3.021E3,1.032E3,1.1878E4,1.1745E4,1.71E2,3.7E2,1.537E4,1.258E3,1.411E3,1.24E2,5.6E2,3.52E2,5.5E1,8E0,2.775E3,2.46E2,8.07E2,2.25E2,3.95E3,7.928E3,8.627E3,3.118E3,1.64E2,7E0,3.64E2,6E0,1.4139E4,1.231E3,1.032E3,2.26E2,1.343E3,6.8E1,1.21E2,3E0,2.03E2,3.57E2,1.69E2,1.83E2,3E0,5.2E1,5.44E2,2.231E3,5E0,2.41E2,5.85E2,2.22E2,2.22E2,3E0,3.85E2,3.565E3,5.607E3,2.321E3,6.297E3,2.33E3,2.492E3,6.26E2,6.1E1,1.03E2,4E0,3E0,2.32E2,1.32E2,6.387E3,7.752E3,1.01E2,1.13E3,8.72E2,1.6E2,1.4E1,2.12E2,3E0,1.34E3,6E1,8E0,9.8E1,2.3E1,1.81E2,2.2E1,4.4E1,3.13E2,4.7E1,1.22E2,1.74E2,9E0,4.1E1,1.1E1,4.11E2,1.33E2,2.14E3,9.1E1,1.64E2,7.7E1,2.04E2,3.81E2,9.1E1,1.31E2,1.1E1,2.11E2],"tree_param":{"num_deleted":"0","num_feature":"23","num_nodes":"111","size_leaf_vector":"1"}},{"base_weights":[-9.6078723E-4,-6.681663E-3,7.539948E-2,-8.317931E-3,2.0072516E-2,5.3141385E-2,1.4149703E-1,-1.1410079E-2,-4.0426874E-3,4.8944615E-2,1.5029923E-2,4.1934814E-2,2.2352943E-1,3.0204085E-1,1.313215E-1,-1.2873567E-2,-6.319318E-3,-6.292206E-3,1.9460808E-2,3.4623038E-2,7.675783E-2,1.9864365E-2,-8.672063E-3,3.2839704E-2,1.3609758E-1,5.668607E-2,4.3125004E-1,2.4829547E-1,1.9375E-2,3.6153847E-1,1.2729035E-1,-1.1663938E-2,-1.657307E-2,-8.971662E-3,7.854654E-3,-8.859872E-3,2.7691456E-3,5.0874658E-2,1.0374603E-2,5.6406274E-2,-3.225783E-3,2.3790346E-2,1.2462689E-1,1.7641153E-2,7.394368E-2,-1.3499976E-2,7.6250024E-2,2.3491515E-2,1.2857145E-1,-7.2413724E-4,1.6158195E-1,3.703706E-2,9.375E-3,3.0952382E-1,4.7552085E-1,5.3846177E-2,3.1953126E-1,-5.6249945E-4,4.7750002E-1,1.2021712E-1,2.5769234E-1,-4.2936215E-4,-2.5852976E-4,-5.3897634E-4,-2.933537E-4,-1.7442851E-4,-5.135606E-4,2.0382424E-4,6.9375006E-3,-3.301454E-4,-4.4603985E-5,5.8007015E-5,2.2687507E-3,4.0191456E-4,3.255556E-3,-2.692812E-4,5.7933654E-4,1.1978424E-3,4.7386372E-3,-7.3369493E-4,5.156257E-4,2.8800007E-3,-7.302624E-4,2.8220345E-3,9.333333E-3,4.4079425E-4,1.6754039E-3,3.933334E-3,-7.222215E-4,-4.861911E-4,3.6428578E-3,5.4000006E-3,1.1718756E-3,2.0896256E-4,1.3911446E-3,3.4404076E-3,7.6250006E-3,5.4811323E-3,-7.1052567E-4,-1.8055485E-4,3.5625005E-3,4.772728E-3,1.2954546E-2,1.5365855E-2,6.8437504E-3,-6.749993E-4,6.9375006E-3,1.5681818E-2,6.1022737E-3,1.65E-2,6.9375006E-3,3.1168277E-3,4.7580283E-3,-6.428565E-4,9.272728E-3],"categories":[],"categories_nodes":[],"categories_segments":[],"categories_sizes":[],"default_left":[0,0,0,0,0,0,0,0,0,0,0,0,0,0,0,0,0,0,0,0,0,0,0,0,0,0,0,0,0,0,0,0,0,0,0,0,0,0,0,0,0,0,0,0,0,0,0,0,0,0,0,0,0,0,0,0,0,0,0,0,0,0,0,0,0,0,0,0,0,0,0,0,0,0,0,0,0,0,0,0,0,0,0,0,0,0,0,0,0,0,0,0,0,0,0,0,0,0,0,0,0,0,0,0,0,0,0,0,0,0,0,0,0,0,0],"id":7,"left_children":[1,3,5,7,9,11,13,15,17,19,21,23,25,27,29,31,33,35,37,39,41,43,45,47,49,51,53,55,-1,57,59,61,63,65,67,69,71,73,75,77,79,81,83,85,87,89,91,93,95,-1,97,99,-1,101,103,105,107,-1,109,111,113,-1,-1,-1,-1,-1,-1,-1,-1,-1,-1,-1,-1,-1,-1,-1,-1,-1,-1,-1,-1,-1,-1,-1,-1,-1,-1,-1,-1,-1,-1,-1,-1,-1,-1,-1,-1,-1,-1,-1,-1,-1,-1,-1,-1,-1,-1,-1,-1,-1,-1,-1,-1,-1,-1],"loss_changes":[2.0790081E1,1.9383495E0,4.872469E0,5.515187E-1,3.7081075E-1,4.731829E0,1.3244076E0,1.8029737E-1,9.2606187E-1,1.4830917E-1,2.4928194E-1,1.991848E0,5.2780437E0,7.45028E-1,6.843462E-1,8.395505E-2,2.0338018E-1,3.7191665E-1,4.3618423E-1,2.0794833E-1,3.2157958E-1,2.1583056E-1,1.5231806E-1,1.9004712E0,8.4101796E-1,4.207041E-1,2.1926212E-1,5.9227157E-1,0E0,5.8223796E-1,6.838522E-1,1.1421764E-1,4.365027E-2,1.1709553E-1,2.0051625E-1,1.9696039E-1,2.1474887E-1,7.3954576E-1,2.0561326E-1,2.6142633E-1,4.0725537E-2,2.1782571E-1,3.52553E-1,1.947062E-1,4.009995E-1,1.2977743E-1,7.013281E-2,7.328452E-1,3.0059433E-1,0E0,6.969776E-1,2.8568867E-1,0E0,3.1764054E-1,3.186636E-1,1.8127644E-1,6.487305E-1,0E0,5.134368E-2,4.4527912E-1,5.66134E-1,0E0,0E0,0E0,0E0,0E0,0E0,0E0,0E0,0E0,0E0,0E0,0E0,0E0,0E0,0E0,0E0,0E0,0E0,0E0,0E0,0E0,0E0,0E0,0E0,0E0,0E0,0E0,0E0,0E0,0E0,0E0,0E0,0E0,0E0,0E0,0E0,0E0,0E0,0E0,0E0,0E0,0E0,0E0,0E0,0E0,0E0,0E0,0E0,0E0,0E0,0E0,0E0,0E0,0E0],"parents":[2147483647,0,0,1,1,2,2,3,3,4,4,5,5,6,6,7,7,8,8,9,9,10,10,11,11,12,12,13,13,14,14,15,15,16,16,17,17,18,18,19,19,20,20,21,21,22,22,23,23,24,24,25,25,26,26,27,27,29,29,30,30,31,31,32,32,33,33,34,34,35,35,36,36,37,37,38,38,39,39,40,40,41,41,42,42,43,43,44,44,45,45,46,46,47,47,48,48,50,50,51,51,53,53,54,54,55,55,56,56,58,58,59,59,60,60],"right_children":[2,4,6,8,10,12,14,16,18,20,22,24,26,28,30,32,34,36,38,40,42,44,46,48,50,52,54,56,-1,58,60,62,64,66,68,70,72,74,76,78,80,82,84,86,88,90,92,94,96,-1,98,100,-1,102,104,106,108,-1,110,112,114,-1,-1,-1,-1,-1,-1,-1,-1,-1,-1,-1,-1,-1,-1,-1,-1,-1,-1,-1,-1,-1,-1,-1,-1,-1,-1,-1,-1,-1,-1,-1,-1,-1,-1,-1,-1,-1,-1,-1,-1,-1,-1,-1,-1,-1,-1,-1,-1,-1,-1,-1,-1,-1,-1],"split_conditions":[1E0,-6.3756423E0,1.9E0,-3.2008564E1,6.64E-2,1E0,7.5E-2,1.5E1,2E0,7E-3,1E0,1E0,3.6E-3,3.3E0,2E0,1E0,2.7E-2,1.4E1,-2.8649345E1,4E-3,1E0,3.8538322E1,1E0,6.861281E1,-6.9124484E0,2.7E1,-1.4538146E0,3E0,6.539796E0,7.615071E0,5E0,4.5E-2,1.09E-1,1.1E-2,1E0,9E-2,1E0,-3.0233234E1,1.16E-1,1E0,1E0,7E0,3.2995945E1,4.5E0,1.24E-1,6.861281E1,5E0,8.950736E0,2.01E-1,-3.9748755E0,9.04E-1,7.008416E0,7.4291196E0,5E0,1.539E-1,2.4906E0,5E0,-6.035504E0,2.47E-1,3.2995945E1,3.4640203E0,-2.2121592E0,-1.220196E0,-2.7685652E0,-2.2081435E0,-7.820115E-1,-2.2357585E0,1.4575154E-1,1.2773497E0,-1.5920678E0,-8.8885E-2,2.6010516E-1,5.4714108E0,4.424424E0,5.8670516E0,-6.7113745E-1,1.3356375E0,3.7813044E0,6.1251884E0,-1.4358954E0,5.4579797E0,8.099951E0,-2.647809E0,8.854665E0,3.3166242E0,3.1400754E0,6.7598004E0,8.57395E0,-3.2298985E0,-2.4459045E0,5.3414283E0,6.7046404E0,9.558755E0,2.077177E0,5.7366366E0,7.3041306E0,7.2975254E0,7.6770663E0,-3.6175587E0,5.0810604E0,4.1310945E0,7.8311505E0,7.1155615E0,7.7338843E0,6.5705686E0,-1.361466E0,7.96372E0,6.322224E0,7.4766083E0,6.8100657E0,1.8345977E0,7.181454E0,7.0713825E0,-3.241987E0,6.236228E0],"split_indices":[7,22,0,22,0,19,1,2,0,1,9,20,0,0,0,18,1,2,22,1,11,22,20,22,22,2,22,2,0,22,2,1,1,1,16,1,16,22,1,10,14,2,22,0,1,22,2,22,1,0,0,22,0,2,0,0,2,0,1,22,22,0,0,0,0,0,0,0,0,0,0,0,0,0,0,0,0,0,0,0,0,0,0,0,0,0,0,0,0,0,0,0,0,0,0,0,0,0,0,0,0,0,0,0,0,0,0,0,0,0,0,0,0,0,0],"split_type":[0,0,0,0,0,0,0,0,0,0,0,0,0,0,0,0,0,0,0,0,0,0,0,0,0,0,0,0,0,0,0,0,0,0,0,0,0,0,0,0,0,0,0,0,0,0,0,0,0,0,0,0,0,0,0,0,0,0,0,0,0,0,0,0,0,0,0,0,0,0,0,0,0,0,0,0,0,0,0,0,0,0,0,0,0,0,0,0,0,0,0,0,0,0,0,0,0,0,0,0,0,0,0,0,0,0,0,0,0,0,0,0,0,0,0],"sum_hessian":[4.7589E4,4.4273E4,3.316E3,4.1722E4,2.551E3,2.482E3,8.34E2,2.421E4,1.7512E4,3.78E2,2.173E3,2.33E3,1.52E2,4.8E1,7.86E2,1.8803E4,5.407E3,1.5983E4,1.529E3,2.51E2,1.27E2,1.805E3,3.68E2,2.126E3,2.04E2,8.5E1,6.7E1,4.3E1,5E0,1.2E1,7.74E2,1.4173E4,4.63E3,4.555E3,8.52E2,1.2454E4,3.529E3,3.42E2,1.187E3,1.59E2,9.2E1,6.1E1,6.6E1,1.735E3,7E1,3.49E2,1.9E1,1.938E3,1.88E2,2.8E1,1.76E2,8E1,5E0,2E1,4.7E1,1.2E1,3.1E1,3E0,9E0,7.36E2,3.8E1,7.58E3,6.593E3,3.841E3,7.89E2,3.284E3,1.271E3,8.49E2,3E0,9.647E3,2.807E3,3.49E3,3.9E1,2.08E2,1.34E2,3.75E2,8.12E2,1.38E2,2.1E1,4.5E1,4.7E1,2.4E1,3.7E1,5.8E1,8E0,1.612E3,1.23E2,4.4E1,2.6E1,3.43E2,6E0,4E0,1.5E1,1.126E3,8.12E2,1.71E2,1.7E1,1.58E2,1.8E1,5.3E1,2.7E1,1E1,1E1,4E1,7E0,9E0,3E0,1E1,2.1E1,6E0,3E0,5.19E2,2.17E2,6E0,3.2E1],"tree_param":{"num_deleted":"0","num_feature":"23","num_nodes":"115","size_leaf_vector":"1"}},{"base_weights":[-1.1994538E-3,-6.5775854E-3,7.225998E-2,-7.863696E-3,2.0718256E-2,1.3218862E-1,5.060901E-2,-1.0898077E-2,-3.82991E-3,1.7915808E-2,7.139426E-2,1.1213839E-1,3.7538463E-1,3.558811E-2,1.24688305E-1,-1.2337708E-2,-5.9000505E-3,-5.891725E-3,1.6022285E-2,2.2544384E-2,-5.626986E-3,-7.124993E-4,9.29412E-2,5.3096354E-2,1.3421282E-1,1.2947368E-2,-6.66666E-4,2.6223997E-2,1.1658539E-1,9.3208686E-2,1.7787164E-1,-1.2817887E-2,-3.6980512E-3,-1.150491E-2,1.3376034E-3,-8.409648E-3,1.1753364E-3,4.451391E-2,8.401359E-3,3.261366E-2,1.5288381E-2,5.8974596E-3,-7.43589E-4,1.14E-2,7.40741E-2,4.4883743E-2,1.44375E-2,9.530794E-2,1.8939078E-1,9.606171E-3,4.966081E-2,9.879035E-2,2.7625003E-1,8.5306145E-2,2.7750003E-1,2.1891028E-1,1.3028172E-1,-4.2117343E-4,-2.9007794E-4,-3.8474798E-4,2.7372333E-4,-2.539073E-4,-5.9943815E-4,-1.2896077E-6,3.145162E-3,-3.0600207E-4,1.6824543E-4,-1.2646839E-5,1.2187507E-3,5.6920355E-5,3.416059E-3,5.9900235E-4,-2.7071477E-5,3.0818188E-3,7.858918E-4,2.2038532E-4,1.0305562E-3,-8.287222E-5,3.3000007E-3,4.7272732E-3,4.897966E-4,1.018383E-3,6.8125003E-3,6.517242E-3,2.5111828E-3,6.7544645E-3,3.063381E-3,-4.2402113E-5,1.7409333E-3,1.1730378E-3,2.087599E-3,2.1769488E-3,6.545455E-3,1.2160715E-2,-6.428565E-4,3.8931824E-3,1.4613977E-3,-5.6249945E-4,1.2214286E-2,4.665001E-3,9.62069E-3,6.3750003E-3,1.0367654E-3],"categories":[],"categories_nodes":[],"categories_segments":[],"categories_sizes":[],"default_left":[0,0,0,0,0,0,0,0,0,0,0,0,0,0,0,0,0,0,0,0,0,0,0,0,0,0,0,0,0,0,0,0,0,0,0,0,0,0,0,0,0,0,0,0,0,0,0,0,0,0,0,0,0,0,0,0,0,0,0,0,0,0,0,0,0,0,0,0,0,0,0,0,0,0,0,0,0,0,0,0,0,0,0,0,0,0,0,0,0,0,0,0,0,0,0,0,0,0,0,0,0,0,0],"id":8,"left_children":[1,3,5,7,9,11,13,15,17,19,21,23,25,27,29,31,33,35,37,39,41,-1,43,45,47,-1,-1,49,51,53,55,57,59,61,63,65,67,69,71,73,75,77,-1,-1,79,81,-1,83,85,87,89,91,93,95,97,99,101,-1,-1,-1,-1,-1,-1,-1,-1,-1,-1,-1,-1,-1,-1,-1,-1,-1,-1,-1,-1,-1,-1,-1,-1,-1,-1,-1,-1,-1,-1,-1,-1,-1,-1,-1,-1,-1,-1,-1,-1,-1,-1,-1,-1,-1,-1],"loss_changes":[1.8758217E1,1.5532635E0,4.1959553E0,5.171125E-1,2.814765E-1,4.1465044E0,2.644991E0,1.7342067E-1,7.425928E-1,2.0586145E-1,2.154144E-1,1.0290127E0,1.4619026E0,1.4994669E0,6.547713E-1,7.760978E-2,2.1882859E-1,2.9244173E-1,3.7027135E-1,1.1479437E-1,6.881512E-2,0E0,4.3220913E-1,7.4494416E-1,1.2227364E0,0E0,0E0,6.9160914E-1,5.551634E-1,3.462453E-1,2.605281E-1,6.80511E-2,1.1562203E-1,7.820043E-2,3.3651674E-1,3.041674E-1,2.720387E-1,1.0638216E0,1.4506468E-1,2.942679E-1,1.3888988E-1,1.7609915E-1,0E0,0E0,3.8801074E-1,4.2075074E-1,0E0,4.6421266E-1,7.197828E-1,5.555828E-1,1.5234971E-1,5.6655E-1,7.773347E-1,3.923328E-1,3.917008E-1,4.5353365E-1,5.5143857E-1,0E0,0E0,0E0,0E0,0E0,0E0,0E0,0E0,0E0,0E0,0E0,0E0,0E0,0E0,0E0,0E0,0E0,0E0,0E0,0E0,0E0,0E0,0E0,0E0,0E0,0E0,0E0,0E0,0E0,0E0,0E0,0E0,0E0,0E0,0E0,0E0,0E0,0E0,0E0,0E0,0E0,0E0,0E0,0E0,0E0,0E0],"parents":[2147483647,0,0,1,1,2,2,3,3,4,4,5,5,6,6,7,7,8,8,9,9,10,10,11,11,12,12,13,13,14,14,15,15,16,16,17,17,18,18,19,19,20,20,22,22,23,23,24,24,27,27,28,28,29,29,30,30,31,31,32,32,33,33,34,34,35,35,36,36,37,37,38,38,39,39,40,40,41,41,44,44,45,45,47,47,48,48,49,49,50,50,51,51,52,52,53,53,54,54,55,55,56,56],"right_children":[2,4,6,8,10,12,14,16,18,20,22,24,26,28,30,32,34,36,38,40,42,-1,44,46,48,-1,-1,50,52,54,56,58,60,62,64,66,68,70,72,74,76,78,-1,-1,80,82,-1,84,86,88,90,92,94,96,98,100,102,-1,-1,-1,-1,-1,-1,-1,-1,-1,-1,-1,-1,-1,-1,-1,-1,-1,-1,-1,-1,-1,-1,-1,-1,-1,-1,-1,-1,-1,-1,-1,-1,-1,-1,-1,-1,-1,-1,-1,-1,-1,-1,-1,-1,-1,-1],"split_conditions":[1E0,-1.4538146E0,1E0,-3.2008564E1,3.8538322E1,1E0,2.15E0,1.5E1,2E0,1E0,1.1E-1,-1.4538146E0,1.539E-1,6.861281E1,3.2995945E1,1E0,9.45E-2,1.1E1,-2.8649345E1,3.7E-1,8.375E-1,-3.0805893E0,1.2E-1,2.5E1,4E0,7.626081E0,-2.0953505E0,1.3544956E1,1E0,1E0,4.5E0,1E0,1E0,1E0,9.6E1,1E0,1E0,-3.0233234E1,2.25E0,2E0,2.35E0,5.867E-1,-3.2874024E0,5.1811852E0,1E0,1E0,7.2062464E0,8.375E-1,1E0,6.5E-1,6E0,1.1E1,4E0,7.008416E0,7.615071E0,3.5E0,4.4629414E1,-2.1543415E0,-1.5305396E0,-2.187223E0,1.7614444E0,-1.1714648E0,-2.7329667E0,-2.4745958E-3,1.6273109E0,-1.3919078E0,5.994719E-1,-3.6255393E-2,5.3553996E0,2.39295E0,5.9015307E0,1.6230562E0,-1.8850027E-1,8.589232E0,3.4032965E0,2.7787378E0,6.5160046E0,1.2975243E-1,3.3841891E0,8.255276E0,6.6835933E0,5.759857E0,7.4210687E0,7.1332607E0,7.1165056E0,7.3097687E0,7.8495297E0,-5.7947762E-2,6.2076325E0,4.438064E0,6.2469687E0,7.10144E0,7.835701E0,6.744667E0,-4.405609E0,7.277379E0,6.5307674E0,-6.3734784E0,2.917498E0,6.9894757E0,7.0453086E0,6.419064E0,2.3360796E0],"split_indices":[7,22,21,22,22,17,0,2,0,9,0,22,0,22,22,17,0,2,22,0,0,0,0,2,2,0,0,22,17,15,0,20,6,3,2,15,13,22,0,2,0,0,0,0,14,16,0,0,15,0,2,2,2,22,22,0,22,0,0,0,0,0,0,0,0,0,0,0,0,0,0,0,0,0,0,0,0,0,0,0,0,0,0,0,0,0,0,0,0,0,0,0,0,0,0,0,0,0,0,0,0,0,0],"split_type":[0,0,0,0,0,0,0,0,0,0,0,0,0,0,0,0,0,0,0,0,0,0,0,0,0,0,0,0,0,0,0,0,0,0,0,0,0,0,0,0,0,0,0,0,0,0,0,0,0,0,0,0,0,0,0,0,0,0,0,0,0,0,0,0,0,0,0,0,0,0,0,0,0,0,0,0,0,0,0,0,0,0,0,0,0,0,0,0,0,0,0,0,0,0,0,0,0,0,0,0,0,0,0],"sum_hessian":[4.7478E4,4.424E4,3.238E3,4.225E4,1.99E3,8.58E2,2.38E3,2.4111E4,1.8139E4,1.887E3,1.03E2,7.94E2,6.4E1,1.98E3,4E2,1.8718E4,5.393E3,1.6433E4,1.706E3,1.577E3,3.1E2,1.9E1,8.4E1,2.17E2,5.77E2,5.6E1,8E0,1.776E3,2.04E2,2.53E2,1.47E2,1.7732E4,9.86E2,3.039E3,2.354E3,1.2116E4,4.317E3,3.59E2,1.347E3,6.59E2,9.18E2,1.94E2,1.16E2,4E0,8E1,2.14E2,3E0,3.4E2,2.37E2,1.04E3,7.36E2,1.85E2,1.9E1,2.44E2,9E0,7.7E1,7E1,1.2774E4,4.958E3,5.76E2,4.1E2,2.238E3,8.01E2,2.324E3,3E1,1.0744E4,1.372E3,4.15E3,1.67E2,2.23E2,1.36E2,6E2,7.47E2,5.4E1,6.05E2,6.49E2,2.69E2,1.8E2,1.4E1,3.2E1,4.8E1,2.03E2,1.1E1,2.8E1,3.12E2,1.67E2,7E1,8.48E2,1.92E2,4.83E2,2.53E2,1.53E2,3.2E1,1.3E1,6E0,1.09E2,1.35E2,3E0,6E0,4.9E1,2.8E1,3.7E1,3.3E1],"tree_param":{"num_deleted":"0","num_feature":"23","num_nodes":"103","size_leaf_vector":"1"}},{"base_weights":[-1.1517362E-3,-6.645797E-3,7.340869E-2,-7.9533905E-3,2.1583954E-2,7.7358726E-3,9.461963E-2,-1.098005E-2,-3.9424854E-3,3.360458E-2,1.205258E-3,4.108747E-3,1.74E-2,1.14522606E-1,4.545777E-2,-1.2336355E-2,-6.208881E-3,-5.3227427E-3,9.621145E-3,2.8608494E-2,1.1232879E-1,1.0156252E-1,-1.0548285E-3,-2.5245203E-3,6.3924074E-2,1.2330484E-1,3.3284906E-2,3.2923322E-2,4.7625002E-1,-1.28356945E-2,4.2427247E-3,-8.648655E-3,6.497693E-3,-6.462707E-3,7.893755E-3,2.253352E-2,-2.774509E-3,4.768979E-2,2.181289E-2,2.4390267E-2,2.1818185E-1,-6.92307E-4,1.44375E-2,-2.3657954E-3,6.9375006E-3,-6.8627214E-3,5.392159E-2,7.928572E-3,4.383564E-2,7.8103065E-2,1.3995229E-1,6.9375006E-3,2.840239E-2,2.4512768E-2,2.56E-1,6.1964285E-1,1.21428594E-1,-3.4567306E-4,-5.01524E-4,9.024732E-4,-2.5749247E-4,-1.9110729E-4,-4.3614386E-4,1.130209E-3,6.2944205E-6,-2.3984558E-4,1.7188495E-4,-7.417683E-6,1.064598E-3,6.0432404E-4,3.0312506E-3,6.9375006E-3,-1.1606024E-4,6.9786166E-4,2.5897443E-3,1.6269051E-4,1.226583E-3,5.4000006E-3,8.108177E-5,1.74E-2,4.4482765E-3,-4.7076851E-4,2.6757884E-4,-3.1118243E-4,1.1808517E-3,6.8125003E-3,1.8750698E-5,-7.2413724E-4,2.6000007E-3,2.1054884E-3,7.6250006E-3,9.154639E-3,3.7393472E-3,1.0550007E-3,-7.124993E-4,3.4625983E-4,2.5062507E-3,2.82353E-3,1.6E-2,6.9375006E-3,2.1136364E-2,6.9375006E-3,-5.6249945E-4],"categories":[],"categories_nodes":[],"categories_segments":[],"categories_sizes":[],"default_left":[0,0,0,0,0,0,0,0,0,0,0,0,0,0,0,0,0,0,0,0,0,0,0,0,0,0,0,0,0,0,0,0,0,0,0,0,0,0,0,0,0,0,0,0,0,0,0,0,0,0,0,0,0,0,0,0,0,0,0,0,0,0,0,0,0,0,0,0,0,0,0,0,0,0,0,0,0,0,0,0,0,0,0,0,0,0,0,0,0,0,0,0,0,0,0,0,0,0,0,0,0,0,0],"id":9,"left_children":[1,3,5,7,9,11,13,15,17,19,21,23,-1,25,27,29,31,33,35,37,39,41,43,45,47,49,51,53,55,57,59,61,63,65,67,69,71,73,75,77,79,-1,-1,81,-1,83,85,-1,87,89,91,-1,93,95,97,99,101,-1,-1,-1,-1,-1,-1,-1,-1,-1,-1,-1,-1,-1,-1,-1,-1,-1,-1,-1,-1,-1,-1,-1,-1,-1,-1,-1,-1,-1,-1,-1,-1,-1,-1,-1,-1,-1,-1,-1,-1,-1,-1,-1,-1,-1,-1],"loss_changes":[1.9410847E1,1.6292548E0,4.5292454E0,5.1200676E-1,4.7862047E-1,1.6477779E0,2.399866E0,1.5548396E-1,3.396931E-1,4.801681E-1,1.6477562E-1,3.1400728E-1,0E0,1.2437172E0,3.8181376E0,1.5500474E-1,1.6507547E-1,2.4814835E-1,2.6831862E-1,1.4898676E-1,6.742036E-1,7.682903E-1,2.1707785E-1,1.7496563E-1,3.0638608E-1,1.1765041E0,1.5968163E-1,1.2901784E0,9.4233465E-1,9.243369E-2,1.8187374E-1,5.9835047E-2,1.681863E-1,2.8323823E-1,2.938296E-1,1.5197292E-1,2.2008345E-1,2.83953E-1,2.670577E-1,1.3788001E-1,7.48677E-1,0E0,0E0,1.0661653E-1,0E0,1.07979394E-1,4.7053337E-1,0E0,2.1462257E-1,5.7758975E-1,2.8751583E0,0E0,6.0454056E-2,5.0972474E-1,1.0721881E0,2.987318E-1,1.1209822E-1,0E0,0E0,0E0,0E0,0E0,0E0,0E0,0E0,0E0,0E0,0E0,0E0,0E0,0E0,0E0,0E0,0E0,0E0,0E0,0E0,0E0,0E0,0E0,0E0,0E0,0E0,0E0,0E0,0E0,0E0,0E0,0E0,0E0,0E0,0E0,0E0,0E0,0E0,0E0,0E0,0E0,0E0,0E0,0E0,0E0,0E0],"parents":[2147483647,0,0,1,1,2,2,3,3,4,4,5,5,6,6,7,7,8,8,9,9,10,10,11,11,13,13,14,14,15,15,16,16,17,17,18,18,19,19,20,20,21,21,22,22,23,23,24,24,25,25,26,26,27,27,28,28,29,29,30,30,31,31,32,32,33,33,34,34,35,35,36,36,37,37,38,38,39,39,40,40,43,43,45,45,46,46,48,48,49,49,50,50,52,52,53,53,54,54,55,55,56,56],"right_children":[2,4,6,8,10,12,14,16,18,20,22,24,-1,26,28,30,32,34,36,38,40,42,44,46,48,50,52,54,56,58,60,62,64,66,68,70,72,74,76,78,80,-1,-1,82,-1,84,86,-1,88,90,92,-1,94,96,98,100,102,-1,-1,-1,-1,-1,-1,-1,-1,-1,-1,-1,-1,-1,-1,-1,-1,-1,-1,-1,-1,-1,-1,-1,-1,-1,-1,-1,-1,-1,-1,-1,-1,-1,-1,-1,-1,-1,-1,-1,-1,-1,-1,-1,-1,-1,-1],"split_conditions":[1E0,-1.4538146E0,-6.9124484E0,-3.2008564E1,1.24E-1,6.5E0,1E0,1.5E1,2E0,3.8538322E1,3.7E-1,7E0,6.1229076E0,1E0,1E0,3.97E-1,2.7E-2,2.8E1,2.25E0,8E-2,2.5E-2,2.8397104E1,1.3E1,1.075E0,1.02E-2,3.2E-2,1.04E-2,1.005E1,9E0,1E0,2.45E0,1.1E-2,3E-2,1E0,-2.2713074E1,1E1,1.5E-2,1.8E1,4.3E-2,6E0,3.6E-2,-2.2184224E0,7.558524E0,2.58E-1,3.380658E-1,7.2E-2,1.45E0,7.320551E0,8E-3,7.9887054E1,4.9E-2,5.5438395E0,3.2995945E1,6.861281E1,3.2995945E1,3E0,1.016E-1,-1.8042134E0,-2.4716363E0,4.0194945E0,-9.43124E-1,-8.277375E-1,-1.7471333E0,3.594479E0,7.832284E-2,-1.0994927E0,6.431228E-1,2.0121476E-1,2.0272324E0,1.7856145E0,1.2047397E0,4.8241816E0,-3.718865E-1,4.8450155E0,4.642608E0,1.8964515E0,5.777833E0,1.5696505E0,5.0257497E0,8.125003E0,8.007618E0,-4.1504237E-1,1.193607E0,-1.7703222E0,5.0589075E0,5.995546E0,6.125281E0,-1.4117061E0,7.5274324E0,6.0999765E0,7.556734E0,7.169956E0,7.017084E0,4.6993847E0,-9.32363E-1,1.5314432E0,4.140693E0,6.176531E0,6.2264924E0,1.8070734E0,5.762371E0,3.968617E0,-4.915023E0],"split_indices":[7,22,22,22,1,0,11,2,0,22,0,2,0,18,20,1,1,2,0,0,1,22,2,0,0,1,0,0,2,18,0,1,1,15,22,2,1,2,1,2,1,0,0,1,0,1,0,0,1,22,1,0,22,22,22,2,0,0,0,0,0,0,0,0,0,0,0,0,0,0,0,0,0,0,0,0,0,0,0,0,0,0,0,0,0,0,0,0,0,0,0,0,0,0,0,0,0,0,0,0,0,0,0],"split_type":[0,0,0,0,0,0,0,0,0,0,0,0,0,0,0,0,0,0,0,0,0,0,0,0,0,0,0,0,0,0,0,0,0,0,0,0,0,0,0,0,0,0,0,0,0,0,0,0,0,0,0,0,0,0,0,0,0,0,0,0,0,0,0,0,0,0,0,0,0,0,0,0,0,0,0,0,0,0,0,0,0,0,0,0,0,0,0,0,0,0,0,0,0,0,0,0,0,0,0,0,0,0,0],"sum_hessian":[4.7383E4,4.4132E4,3.251E3,4.2179E4,1.953E3,7.94E2,2.457E3,2.4038E4,1.8141E4,1.228E3,7.25E2,7.9E2,4E0,1.748E3,7.09E2,1.8716E4,5.322E3,1.6466E4,1.675E3,1.156E3,7.2E1,1.5E1,7.1E2,7.12E2,7.8E1,1.577E3,1.71E2,6.9E2,1.9E1,1.8169E4,5.47E2,4.465E3,8.57E2,1.5159E4,1.307E3,8.2E2,8.55E2,3.02E2,8.54E2,4E1,3.2E1,1.2E1,3E0,7.07E2,3E0,6.62E2,5E1,6E0,7.2E1,4.26E2,1.151E3,3E0,1.68E2,6.66E2,2.4E1,1.3E1,6E0,1.3579E4,4.59E3,1.81E2,3.66E2,3.221E3,1.244E3,1.43E2,7.14E2,1.3467E4,1.692E3,1.01E3,2.97E2,7.97E2,2.3E1,3E0,8.52E2,1.86E2,1.16E2,4.6E2,3.94E2,4E0,3.6E1,4E0,2.8E1,3.24E2,3.83E2,6.16E2,4.6E1,1.1E1,3.9E1,2.8E1,4.4E1,4.09E2,1.7E1,9.6E1,1.055E3,1.49E2,1.9E1,5.47E2,1.19E2,1.6E1,8E0,3E0,1E1,3E0,3E0],"tree_param":{"num_deleted":"0","num_feature":"23","num_nodes":"103","size_leaf_vector":"1"}},{"base_weights":[-1.2646393E-3,-6.5101925E-3,7.031927E-2,-7.731382E-3,1.1712871E-2,2.9448733E-2,1.0263815E-1,-1.0654765E-2,-3.636945E-3,3.7842705E-3,2.0473508E-2,2.7501773E-2,1.74E-2,4.2370692E-1,9.195667E-2,-1.20715E-2,-5.623448E-3,-5.146802E-3,1.215188E-2,-1.9519281E-3,1.6179677E-2,1.691702E-2,1.00446455E-1,6.534446E-3,5.881329E-2,4.4818184E-1,-5.6249945E-4,7.162613E-2,1.6099249E-1,-1.252313E-2,3.8942546E-3,-8.6478125E-3,5.2461377E-3,-7.661631E-3,3.3639383E-3,-7.454538E-4,1.6685292E-2,-6.5417453E-3,1.8145185E-2,8.2589306E-2,7.002481E-3,1.622427E-2,6.9375006E-3,5.885419E-2,3.1111112E-1,4.4137955E-2,-1.1219959E-3,1.2908657E-1,4.313832E-2,4.1550002E-1,1.9375E-2,6.083265E-2,1.4180557E-1,1.3865438E-1,5.7625E-1,-3.514514E-4,-5.9916364E-4,-3.5279532E-4,7.7419425E-4,-4.4201588E-4,-8.2346654E-5,1.2713011E-3,-1.0817236E-4,-2.8213684E-4,1.7328397E-4,-4.7654996E-4,2.3084851E-4,1.1161249E-3,2.934466E-4,-2.2667838E-4,2.0454552E-3,6.9375006E-3,4.0164005E-4,6.306825E-4,8.538461E-3,5.243651E-4,-2.2238301E-4,6.375007E-4,-3.0295496E-4,-7.173906E-4,3.8942313E-3,4.3750005E-3,1.44375E-2,9.094495E-4,4.026316E-3,-1.5568298E-4,6.5887923E-4,3.4158423E-3,1.44375E-2,6.455364E-4,2.2382205E-3,8.117647E-3,1.4272059E-2,1.5734615E-3,4.3514157E-3,8.413045E-3,3.6218362E-3,1.0181819E-2,3.5749285E-3,1.8705882E-2,6.9375006E-3],"categories":[],"categories_nodes":[],"categories_segments":[],"categories_sizes":[],"default_left":[0,0,0,0,0,0,0,0,0,0,0,0,0,0,0,0,0,0,0,0,0,0,0,0,0,0,0,0,0,0,0,0,0,0,0,0,0,0,0,0,0,0,0,0,0,0,0,0,0,0,0,0,0,0,0,0,0,0,0,0,0,0,0,0,0,0,0,0,0,0,0,0,0,0,0,0,0,0,0,0,0,0,0,0,0,0,0,0,0,0,0,0,0,0,0,0,0,0,0,0,0],"id":10,"left_children":[1,3,5,7,9,11,13,15,17,19,21,23,-1,25,27,29,31,33,35,37,39,41,43,45,47,49,-1,51,53,55,57,59,61,63,65,-1,67,69,71,73,75,77,-1,79,81,83,85,87,89,91,-1,93,95,97,99,-1,-1,-1,-1,-1,-1,-1,-1,-1,-1,-1,-1,-1,-1,-1,-1,-1,-1,-1,-1,-1,-1,-1,-1,-1,-1,-1,-1,-1,-1,-1,-1,-1,-1,-1,-1,-1,-1,-1,-1,-1,-1,-1,-1,-1,-1],"loss_changes":[1.7830193E1,9.8464334E-1,4.2793007E0,4.9626923E-1,1.9295076E-1,1.5200832E0,6.1684093E0,1.7236638E-1,4.118551E-1,1.0384126E-1,3.7373894E-1,9.37781E-1,0E0,6.364918E-1,2.4488668E0,1.3614893E-1,1.7483425E-1,3.374878E-1,2.5336313E-1,9.2268534E-2,2.809895E-1,1.8407395E-1,4.7236294E-1,2.4678762E-1,6.256088E-1,8.693504E-2,0E0,1.0185175E0,3.6119747E0,1.1025834E-1,1.7867184E-1,1.4940962E-1,3.8075894E-1,2.8511232E-1,2.999947E-1,0E0,1.9002303E-1,6.220396E-2,1.8546687E-1,6.9054747E-1,6.1594408E-2,1.6716677E-1,0E0,2.8499013E-1,1.828993E-1,1.7646664E-1,6.706132E-2,5.028254E-1,3.1817043E-1,3.077116E-1,0E0,8.2341194E-1,4.9210167E-1,1.442368E0,1.820364E-1,0E0,0E0,0E0,0E0,0E0,0E0,0E0,0E0,0E0,0E0,0E0,0E0,0E0,0E0,0E0,0E0,0E0,0E0,0E0,0E0,0E0,0E0,0E0,0E0,0E0,0E0,0E0,0E0,0E0,0E0,0E0,0E0,0E0,0E0,0E0,0E0,0E0,0E0,0E0,0E0,0E0,0E0,0E0,0E0,0E0,0E0],"parents":[2147483647,0,0,1,1,2,2,3,3,4,4,5,5,6,6,7,7,8,8,9,9,10,10,11,11,13,13,14,14,15,15,16,16,17,17,18,18,19,19,20,20,21,21,22,22,23,23,24,24,25,25,27,27,28,28,29,29,30,30,31,31,32,32,33,33,34,34,36,36,37,37,38,38,39,39,40,40,41,41,43,43,44,44,45,45,46,46,47,47,48,48,49,49,51,51,52,52,53,53,54,54],"right_children":[2,4,6,8,10,12,14,16,18,20,22,24,-1,26,28,30,32,34,36,38,40,42,44,46,48,50,-1,52,54,56,58,60,62,64,66,-1,68,70,72,74,76,78,-1,80,82,84,86,88,90,92,-1,94,96,98,100,-1,-1,-1,-1,-1,-1,-1,-1,-1,-1,-1,-1,-1,-1,-1,-1,-1,-1,-1,-1,-1,-1,-1,-1,-1,-1,-1,-1,-1,-1,-1,-1,-1,-1,-1,-1,-1,-1,-1,-1,-1,-1,-1,-1,-1,-1],"split_conditions":[1E0,-1.655391E1,4.8E-2,-3.2008564E1,4E0,3.3E0,4.9E-2,1.5E1,2E0,8.950736E0,1.95E0,1.3544956E1,5.9415226E0,1E0,1E0,3.97E-1,1E0,1.3E1,9E-2,3.6E0,2.281E-1,4.29E-1,8E0,2E-3,1.13E-2,8E0,-5.2543926E0,5.1E0,1E0,2.15E0,2E0,6.64E-2,5E-2,1E0,2E-3,-2.2287855E0,-2.8649345E1,1E0,5.8E-2,4.2E-2,1E0,1.02E-1,7.931694E0,1E0,2.3703762E1,1E0,6E0,1.02E-2,8E0,-1.4538146E0,6.458214E0,6.861281E1,3.09E-1,4.25E-1,9E0,-1.8555607E0,-2.3799062E0,-5.3001493E-1,4.8023777E0,-2.129598E0,-2.808228E-1,4.061594E0,-1.1986997E-1,-1.3235698E0,6.5527695E-1,-1.5366985E0,8.4356225E-1,5.453534E0,8.4609383E-1,-2.004168E0,6.69659E0,4.679456E0,4.875567E0,7.8527427E0,8.233525E0,1.5177E0,-1.327341E0,4.175276E0,-1.8935353E0,-1.8119764E0,6.313373E0,5.4738584E0,7.537116E0,7.049507E0,7.4450517E0,-1.0867646E0,5.2544312E0,6.5584855E0,5.377524E0,4.016474E0,5.973273E0,7.1523356E0,7.064432E0,5.047054E0,6.569853E0,6.942447E0,6.571123E0,7.35958E0,6.694409E0,5.746191E0,3.0626302E0],"split_indices":[7,22,1,22,2,0,1,2,0,22,0,22,0,14,20,1,5,2,1,0,0,1,2,1,0,2,0,0,11,0,2,0,0,15,1,0,22,19,1,1,14,1,0,14,22,20,2,0,2,22,0,22,1,0,2,0,0,0,0,0,0,0,0,0,0,0,0,0,0,0,0,0,0,0,0,0,0,0,0,0,0,0,0,0,0,0,0,0,0,0,0,0,0,0,0,0,0,0,0,0,0],"split_type":[0,0,0,0,0,0,0,0,0,0,0,0,0,0,0,0,0,0,0,0,0,0,0,0,0,0,0,0,0,0,0,0,0,0,0,0,0,0,0,0,0,0,0,0,0,0,0,0,0,0,0,0,0,0,0,0,0,0,0,0,0,0,0,0,0,0,0,0,0,0,0,0,0,0,0,0,0,0,0,0,0,0,0,0,0,0,0,0,0,0,0,0,0,0,0,0,0,0,0,0,0],"sum_hessian":[4.7482E4,4.4241E4,3.241E3,4.1463E4,2.778E3,1.432E3,1.809E3,2.419E4,1.7273E4,1.459E3,1.319E3,1.428E3,4E0,5.7E1,1.752E3,1.8874E4,5.316E3,1.5766E4,1.507E3,9.98E2,4.61E2,1.264E3,5.5E1,8.56E2,5.72E2,5.4E1,3E0,1.355E3,3.97E2,1.8355E4,5.19E2,4.159E3,1.157E3,1.217E4,3.596E3,1.64E2,1.343E3,8.13E2,1.85E2,5.5E1,4.06E2,1.261E3,3E0,4.7E1,8E0,1.44E2,7.12E2,1.03E2,4.69E2,4.9E1,5E0,1.176E3,1.79E2,3.78E2,1.9E1,1.6561E4,1.794E3,3.03E2,2.16E2,2.047E3,2.112E3,2.22E2,9.35E2,1.0773E4,1.397E3,6.6E2,2.936E3,3.37E2,1.006E3,8.03E2,1E1,3E0,1.82E2,4.3E1,1.2E1,2.35E2,1.71E2,1.059E3,2.02E2,2.2E1,2.5E1,5E0,3E0,1.26E2,1.8E1,6.06E2,1.06E2,1E2,3E0,2.79E2,1.9E2,1.6E1,3.3E1,1.071E3,1.05E2,2.2E1,1.57E2,3.2E1,3.46E2,1.6E1,3E0],"tree_param":{"num_deleted":"0","num_feature":"23","num_nodes":"101","size_leaf_vector":"1"}},{"base_weights":[-1.2545809E-3,-6.3000033E-3,6.677594E-2,-7.731947E-3,1.7302396E-2,1.2519468E-1,4.4699855E-2,-1.07856225E-2,-3.477738E-3,6.451047E-3,3.0051615E-2,1.15279384E-1,4.978261E-1,2.0907559E-2,8.2286045E-2,-1.2323331E-2,-5.8118002E-3,-1.8467477E-3,-1.3301064E-2,1.0519505E-2,-1.553736E-2,2.7653532E-2,1.4270836E-1,9.850247E-2,3.4208336E-1,5.8750004E-1,4.3750005E-3,6.6681975E-3,6.521129E-2,7.563639E-2,1.3686872E-1,-1.0556994E-2,-1.7857915E-2,-8.571405E-3,3.7015742E-3,-2.2341695E-3,3.8556363E-2,-1.3644627E-2,4.821431E-2,1.2950995E-2,-7.399993E-4,-1.9489223E-2,1.0344851E-2,2.5518509E-2,1.0078128E-1,3.529414E-2,3.5312504E-1,9.178302E-2,2.6612905E-1,3.7545457E-1,-6.249994E-4,6.9375006E-3,1.93E-2,4.9954825E-3,9.375E-3,1.3955481E-1,1.321431E-2,6.856949E-2,1.267677E-1,1.44375E-2,1.2109377E-1,-3.8123422E-4,-2.2364463E-4,-5.5645645E-4,1.0638368E-4,-3.2583022E-4,1.632007E-4,2.739281E-4,-2.7683174E-4,-2.069127E-4,3.191377E-5,7.883219E-4,9.375E-3,-4.543617E-4,2.243661E-5,-6.8181753E-4,6.9375006E-3,3.6697745E-4,3.6428578E-3,-7.450973E-4,1.5441245E-4,4.3750005E-3,-7.187493E-4,9.211252E-4,2.7062566E-5,4.2812508E-3,-6.66666E-4,-6.749993E-4,3.0937504E-3,-5.6249945E-4,1.74E-2,3.2479446E-3,1.0773488E-3,4.921876E-3,1.0546876E-2,1.4291666E-2,9.532895E-3,4.915781E-4,-3.4743804E-4,1.5441245E-4,5.3628325E-3,1.7656257E-3,-9.201743E-6,1.7378385E-3,3.0693647E-3,4.37216E-3,-6.8749936E-4,4.074075E-3,1.1718756E-3],"categories":[],"categories_nodes":[],"categories_segments":[],"categories_sizes":[],"default_left":[0,0,0,0,0,0,0,0,0,0,0,0,0,0,0,0,0,0,0,0,0,0,0,0,0,0,0,0,0,0,0,0,0,0,0,0,0,0,0,0,0,0,0,0,0,0,0,0,0,0,0,0,0,0,0,0,0,0,0,0,0,0,0,0,0,0,0,0,0,0,0,0,0,0,0,0,0,0,0,0,0,0,0,0,0,0,0,0,0,0,0,0,0,0,0,0,0,0,0,0,0,0,0,0,0,0,0,0,0],"id":11,"left_children":[1,3,5,7,9,11,13,15,17,19,21,23,25,27,29,31,33,35,37,39,41,43,45,47,49,51,-1,53,55,57,59,61,63,65,67,69,71,73,75,77,-1,79,81,83,85,87,89,91,93,95,-1,-1,-1,97,-1,99,101,103,105,-1,107,-1,-1,-1,-1,-1,-1,-1,-1,-1,-1,-1,-1,-1,-1,-1,-1,-1,-1,-1,-1,-1,-1,-1,-1,-1,-1,-1,-1,-1,-1,-1,-1,-1,-1,-1,-1,-1,-1,-1,-1,-1,-1,-1,-1,-1,-1,-1,-1],"loss_changes":[1.6306164E1,1.4948537E0,4.224478E0,5.416472E-1,3.4982204E-1,3.2641926E0,2.1284118E0,1.8557525E-1,2.7915442E-1,1.225432E-1,3.102498E-1,3.3033524E0,6.403079E-1,9.2061615E-1,3.246565E-1,1.8105721E-1,1.505673E-1,2.3402101E-1,5.309239E-2,9.9135235E-2,2.209017E-2,1.7541575E-1,5.299785E-1,8.96935E-1,7.344794E-1,2.0926046E-1,0E0,5.6423473E-1,1.3704578E0,2.894125E-1,4.7955024E-1,9.369624E-2,6.6349864E-2,1.4265734E-1,9.063949E-2,2.2766523E-1,4.6944004E-1,5.3319484E-2,1.8704343E-1,8.2758814E-2,0E0,2.4631307E-2,1.3827676E-1,1.4153892E-1,1.6820097E-1,6.896415E-2,6.858281E-1,7.217512E-1,2.1263862E-1,1.6888905E-1,0E0,0E0,0E0,2.0807694E-1,0E0,7.68445E-1,1.296087E-1,2.551198E-1,2.844658E-1,0E0,1.1052644E-1,0E0,0E0,0E0,0E0,0E0,0E0,0E0,0E0,0E0,0E0,0E0,0E0,0E0,0E0,0E0,0E0,0E0,0E0,0E0,0E0,0E0,0E0,0E0,0E0,0E0,0E0,0E0,0E0,0E0,0E0,0E0,0E0,0E0,0E0,0E0,0E0,0E0,0E0,0E0,0E0,0E0,0E0,0E0,0E0,0E0,0E0,0E0,0E0],"parents":[2147483647,0,0,1,1,2,2,3,3,4,4,5,5,6,6,7,7,8,8,9,9,10,10,11,11,12,12,13,13,14,14,15,15,16,16,17,17,18,18,19,19,20,20,21,21,22,22,23,23,24,24,25,25,27,27,28,28,29,29,30,30,31,31,32,32,33,33,34,34,35,35,36,36,37,37,38,38,39,39,41,41,42,42,43,43,44,44,45,45,46,46,47,47,48,48,49,49,53,53,55,55,56,56,57,57,58,58,60,60],"right_children":[2,4,6,8,10,12,14,16,18,20,22,24,26,28,30,32,34,36,38,40,42,44,46,48,50,52,-1,54,56,58,60,62,64,66,68,70,72,74,76,78,-1,80,82,84,86,88,90,92,94,96,-1,-1,-1,98,-1,100,102,104,106,-1,108,-1,-1,-1,-1,-1,-1,-1,-1,-1,-1,-1,-1,-1,-1,-1,-1,-1,-1,-1,-1,-1,-1,-1,-1,-1,-1,-1,-1,-1,-1,-1,-1,-1,-1,-1,-1,-1,-1,-1,-1,-1,-1,-1,-1,-1,-1,-1,-1],"split_conditions":[1E0,-6.3756423E0,1E0,-3.2008564E1,4E0,1E0,7.2E-2,1.3E1,1E0,1E0,6.861281E1,1E0,1.1E1,3.2995945E1,1.23E0,1E0,1E0,5.52E-1,8.5E1,8.35E-1,3.2995945E1,2.69E-1,2.4E-2,2.5E1,4.9E-2,3E0,3.67036E0,1E0,1E0,6.861281E1,-1.655391E1,5.5E-2,1E0,3.7E-2,1E0,5E0,1E0,1E0,1E0,1E0,-3.243085E0,3E0,4.8E-2,9.7E-2,5E0,9E-3,1E0,1E0,1E0,4E0,-2.443835E0,1.5804757E0,5.5738053E0,3.6E-2,5.7632766E0,1E0,3.8538322E1,3E0,1E0,5.742087E0,1E0,-1.8649031E0,-1.1595826E0,-2.53315E0,2.064566E0,-1.3001107E0,2.6435724E-1,2.1551888E0,-3.6252388E-1,-1.0910267E0,1.0309219E-1,3.3735108E0,4.575008E0,-2.3252637E0,5.379206E-1,-4.9561515E0,5.690918E-3,2.673804E0,1.406066E0,-4.077579E0,5.6979427E0,4.861754E0,-4.337361E0,5.354986E0,2.098573E0,7.6937428E0,-2.0950634E0,-3.7544737E0,4.749719E0,-4.720537E0,7.8241944E0,6.4870925E0,4.743875E0,7.175104E0,6.7896466E0,6.937765E0,6.992341E0,3.8351803E0,-2.1333094E0,9.092193E-2,7.214595E0,5.895076E0,5.765054E-2,5.321081E0,5.529165E0,5.873745E0,-4.1195583E0,6.354197E0,6.0145273E0],"split_indices":[7,22,21,22,2,11,1,2,11,9,22,17,2,22,1,18,5,1,2,1,22,1,1,2,1,2,0,12,11,22,22,1,17,1,18,2,14,19,21,6,0,2,1,1,2,1,11,18,14,2,0,0,0,1,0,14,22,2,9,0,9,0,0,0,0,0,0,0,0,0,0,0,0,0,0,0,0,0,0,0,0,0,0,0,0,0,0,0,0,0,0,0,0,0,0,0,0,0,0,0,0,0,0,0,0,0,0,0,0],"split_type":[0,0,0,0,0,0,0,0,0,0,0,0,0,0,0,0,0,0,0,0,0,0,0,0,0,0,0,0,0,0,0,0,0,0,0,0,0,0,0,0,0,0,0,0,0,0,0,0,0,0,0,0,0,0,0,0,0,0,0,0,0,0,0,0,0,0,0,0,0,0,0,0,0,0,0,0,0,0,0,0,0,0,0,0,0,0,0,0,0,0,0,0,0,0,0,0,0,0,0,0,0,0,0,0,0,0,0,0,0],"sum_hessian":[4.7504E4,4.4225E4,3.279E3,4.1696E4,2.529E3,8.98E2,2.381E3,2.4272E4,1.7424E4,1.367E3,1.162E3,8.76E2,2.2E1,1.459E3,9.22E2,1.8539E4,5.733E3,1.4944E4,2.48E3,1.154E3,2.13E2,1.139E3,2.3E1,8.17E2,5.9E1,1.7E1,5E0,1.105E3,3.54E2,8.24E2,9.8E1,1.4056E4,4.483E3,4.444E3,1.289E3,1.4803E4,1.41E2,2.467E3,1.3E1,1.08E3,7.4E1,1.85E2,2.8E1,1.108E3,3.1E1,1.6E1,7E0,7.87E2,3E1,5.4E1,5E0,3E0,1.4E1,1.1E3,5E0,1.45E2,2.09E2,7.26E2,9.8E1,3E0,9.5E1,8.299E3,5.757E3,4.343E3,1.4E2,3.82E3,6.24E2,9.08E2,3.81E2,6.132E3,8.671E3,1.36E2,5E0,2.234E3,2.33E2,1E1,3E0,1.074E3,6E0,1.52E2,3.3E1,5E0,2.3E1,9.15E2,1.93E2,2.3E1,8E0,9E0,7E0,3E0,4E0,6.07E2,1.8E2,1.5E1,1.5E1,1.7E1,3.7E1,6.52E2,4.48E2,3.3E1,1.12E2,4.7E1,1.62E2,5.54E2,1.72E2,8.7E1,1.1E1,8E1,1.5E1],"tree_param":{"num_deleted":"0","num_feature":"23","num_nodes":"109","size_leaf_vector":"1"}},{"base_weights":[-1.4423243E-3,-6.552897E-3,6.687824E-2,-7.927902E-3,1.6116625E-2,2.7793033E-2,9.764994E-2,-1.0783866E-2,-3.952551E-3,2.527038E-2,1.0949143E-3,2.5876312E-2,1.74E-2,3.5039064E-1,8.854868E-2,-9.080915E-3,-1.5445909E-2,-5.3868643E-3,1.0964076E-2,2.1652255E-2,1.0034724E-1,6.4052525E-3,-1.9743565E-2,-6.090249E-4,6.42677E-2,3.688525E-1,-5.6249945E-4,6.125134E-2,1.19421266E-1,-1.07057085E-2,-4.730125E-3,-1.7733749E-2,-1.0100079E-2,-6.572009E-3,8.4328E-3,-3.5895055E-4,3.0800384E-2,1.959879E-2,8.920457E-2,7.681162E-2,1.44375E-2,1.3074509E-2,-7.4444374E-4,-7.3275627E-3,-7.445645E-4,7.89236E-3,-1.5396802E-2,1.3561323E-1,4.867078E-2,3.22449E-1,1.5461538E-2,5.391669E-2,1.8701926E-1,3.090278E-1,1.10772125E-1,-3.8129385E-4,-1.780019E-4,4.5339792E-4,-2.2202602E-4,-4.799993E-4,-6.585913E-4,-4.4459762E-4,-1.2557665E-4,-2.4283446E-4,1.656505E-4,7.865757E-5,1.3596498E-3,-1.0508403E-4,9.065941E-4,8.3030923E-4,9.375E-3,9.513554E-4,4.4729415E-4,8.918926E-4,1.05937505E-2,5.2800006E-3,6.000007E-4,6.123117E-4,-2.1301705E-4,9.58334E-4,-7.317066E-4,6.406321E-5,1.4347833E-3,-1.0638227E-4,-7.4571354E-4,3.6691183E-3,1.14E-2,2.4177703E-4,2.0036988E-3,1.0600001E-2,-5.999994E-4,1.4151126E-3,3.2783512E-3,1.0588242E-3,7.604167E-3,1.05234375E-2,-5.999994E-4,1.7379317E-3,3.6669204E-3],"categories":[],"categories_nodes":[],"categories_segments":[],"categories_sizes":[],"default_left":[0,0,0,0,0,0,0,0,0,0,0,0,0,0,0,0,0,0,0,0,0,0,0,0,0,0,0,0,0,0,0,0,0,0,0,0,0,0,0,0,0,0,0,0,0,0,0,0,0,0,0,0,0,0,0,0,0,0,0,0,0,0,0,0,0,0,0,0,0,0,0,0,0,0,0,0,0,0,0,0,0,0,0,0,0,0,0,0,0,0,0,0,0,0,0,0,0,0,0],"id":12,"left_children":[1,3,5,7,9,11,13,15,17,19,21,23,-1,25,27,29,31,33,35,37,39,41,43,45,47,49,-1,51,53,55,57,59,61,63,65,67,69,71,73,75,-1,77,-1,79,-1,81,83,85,87,89,-1,91,93,95,97,-1,-1,-1,-1,-1,-1,-1,-1,-1,-1,-1,-1,-1,-1,-1,-1,-1,-1,-1,-1,-1,-1,-1,-1,-1,-1,-1,-1,-1,-1,-1,-1,-1,-1,-1,-1,-1,-1,-1,-1,-1,-1,-1,-1],"loss_changes":[1.6600767E1,1.3789951E0,3.9770794E0,4.7347617E-1,3.478601E-1,1.5292358E0,4.226753E0,1.9254494E-1,3.7314707E-1,4.2484128E-1,1.062488E-1,1.479496E0,0E0,4.430766E-1,1.499505E0,1.2563157E-1,7.922065E-2,2.60618E-1,3.4365988E-1,2.0646507E-1,6.08499E-1,1.596085E-1,1.2105934E-2,1.084892E-1,6.543853E-1,2.4859047E-1,0E0,8.6717916E-1,1.3400307E0,1.2372255E-1,2.5640333E-1,3.2896638E-2,5.4314524E-2,2.6984042E-1,2.6932767E-1,9.3837515E-2,4.8055482E-1,8.233857E-2,6.80153E-1,3.8529855E-1,0E0,9.353419E-2,0E0,3.9644074E-2,0E0,1.2588054E-1,3.522703E-2,2.9830158E-1,3.5929143E-1,5.2530575E-1,0E0,3.309815E-1,5.1534855E-1,5.015857E-1,4.791212E-1,0E0,0E0,0E0,0E0,0E0,0E0,0E0,0E0,0E0,0E0,0E0,0E0,0E0,0E0,0E0,0E0,0E0,0E0,0E0,0E0,0E0,0E0,0E0,0E0,0E0,0E0,0E0,0E0,0E0,0E0,0E0,0E0,0E0,0E0,0E0,0E0,0E0,0E0,0E0,0E0,0E0,0E0,0E0,0E0],"parents":[2147483647,0,0,1,1,2,2,3,3,4,4,5,5,6,6,7,7,8,8,9,9,10,10,11,11,13,13,14,14,15,15,16,16,17,17,18,18,19,19,20,20,21,21,22,22,23,23,24,24,25,25,27,27,28,28,29,29,30,30,31,31,32,32,33,33,34,34,35,35,36,36,37,37,38,38,39,39,41,41,43,43,45,45,46,46,47,47,48,48,49,49,51,51,52,52,53,53,54,54],"right_children":[2,4,6,8,10,12,14,16,18,20,22,24,-1,26,28,30,32,34,36,38,40,42,44,46,48,50,-1,52,54,56,58,60,62,64,66,68,70,72,74,76,-1,78,-1,80,-1,82,84,86,88,90,-1,92,94,96,98,-1,-1,-1,-1,-1,-1,-1,-1,-1,-1,-1,-1,-1,-1,-1,-1,-1,-1,-1,-1,-1,-1,-1,-1,-1,-1,-1,-1,-1,-1,-1,-1,-1,-1,-1,-1,-1,-1,-1,-1,-1,-1,-1,-1],"split_conditions":[1E0,-6.3756423E0,4.8E-2,-3.2008564E1,1.24E-1,3.3E0,4.9E-2,1E0,2E0,3.8538322E1,1E0,1.3544956E1,5.5903783E0,1.539E-1,1.83E0,8E-2,1.3E1,2.8E1,4E0,2.35E0,1.09E-1,1E0,-1.4538146E0,2.968E-1,1.13E-2,8.823524E0,-6.477966E0,1.1E1,7.5E-2,1.2E1,9.2E-2,1E0,-3.2359993E1,1E0,-2.071512E1,6.12E-1,3.8E-1,8.3E-2,1E0,6E0,7.589469E0,5.1E-1,-3.549596E0,1.35E0,-3.1133354E0,2.4E-1,-2.7197727E1,1.02E-2,1E0,7.008416E0,6.782571E0,5.6176003E1,6.2E-2,6.861281E1,-1.4538146E0,-1.7762643E0,-6.6352016E-1,1.6728069E0,-9.7530735E-1,-2.3334389E0,-2.7330875E0,-2.174468E0,-6.2099848E-2,-1.105498E0,5.304634E-1,3.8307473E-1,2.0727978E0,-3.7221838E-2,1.4334674E0,2.7517023E0,4.1064467E0,5.0307913E0,4.265184E0,4.6104326E0,5.963322E0,7.5953455E0,4.059306E0,3.7137358E0,-5.1254284E-1,5.713683E0,-3.3803675E0,1.8209112E0,8.810536E0,-6.511096E-1,-2.1973236E0,5.762169E0,5.0125084E0,1.6586405E0,5.6991296E0,6.6867466E0,-9.014586E0,4.600544E0,6.001558E0,7.2798724E0,7.608702E0,6.9849305E0,-5.085391E0,5.5036645E0,5.7349453E0],"split_indices":[7,22,1,22,1,0,1,18,0,22,8,22,0,0,0,1,2,2,2,0,1,9,22,0,0,22,0,2,1,2,1,3,22,15,22,1,1,0,8,2,0,1,0,0,0,0,22,0,14,22,0,22,1,22,22,0,0,0,0,0,0,0,0,0,0,0,0,0,0,0,0,0,0,0,0,0,0,0,0,0,0,0,0,0,0,0,0,0,0,0,0,0,0,0,0,0,0,0,0],"split_type":[0,0,0,0,0,0,0,0,0,0,0,0,0,0,0,0,0,0,0,0,0,0,0,0,0,0,0,0,0,0,0,0,0,0,0,0,0,0,0,0,0,0,0,0,0,0,0,0,0,0,0,0,0,0,0,0,0,0,0,0,0,0,0,0,0,0,0,0,0,0,0,0,0,0,0,0,0,0,0,0,0,0,0,0,0,0,0,0,0,0,0,0,0,0,0,0,0,0,0],"sum_hessian":[4.7543E4,4.4235E4,3.308E3,4.1706E4,2.529E3,1.458E3,1.85E3,2.4269E4,1.7437E4,1.571E3,9.58E2,1.454E3,4E0,6.3E1,1.787E3,1.7778E4,6.491E3,1.5908E4,1.529E3,1.5E3,7.1E1,7.64E2,1.94E2,8.61E2,5.93E2,6E1,3E0,9.5E2,8.37E2,1.2943E4,4.835E3,4.544E3,1.947E3,1.4652E4,1.256E3,9.74E2,5.55E2,1.457E3,4.3E1,6.8E1,3E0,6.3E2,1.34E2,5.7E1,1.37E2,5.47E2,3.14E2,1.05E2,4.88E2,4.8E1,1.2E1,8.99E2,5.1E1,3.5E1,8.02E2,9.114E3,3.829E3,5.73E2,4.262E3,3.224E3,1.32E3,1.082E3,8.65E2,1.3014E4,1.638E3,1.086E3,1.7E2,8.84E2,9E1,5.5E2,5E0,4.05E2,1.052E3,3.6E1,7E0,2.4E1,4.4E1,4.62E2,1.68E2,1.7E1,4E1,4.79E2,6.8E1,1.4E2,1.74E2,1.01E2,4E0,1.51E2,3.37E2,4.4E1,4E0,8.03E2,9.6E1,1.6E1,3.5E1,3.1E1,4E0,1.44E2,6.58E2],"tree_param":{"num_deleted":"0","num_feature":"23","num_nodes":"99","size_leaf_vector":"1"}},{"base_weights":[-2.038231E-3,-6.8553425E-3,6.282287E-2,-8.35865E-3,1.7788485E-2,2.7431058E-2,9.064878E-2,-1.0782109E-2,-4.9974048E-3,2.4713295E-2,1.04480634E-4,4.650498E-3,5.906098E-2,3.246032E-1,8.231744E-2,-9.045308E-3,-1.5562148E-2,-5.3386907E-3,3.322583E-2,1.8881142E-2,6.0038634E-2,-2.0600835E-2,1.0030888E-2,9.72853E-3,-1.3873602E-2,9.6195675E-2,1.7045477E-2,-5.999994E-4,3.483051E-1,7.008805E-2,1.3019393E-1,-7.7784844E-3,-1.6489543E-2,-1.7601628E-2,-1.0532632E-2,-1.0686332E-2,-2.5030638E-3,3.5892862E-3,2.4471855E-2,1.7882302E-2,1.5909094E-1,-7.349993E-4,7.9880975E-2,6.2502327E-4,-7.4613333E-4,5.226317E-3,1.0652176E-1,-6.6222786E-4,3.1990547E-2,-2.747229E-3,-7.418471E-4,1.6654414E-1,7.7058844E-2,-7.397253E-4,3.1191612E-2,3.0204085E-1,5.227273E-1,6.316492E-2,1.561905E-1,3.2758646E-2,1.6054548E-1,-2.80797E-4,-5.4711243E-5,-3.909138E-4,-6.836783E-4,-5.7630055E-4,-2.9679574E-4,-1.632551E-4,-5.2235444E-4,-3.537495E-4,4.032972E-6,-2.1738876E-4,8.331851E-5,5.790448E-4,3.6428578E-3,1.4334684E-3,4.5885486E-4,-6.249994E-4,9.375E-3,1.5996101E-3,3.5963862E-3,-7.27272E-4,3.0937504E-3,-6.8009365E-5,1.4669125E-3,4.291667E-3,-6.249994E-4,-3.025983E-4,2.2650007E-3,4.0796772E-4,4.2750007E-3,1.0367654E-3,-7.3706824E-4,8.275001E-3,2.3461545E-3,1.1044528E-3,3.8931824E-3,1.4791674E-3,3.7850536E-4,9.933334E-3,-5.999994E-4,1.809375E-2,6.9375006E-3,1.3185818E-3,2.6308498E-3,4.2573535E-3,1.44375E-2,-7.3369493E-4,2.8392863E-3,6.864131E-3,2.7336963E-3],"categories":[],"categories_nodes":[],"categories_segments":[],"categories_sizes":[],"default_left":[0,0,0,0,0,0,0,0,0,0,0,0,0,0,0,0,0,0,0,0,0,0,0,0,0,0,0,0,0,0,0,0,0,0,0,0,0,0,0,0,0,0,0,0,0,0,0,0,0,0,0,0,0,0,0,0,0,0,0,0,0,0,0,0,0,0,0,0,0,0,0,0,0,0,0,0,0,0,0,0,0,0,0,0,0,0,0,0,0,0,0,0,0,0,0,0,0,0,0,0,0,0,0,0,0,0,0,0,0,0,0],"id":13,"left_children":[1,3,5,7,9,11,13,15,17,19,21,23,25,27,29,31,33,35,37,39,41,43,45,47,49,51,53,-1,55,57,59,61,63,65,67,69,71,-1,73,75,77,-1,79,81,-1,83,85,87,89,91,-1,93,95,-1,97,99,101,103,105,107,109,-1,-1,-1,-1,-1,-1,-1,-1,-1,-1,-1,-1,-1,-1,-1,-1,-1,-1,-1,-1,-1,-1,-1,-1,-1,-1,-1,-1,-1,-1,-1,-1,-1,-1,-1,-1,-1,-1,-1,-1,-1,-1,-1,-1,-1,-1,-1,-1,-1,-1],"loss_changes":[1.4873352E1,1.6417861E0,3.2385216E0,3.4015703E-1,3.1202137E-1,1.0445191E0,3.5636196E0,2.0132327E-1,2.2845274E-1,3.760941E-1,1.4777675E-1,7.952666E-2,9.454217E-1,5.2153444E-1,1.0330648E0,1.6775417E-1,6.6140175E-2,2.6299134E-1,1.1432849E-1,2.1744955E-1,4.3641508E-1,2.113472E-2,2.2475156E-1,1.5338583E-1,2.1912705E-2,4.2065763E-1,1.6949081E-1,0E0,3.182168E-1,8.3659506E-1,1.0623302E0,1.4326221E-1,5.6098938E-2,5.6829214E-2,6.532355E-2,7.18835E-2,2.839404E-1,0E0,6.8841025E-2,1.2017566E-1,3.1013256E-1,0E0,2.1670938E-1,1.0445643E-1,0E0,1.5194927E-1,1.09993964E-1,3.2591686E-1,4.2690873E-1,7.493057E-2,0E0,6.349344E-1,5.3618073E-1,0E0,7.138091E-2,4.653511E-1,1.18302345E-1,6.163449E-1,4.1905522E-1,3.1035686E-1,1.28229E0,0E0,0E0,0E0,0E0,0E0,0E0,0E0,0E0,0E0,0E0,0E0,0E0,0E0,0E0,0E0,0E0,0E0,0E0,0E0,0E0,0E0,0E0,0E0,0E0,0E0,0E0,0E0,0E0,0E0,0E0,0E0,0E0,0E0,0E0,0E0,0E0,0E0,0E0,0E0,0E0,0E0,0E0,0E0,0E0,0E0,0E0,0E0,0E0,0E0,0E0],"parents":[2147483647,0,0,1,1,2,2,3,3,4,4,5,5,6,6,7,7,8,8,9,9,10,10,11,11,12,12,13,13,14,14,15,15,16,16,17,17,18,18,19,19,20,20,21,21,22,22,23,23,24,24,25,25,26,26,28,28,29,29,30,30,31,31,32,32,33,33,34,34,35,35,36,36,38,38,39,39,40,40,42,42,43,43,45,45,46,46,47,47,48,48,49,49,51,51,52,52,54,54,55,55,56,56,57,57,58,58,59,59,60,60],"right_children":[2,4,6,8,10,12,14,16,18,20,22,24,26,28,30,32,34,36,38,40,42,44,46,48,50,52,54,-1,56,58,60,62,64,66,68,70,72,-1,74,76,78,-1,80,82,-1,84,86,88,90,92,-1,94,96,-1,98,100,102,104,106,108,110,-1,-1,-1,-1,-1,-1,-1,-1,-1,-1,-1,-1,-1,-1,-1,-1,-1,-1,-1,-1,-1,-1,-1,-1,-1,-1,-1,-1,-1,-1,-1,-1,-1,-1,-1,-1,-1,-1,-1,-1,-1,-1,-1,-1,-1,-1,-1,-1,-1,-1],"split_conditions":[1E0,-6.3756423E0,4.8E-2,-3.2008564E1,1.91E-1,1.3544956E1,4.9E-2,1E0,5.52E-1,3.2995945E1,2.77E-1,1E0,1E0,1E0,4E0,1E0,1.5E1,4E0,-3.0233234E1,1.86E-1,7E-3,-1.4538146E0,4E0,-1.655391E1,2E0,1E0,2E0,-6.283627E0,8.823524E0,1.23E0,1E0,1.5E1,1E0,1.09E-1,1E0,1E0,1.7E-2,6.498522E0,1E0,2E-3,1E0,-1.1243373E0,1E0,1E0,-2.8375785E0,1E0,5E0,6E0,3.3E-2,2.5E-2,-1.7204599E0,2.8397104E1,3.8538322E1,-4.1350028E-1,3.8538322E1,7.008416E0,7E0,2.3703762E1,1E0,1.21E-1,1E0,-1.350225E0,-2.1536775E-1,-1.5896839E0,-2.8293564E0,-2.3891673E0,-1.797381E0,-1.6704623E-1,-1.8208001E0,-1.6774713E0,5.3450363E-3,-8.538666E-1,4.059555E-1,9.9541557E-1,1.0017397E0,3.8367898E0,3.9791217E0,-4.4695373E0,5.04751E0,4.567446E0,7.0568795E0,-2.8866875E0,3.2836833E0,-6.186644E-3,5.1561794E0,7.3515177E0,-3.4167955E0,-3.4100468E0,6.552408E0,3.1302533E0,7.7299776E0,8.907699E0,-3.2524776E0,3.7567253E0,6.2248826E0,4.392323E0,6.82935E0,5.092564E0,2.6880627E0,6.4861445E0,-8.744149E0,6.579094E0,2.9660943E0,5.712024E0,5.2667313E0,6.535995E0,2.0596519E0,-5.8154154E-1,4.7920375E0,6.294614E0,5.10064E0],"split_indices":[7,22,1,22,1,22,1,18,1,22,1,11,11,17,2,11,2,2,22,1,1,22,2,22,2,21,2,0,22,1,14,2,6,1,3,15,1,0,14,1,11,0,11,11,0,10,2,2,1,1,0,22,22,0,22,22,2,22,15,1,21,0,0,0,0,0,0,0,0,0,0,0,0,0,0,0,0,0,0,0,0,0,0,0,0,0,0,0,0,0,0,0,0,0,0,0,0,0,0,0,0,0,0,0,0,0,0,0,0,0,0],"split_type":[0,0,0,0,0,0,0,0,0,0,0,0,0,0,0,0,0,0,0,0,0,0,0,0,0,0,0,0,0,0,0,0,0,0,0,0,0,0,0,0,0,0,0,0,0,0,0,0,0,0,0,0,0,0,0,0,0,0,0,0,0,0,0,0,0,0,0,0,0,0,0,0,0,0,0,0,0,0,0,0,0,0,0,0,0,0,0,0,0,0,0,0,0,0,0,0,0,0,0,0,0,0,0,0,0,0,0,0,0,0,0],"sum_hessian":[4.7601E4,4.4311E4,3.29E3,4.1764E4,2.547E3,1.449E3,1.841E3,2.4266E4,1.7498E4,1.83E3,7.17E2,8.43E2,6.06E2,6.2E1,1.779E3,1.7801E4,6.465E3,1.7344E4,1.54E2,1.572E3,2.58E2,2.32E2,4.85E2,6.62E2,1.81E2,3.21E2,2.85E2,4E0,5.8E1,1.419E3,3.6E2,1.5214E4,2.587E3,4.598E3,1.867E3,6.009E3,1.1335E4,1.3E1,1.41E2,1.562E3,1E1,4.9E1,2.09E2,3.9E1,1.93E2,4.63E2,2.2E1,4.52E2,2.1E2,9E1,9.1E1,6.7E1,2.54E2,7.2E1,2.13E2,4.8E1,1E1,1.315E3,1.04E2,8.6E1,2.74E2,1.2021E4,3.193E3,1.672E3,9.15E2,3.803E3,7.95E2,1.074E3,7.93E2,5.452E3,5.57E2,5.971E3,5.364E3,1.35E2,6E0,1.23E2,1.439E3,5E0,5E0,1.27E2,8.2E1,3.2E1,7E0,3.96E2,6.7E1,1.7E1,5E0,4.03E2,4.9E1,1.81E2,2.9E1,3.3E1,5.7E1,2.9E1,3.8E1,1.45E2,1.09E2,1.07E2,1.06E2,4.4E1,4E0,7E0,3E0,7.39E2,5.76E2,1.01E2,3E0,4.5E1,4.1E1,1.37E2,1.37E2],"tree_param":{"num_deleted":"0","num_feature":"23","num_nodes":"111","size_leaf_vector":"1"}},{"base_weights":[-1.3234498E-3,-6.2790145E-3,6.473567E-2,-7.5129666E-3,2.0030374E-2,4.562576E-2,1.2857614E-1,-1.056406E-2,-3.462343E-3,1.02727294E-1,1.765473E-2,3.3239275E-3,6.1828565E-2,3.3111113E-1,1.1570337E-1,-9.015391E-3,-1.4777806E-2,-4.98629E-3,1.154194E-2,3.8281273E-2,1.8437502E-1,1.0982683E-2,4.5912832E-2,-2.2692652E-3,8.191492E-2,8.604084E-2,1.3812625E-2,4.7589287E-1,8.750002E-2,9.505002E-2,1.623288E-1,-1.064881E-2,-4.61229E-3,-1.6971227E-2,-9.782034E-3,-1.1157725E-2,-1.9507973E-3,8.305617E-3,4.023671E-2,1.0344851E-2,6.9375006E-3,1.4375E-2,8.157897E-2,3.904112E-2,6.385386E-3,6.921571E-2,-7.0796222E-3,-9.857358E-3,6.6287905E-2,1.8684213E-1,1.0344851E-2,1.1678482E-1,3.2833356E-2,3.6810054E-3,5.152674E-2,4.16E-1,2.19375E-2,-6.249994E-4,1.3076925E-1,8.666297E-2,1.6415097E-1,1.846284E-1,1.1423613E-1,-3.6853514E-4,-1.9078131E-4,4.7256704E-4,-2.2061907E-4,-5.290356E-4,1.12500704E-4,-5.921732E-4,-1.704782E-4,-3.7855745E-4,3.6649926E-5,-1.0263978E-4,2.746322E-4,4.3750005E-3,2.3246564E-4,-7.307685E-4,1.7748098E-3,1.8125005E-3,-7.0833263E-4,-6.92307E-4,7.928572E-3,9.597164E-4,6.0000005E-3,3.3886256E-5,6.475298E-4,-7.317066E-4,2.6023262E-3,-7.4062427E-4,1.0367654E-3,-4.2255362E-4,1.2666674E-3,3.7687507E-3,-7.222215E-4,3.3000007E-3,1.14E-2,-7.211531E-4,6.9375006E-3,1.9407378E-3,6.343637E-3,3.0085233E-3,4.917362E-4,-3.2779647E-4,7.242654E-4,1.14E-2,1.1456701E-3,5.4000006E-3,1.3571429E-2,5.3250007E-3,-5.6249945E-4,2.3067892E-3,4.261364E-3,9.275001E-3,-7.187493E-4,6.2160003E-3,1.7812506E-3,1.6176477E-3,7.4659092E-3],"categories":[],"categories_nodes":[],"categories_segments":[],"categories_sizes":[],"default_left":[0,0,0,0,0,0,0,0,0,0,0,0,0,0,0,0,0,0,0,0,0,0,0,0,0,0,0,0,0,0,0,0,0,0,0,0,0,0,0,0,0,0,0,0,0,0,0,0,0,0,0,0,0,0,0,0,0,0,0,0,0,0,0,0,0,0,0,0,0,0,0,0,0,0,0,0,0,0,0,0,0,0,0,0,0,0,0,0,0,0,0,0,0,0,0,0,0,0,0,0,0,0,0,0,0,0,0,0,0,0,0,0,0,0,0,0,0,0,0],"id":14,"left_children":[1,3,5,7,9,11,13,15,17,19,21,23,25,27,29,31,33,35,37,39,41,43,45,47,49,51,53,55,57,59,61,63,65,67,69,71,73,75,77,79,-1,-1,81,83,85,87,89,91,93,95,97,99,101,103,105,107,-1,-1,109,111,113,115,117,-1,-1,-1,-1,-1,-1,-1,-1,-1,-1,-1,-1,-1,-1,-1,-1,-1,-1,-1,-1,-1,-1,-1,-1,-1,-1,-1,-1,-1,-1,-1,-1,-1,-1,-1,-1,-1,-1,-1,-1,-1,-1,-1,-1,-1,-1,-1,-1,-1,-1,-1,-1,-1,-1,-1,-1],"loss_changes":[1.5527758E1,1.4325826E0,4.0322866E0,5.2085114E-1,3.8658452E-1,1.7469001E0,1.9483662E0,1.5673804E-1,4.1413313E-1,2.8234482E-1,3.6205697E-1,3.1096512E-1,2.141437E0,1.5455298E0,6.759825E-1,1.2639534E-1,7.061064E-2,3.079545E-1,1.547513E-1,1.7011517E-1,6.8819225E-1,2.005928E-1,4.536897E-1,3.4451765E-1,3.5102051E-1,2.0000324E0,2.3633337E-1,1.24032974E-1,8.709936E-2,2.7555132E-1,2.1377516E-1,8.989072E-2,2.6582506E-1,6.1736703E-2,8.042231E-2,9.803349E-2,1.8001002E-1,1.13878325E-1,2.0802394E-1,5.0733358E-2,0E0,0E0,3.6940426E-1,2.4213463E-1,1.069393E-1,4.2051256E-1,8.370072E-2,1.318221E-1,3.5690433E-1,2.4021053E-1,2.2582683E-1,3.8133078E0,4.974222E-1,1.464199E-1,5.5941117E-1,1.3321924E-1,0E0,0E0,9.416106E-2,2.3148441E-1,1.4531834E0,4.0611887E-1,5.7122076E-1,0E0,0E0,0E0,0E0,0E0,0E0,0E0,0E0,0E0,0E0,0E0,0E0,0E0,0E0,0E0,0E0,0E0,0E0,0E0,0E0,0E0,0E0,0E0,0E0,0E0,0E0,0E0,0E0,0E0,0E0,0E0,0E0,0E0,0E0,0E0,0E0,0E0,0E0,0E0,0E0,0E0,0E0,0E0,0E0,0E0,0E0,0E0,0E0,0E0,0E0,0E0,0E0,0E0,0E0,0E0,0E0],"parents":[2147483647,0,0,1,1,2,2,3,3,4,4,5,5,6,6,7,7,8,8,9,9,10,10,11,11,12,12,13,13,14,14,15,15,16,16,17,17,18,18,19,19,20,20,21,21,22,22,23,23,24,24,25,25,26,26,27,27,28,28,29,29,30,30,31,31,32,32,33,33,34,34,35,35,36,36,37,37,38,38,39,39,42,42,43,43,44,44,45,45,46,46,47,47,48,48,49,49,50,50,51,51,52,52,53,53,54,54,55,55,58,58,59,59,60,60,61,61,62,62],"right_children":[2,4,6,8,10,12,14,16,18,20,22,24,26,28,30,32,34,36,38,40,42,44,46,48,50,52,54,56,58,60,62,64,66,68,70,72,74,76,78,80,-1,-1,82,84,86,88,90,92,94,96,98,100,102,104,106,108,-1,-1,110,112,114,116,118,-1,-1,-1,-1,-1,-1,-1,-1,-1,-1,-1,-1,-1,-1,-1,-1,-1,-1,-1,-1,-1,-1,-1,-1,-1,-1,-1,-1,-1,-1,-1,-1,-1,-1,-1,-1,-1,-1,-1,-1,-1,-1,-1,-1,-1,-1,-1,-1,-1,-1,-1,-1,-1,-1,-1,-1],"split_conditions":[1E0,-1.4538146E0,2.15E0,-3.2008564E1,7.2E-3,-1.655391E1,7.5E-2,1E0,2E0,1.8E1,3.2995945E1,1.0275E0,1E0,3.8538322E1,3.2995945E1,8E-2,1.3E1,4E0,7E0,1E0,5.1E1,8E-2,1.77E-1,7E0,1.45E0,1.3E-1,1.08E-1,1E0,4E0,1E0,5.1E0,1E0,9.2E-2,1E0,5E-3,1E0,2.8E1,1.5E-2,6.8E-2,4E0,1.8924692E0,3.8726797E0,1E-3,1E0,6E0,7E-3,3.6E0,7.2E-2,2.5E-1,1E0,-2.071512E1,4.4E-2,8.375E-1,5E0,1.15E-1,4.4E-2,6.6040215E0,-3.8782039E0,9E0,1.23E0,3.6E0,1E0,1E0,-1.6454244E0,-1.251046E0,1.7948043E0,-1.1027993E0,-2.2737103E0,2.1547215E0,-2.39253E0,-3.4023166E-1,-2.0418217E0,4.302845E-2,-4.794766E-1,1.0494012E0,4.1605854E0,8.5326463E-1,-2.455756E0,5.3738265E0,7.8911204E0,-1.7304355E0,-5.385791E0,5.148121E0,4.510818E0,7.4147763E0,1.10959336E-1,2.4853573E0,-4.469089E-1,6.307292E0,-2.8689494E0,8.34455E0,-2.9611228E0,4.3024836E0,7.0588136E0,-2.0549877E0,5.418889E0,4.420935E0,-2.3737068E0,1.8487436E0,5.6461635E0,6.6905694E0,5.931377E0,2.0655262E0,-5.0147706E-1,3.6187916E0,5.680081E0,1.8402774E0,5.328759E0,5.060677E0,6.028673E0,-2.913336E0,5.160024E0,6.505777E0,5.951321E0,-1.5827811E0,6.03927E0,1.4384179E0,3.8722658E0,5.3528805E0],"split_indices":[7,22,0,22,0,22,1,18,0,2,22,0,11,22,22,1,2,2,2,17,2,0,1,2,0,1,1,13,2,16,0,5,1,17,1,15,2,1,1,2,0,0,1,15,2,1,0,1,0,9,22,1,0,2,1,1,0,0,2,1,0,11,11,0,0,0,0,0,0,0,0,0,0,0,0,0,0,0,0,0,0,0,0,0,0,0,0,0,0,0,0,0,0,0,0,0,0,0,0,0,0,0,0,0,0,0,0,0,0,0,0,0,0,0,0,0,0,0,0],"split_type":[0,0,0,0,0,0,0,0,0,0,0,0,0,0,0,0,0,0,0,0,0,0,0,0,0,0,0,0,0,0,0,0,0,0,0,0,0,0,0,0,0,0,0,0,0,0,0,0,0,0,0,0,0,0,0,0,0,0,0,0,0,0,0,0,0,0,0,0,0,0,0,0,0,0,0,0,0,0,0,0,0,0,0,0,0,0,0,0,0,0,0,0,0,0,0,0,0,0,0,0,0,0,0,0,0,0,0,0,0,0,0,0,0,0,0,0,0,0,0],"sum_hessian":[4.7431E4,4.4122E4,3.309E3,4.2146E4,1.976E3,2.548E3,7.61E2,2.4038E4,1.8108E4,5.4E1,1.922E3,7.06E2,1.842E3,4.4E1,7.17E2,1.758E4,6.458E3,1.6439E4,1.669E3,3.1E1,2.3E1,1.556E3,3.66E2,6.6E2,4.6E1,1.224E3,6.18E2,2.7E1,1.7E1,4.99E2,2.18E2,1.2822E4,4.758E3,4.486E3,1.972E3,5.419E3,1.102E4,1.501E3,1.68E2,2.8E1,3E0,5E0,1.8E1,2.18E2,1.338E3,2.54E2,1.12E2,5.95E2,6.5E1,1.8E1,2.8E1,7.75E2,4.49E2,4.88E2,1.3E2,2.4E1,3E0,5E0,1.2E1,4.47E2,5.2E1,1.47E2,7.1E1,9.281E3,3.541E3,5.64E2,4.194E3,4.347E3,1.39E2,5.74E2,1.398E3,4.847E3,5.72E2,9.732E3,1.288E3,5E0,1.496E3,3.8E1,1.3E2,1.1E1,1.7E1,1.2E1,6E0,2.1E2,8E0,9.95E2,3.43E2,4E1,2.14E2,7.9E1,3.3E1,5.51E2,4.4E1,3.9E1,2.6E1,1.4E1,4E0,2.5E1,3E0,5.01E2,2.74E2,8.7E1,3.62E2,2.85E2,2.03E2,4E0,1.26E2,4E0,2E1,9E0,3E0,3.82E2,6.5E1,2.9E1,2.3E1,1.24E2,2.3E1,5E1,2.1E1],"tree_param":{"num_deleted":"0","num_feature":"23","num_nodes":"119","size_leaf_vector":"1"}},{"base_weights":[-1.2691373E-3,-6.0030515E-3,6.266801E-2,-7.31364E-3,1.5433697E-2,4.5823578E-2,1.2246177E-1,-1.01884175E-2,-3.3426422E-3,2.6900738E-2,6.464035E-3,3.6523297E-2,1.9370863E-1,2.9468086E-1,1.10252626E-1,-8.400815E-3,-1.5026817E-2,-4.972214E-3,1.4392421E-2,2.3260692E-2,1.21951245E-1,-1.218218E-2,1.0137984E-2,2.8607445E-2,1.13504484E-1,6.831398E-2,3.541667E-1,3.810811E-1,-6.8181753E-4,8.987476E-2,1.597436E-1,-7.254677E-3,-1.5186251E-2,-1.0850447E-2,-1.7351301E-2,-3.5133306E-3,-1.3099607E-2,-7.442741E-4,1.8205535E-2,1.6836181E-2,5.2448478E-2,1.4714289E-1,-6.428565E-4,-3.3928335E-3,-7.422673E-4,2.0818686E-2,4.7697133E-4,2.2968221E-2,8.349756E-2,1.6447604E-3,1.6979869E-1,3.991938E-2,1.3600002E-1,2.7340427E-1,5.2625E-1,5.482143E-1,2.6770836E-1,1.021583E-1,7.1428805E-3,1.2967482E-1,2.082192E-1,-2.806343E-5,-2.5738755E-4,-3.519571E-4,-6.481474E-4,-3.792982E-4,1.5000007E-3,-5.868771E-4,-2.6804052E-4,-8.522393E-5,-5.4671644E-4,-4.355359E-4,2.685818E-4,9.812687E-4,3.9418324E-4,1.3977279E-3,3.1659906E-4,1.1895169E-3,9.333333E-3,2.82353E-3,5.6052636E-3,-3.033081E-4,5.4000006E-3,5.4631365E-4,3.9230776E-3,1.6746254E-4,-7.429238E-4,3.6336182E-4,1.3388812E-3,4.1142865E-3,7.7272794E-4,7.31708E-4,-7.291659E-4,7.1659097E-3,-7.312493E-4,4.32693E-4,1.7027033E-3,5.6052636E-3,-6.428565E-4,9.034884E-3,-5.999994E-4,2.0732144E-2,3.6428578E-3,1.1325001E-2,2.3400001E-2,2.3250007E-3,1.13E-2,2.9373472E-3,7.5000008E-3,2.2875008E-3,-7.3295383E-4,6.306825E-4,5.6343754E-3,6.76103E-3,-6.249994E-4],"categories":[],"categories_nodes":[],"categories_segments":[],"categories_sizes":[],"default_left":[0,0,0,0,0,0,0,0,0,0,0,0,0,0,0,0,0,0,0,0,0,0,0,0,0,0,0,0,0,0,0,0,0,0,0,0,0,0,0,0,0,0,0,0,0,0,0,0,0,0,0,0,0,0,0,0,0,0,0,0,0,0,0,0,0,0,0,0,0,0,0,0,0,0,0,0,0,0,0,0,0,0,0,0,0,0,0,0,0,0,0,0,0,0,0,0,0,0,0,0,0,0,0,0,0,0,0,0,0,0,0,0,0,0,0],"id":15,"left_children":[1,3,5,7,9,11,13,15,17,19,21,23,25,27,29,31,33,35,37,39,41,43,45,47,49,51,53,55,-1,57,59,61,63,65,67,69,71,-1,73,75,77,79,-1,81,-1,83,85,87,89,91,93,95,97,99,101,103,105,107,109,111,113,-1,-1,-1,-1,-1,-1,-1,-1,-1,-1,-1,-1,-1,-1,-1,-1,-1,-1,-1,-1,-1,-1,-1,-1,-1,-1,-1,-1,-1,-1,-1,-1,-1,-1,-1,-1,-1,-1,-1,-1,-1,-1,-1,-1,-1,-1,-1,-1,-1,-1,-1,-1,-1,-1],"loss_changes":[1.4374923E1,1.2424347E0,3.291936E0,4.7568226E-1,2.6190186E-1,3.5083761E0,1.4793158E0,2.0894098E-1,5.058602E-1,3.8397837E-1,9.8154485E-2,1.4629021E0,3.0140128E0,1.2975955E0,6.643772E-1,1.3717794E-1,6.310713E-2,1.9000852E-1,2.2063571E-1,2.0126057E-1,1.5124393E-1,2.5969215E-2,1.2340101E-1,6.738031E-1,1.4102602E0,1.5985593E-1,7.733803E-1,5.543275E-1,0E0,4.8604918E-1,2.5723124E-1,1.2644875E-1,5.628586E-2,2.5525835E-1,7.775116E-2,1.3440846E-1,7.641187E-2,0E0,9.8248035E-2,1.6495511E-1,6.298708E-1,5.6091964E-2,0E0,1.7429003E-1,0E0,1.6050762E-1,8.119035E-2,4.653052E-1,6.252558E-1,4.5452014E-2,2.0040016E0,2.5797442E-2,2.0410374E-1,3.888135E-1,1.2505488E0,2.5951815E-1,4.682032E-1,2.3733282E-1,1.3933118E-1,7.73016E-1,2.914319E-1,0E0,0E0,0E0,0E0,0E0,0E0,0E0,0E0,0E0,0E0,0E0,0E0,0E0,0E0,0E0,0E0,0E0,0E0,0E0,0E0,0E0,0E0,0E0,0E0,0E0,0E0,0E0,0E0,0E0,0E0,0E0,0E0,0E0,0E0,0E0,0E0,0E0,0E0,0E0,0E0,0E0,0E0,0E0,0E0,0E0,0E0,0E0,0E0,0E0,0E0,0E0,0E0,0E0,0E0],"parents":[2147483647,0,0,1,1,2,2,3,3,4,4,5,5,6,6,7,7,8,8,9,9,10,10,11,11,12,12,13,13,14,14,15,15,16,16,17,17,18,18,19,19,20,20,21,21,22,22,23,23,24,24,25,25,26,26,27,27,29,29,30,30,31,31,32,32,33,33,34,34,35,35,36,36,38,38,39,39,40,40,41,41,43,43,45,45,46,46,47,47,48,48,49,49,50,50,51,51,52,52,53,53,54,54,55,55,56,56,57,57,58,58,59,59,60,60],"right_children":[2,4,6,8,10,12,14,16,18,20,22,24,26,28,30,32,34,36,38,40,42,44,46,48,50,52,54,56,-1,58,60,62,64,66,68,70,72,-1,74,76,78,80,-1,82,-1,84,86,88,90,92,94,96,98,100,102,104,106,108,110,112,114,-1,-1,-1,-1,-1,-1,-1,-1,-1,-1,-1,-1,-1,-1,-1,-1,-1,-1,-1,-1,-1,-1,-1,-1,-1,-1,-1,-1,-1,-1,-1,-1,-1,-1,-1,-1,-1,-1,-1,-1,-1,-1,-1,-1,-1,-1,-1,-1,-1,-1,-1,-1,-1,-1],"split_conditions":[1E0,-6.3756423E0,2.35E0,-3.2008564E1,3.7E-1,1E0,7.5E-2,1E0,2.1E0,3.5E-1,6E-1,1E0,3.6E-3,1E0,3.2995945E1,1E0,2.281E-1,1E0,7.5E-2,2.8397104E1,1E0,1.02E-1,1.91E-1,6.861281E1,1E0,8.823524E0,8.823524E0,2.8397104E1,-2.0555511E-1,1E0,1E0,6E-3,-3.2359993E1,2.116E-1,1.09E-1,1.6E0,1E0,-1.8295426E0,-2.8649345E1,4E-2,9.6E-2,1E0,-5.4746118E0,9.4E-2,-3.0908158E0,1.86E-1,1E0,7.2E-2,1E0,8.950736E0,8.375E-1,4.1379175E0,2.3703762E1,7.008416E0,3.8538322E1,3.3E0,1E0,1E0,7.008416E0,4E0,1.005E1,-3.3044603E-2,-1.2001523E0,-1.5458926E0,-2.3053205E0,-1.9105629E0,4.1071734E0,-2.1868577E0,-1.6241609E0,-4.0803725E-1,-2.3598604E0,-2.0092766E0,1.601726E0,2.7671244E0,8.8882184E-1,5.0870004E0,3.2830465E0,2.8414798E0,4.715563E0,3.9209938E0,6.813279E0,-5.9889203E-1,5.663332E0,2.3063052E0,4.8927555E0,2.7664027E0,-4.1379013E0,2.0792296E0,4.2355776E0,6.0649624E0,4.8025618E0,6.7825947E0,-3.5756743E-1,6.259897E0,-4.13486E-1,2.5545785E0,6.8601513E0,2.9944391E0,-7.104968E0,6.107997E0,-8.682543E0,6.181003E0,5.09054E0,6.405901E0,5.168896E0,1.3244339E0,5.1553884E0,5.27553E0,1.8026888E0,4.165359E0,-7.741815E-1,5.665449E0,5.0891013E0,6.706811E0,-6.611874E-1],"split_indices":[7,22,0,22,0,19,1,18,0,0,0,20,0,9,22,11,0,11,1,22,9,1,1,22,14,22,22,22,0,13,14,1,22,0,1,0,3,0,22,0,1,11,0,1,0,1,9,1,11,22,0,22,22,22,22,0,11,15,22,0,0,0,0,0,0,0,0,0,0,0,0,0,0,0,0,0,0,0,0,0,0,0,0,0,0,0,0,0,0,0,0,0,0,0,0,0,0,0,0,0,0,0,0,0,0,0,0,0,0,0,0,0,0,0,0],"split_type":[0,0,0,0,0,0,0,0,0,0,0,0,0,0,0,0,0,0,0,0,0,0,0,0,0,0,0,0,0,0,0,0,0,0,0,0,0,0,0,0,0,0,0,0,0,0,0,0,0,0,0,0,0,0,0,0,0,0,0,0,0,0,0,0,0,0,0,0,0,0,0,0,0,0,0,0,0,0,0,0,0,0,0,0,0,0,0,0,0,0,0,0,0,0,0,0,0,0,0,0,0,0,0,0,0,0,0,0,0,0,0,0,0,0,0],"sum_hessian":[4.7491E4,4.4218E4,3.273E3,4.1671E4,2.547E3,2.555E3,7.18E2,2.4171E4,1.75E4,1.117E3,1.43E3,2.405E3,1.5E2,4.6E1,6.72E2,1.7652E4,6.519E3,1.6028E4,1.472E3,1.077E3,4E1,2.35E2,1.195E3,2.182E3,2.23E2,8.5E1,6.5E1,3.6E1,1E1,4.78E2,1.94E2,1.5103E4,2.549E3,2.333E3,4.186E3,1.359E4,2.438E3,1.3E2,1.342E3,8.84E2,1.93E2,3.4E1,6E0,1.39E2,9.6E1,5.67E2,6.28E2,1.98E3,2.02E2,7.5E1,1.48E2,6.1E1,2.4E1,4.6E1,1.9E1,1.3E1,2.3E1,4.16E2,6.2E1,1.22E2,7.2E1,2.618E3,1.2485E4,1.659E3,8.9E2,2.267E3,6.6E1,3.314E3,8.72E2,1.2997E4,5.93E2,2.291E3,1.47E2,3.46E2,9.96E2,1.53E2,7.31E2,1.85E2,8E0,1.6E1,1.8E1,1.35E2,4E0,5.55E2,1.2E1,5.23E2,1.05E2,1.32E3,6.6E2,1.04E2,9.8E1,4E1,3.5E1,1.09E2,3.9E1,2.5E1,3.6E1,1.8E1,6E0,4.2E1,4E0,1.3E1,6E0,9E0,4E0,9E0,1.4E1,4.06E2,1E1,1.9E1,4.3E1,4.3E1,7.9E1,6.7E1,5E0],"tree_param":{"num_deleted":"0","num_feature":"23","num_nodes":"115","size_leaf_vector":"1"}},{"base_weights":[-1.5980562E-3,-5.9075183E-3,5.639237E-2,-7.3560867E-3,-6.07104E-4,7.081623E-2,1.5632274E-2,-8.909596E-3,-2.4143907E-3,-5.04273E-3,3.4784165E-3,