{"learner":{"attributes":{},"feature_names":["Weight","Cube","Quantity","aisle_33","aisle_34","aisle_35","aisle_36","aisle_other","level_2","level_3","level_4","level_5+","level_nan","UoM_CA","UoM_CS","UoM_EA","UoM_PK","UoM_other","t25_products_1","t25_50_products_1","t50_75_products_1","other_products_1","worker_effect"],"feature_types":["float","float","float","float","float","float","float","float","float","float","float","float","float","float","float","float","float","float","float","float","float","float","float"],"gradient_booster":{"model":{"cats":{"enc":[],"feature_segments":[],"sorted_idx":[]},"gbtree_model_param":{"num_parallel_tree":"1","num_trees":"300"},"iteration_indptr":[0,1,2,3,4,5,6,7,8,9,10,11,12,13,14,15,16,17,18,19,20,21,22,23,24,25,26,27,28,29,30,31,32,33,34,35,36,37,38,39,40,41,42,43,44,45,46,47,48,49,50,51,52,53,54,55,56,57,58,59,60,61,62,63,64,65,66,67,68,69,70,71,72,73,74,75,76,77,78,79,80,81,82,83,84,85,86,87,88,89,90,91,92,93,94,95,96,97,98,99,100,101,102,103,104,105,106,107,108,109,110,111,112,113,114,115,116,117,118,119,120,121,122,123,124,125,126,127,128,129,130,131,132,133,134,135,136,137,138,139,140,141,142,143,144,145,146,147,148,149,150,151,152,153,154,155,156,157,158,159,160,161,162,163,164,165,166,167,168,169,170,171,172,173,174,175,176,177,178,179,180,181,182,183,184,185,186,187,188,189,190,191,192,193,194,195,196,197,198,199,200,201,202,203,204,205,206,207,208,209,210,211,212,213,214,215,216,217,218,219,220,221,222,223,224,225,226,227,228,229,230,231,232,233,234,235,236,237,238,239,240,241,242,243,244,245,246,247,248,249,250,251,252,253,254,255,256,257,258,259,260,261,262,263,264,265,266,267,268,269,270,271,272,273,274,275,276,277,278,279,280,281,282,283,284,285,286,287,288,289,290,291,292,293,294,295,296,297,298,299,300],"tree_info":[0,0,0,0,0,0,0,0,0,0,0,0,0,0,0,0,0,0,0,0,0,0,0,0,0,0,0,0,0,0,0,0,0,0,0,0,0,0,0,0,0,0,0,0,0,0,0,0,0,0,0,0,0,0,0,0,0,0,0,0,0,0,0,0,0,0,0,0,0,0,0,0,0,0,0,0,0,0,0,0,0,0,0,0,0,0,0,0,0,0,0,0,0,0,0,0,0,0,0,0,0,0,0,0,0,0,0,0,0,0,0,0,0,0,0,0,0,0,0,0,0,0,0,0,0,0,0,0,0,0,0,0,0,0,0,0,0,0,0,0,0,0,0,0,0,0,0,0,0,0,0,0,0,0,0,0,0,0,0,0,0,0,0,0,0,0,0,0,0,0,0,0,0,0,0,0,0,0,0,0,0,0,0,0,0,0,0,0,0,0,0,0,0,0,0,0,0,0,0,0,0,0,0,0,0,0,0,0,0,0,0,0,0,0,0,0,0,0,0,0,0,0,0,0,0,0,0,0,0,0,0,0,0,0,0,0,0,0,0,0,0,0,0,0,0,0,0,0,0,0,0,0,0,0,0,0,0,0,0,0,0,0,0,0,0,0,0,0,0,0,0,0,0,0,0,0,0,0,0,0,0,0,0,0,0,0,0,0,0,0,0,0,0,0,0,0,0,0,0,0],"trees":[{"base_weights":[1.0459571E-3,-4.904245E-3,8.240346E-2,-7.5288066E-3,4.753292E-2,5.0883863E-2,2.5347224E-1,-1.5042025E-2,-1.8373604E-3,3.5377594E-3,1.4574471E-1,3.0368121E-2,1.4236113E-1,1.24074094E-1,5.7750005E-1,-1.7179353E-2,9.6776563E-4,-5.9010363E-3,1.6480915E-2,1.0104169E-1,-7.4096315E-4,2.1102944E-1,-6.964279E-4,-3.6841868E-3,7.681162E-2,-6.8749936E-4,2.1600002E-1,5.937502E-2,1.44375E-2,9.375E-3,2.3400001E-2,-2.0839041E-2,-1.0922873E-2,-9.055095E-3,4.482761E-2,3.5500024E-2,-7.4121286E-3,1.4305557E-1,8.754233E-3,2.894739E-2,9.375E-3,1.4375E-2,1.4827588E-1,-1.3081372E-2,7.750002E-2,2.102275E-2,1.6826925E-1,2.7625003E-1,-6.249994E-4,-6.8749936E-4,1.3076925E-1,-7.0142106E-4,-1.105256E-4,-7.45535E-4,-5.747055E-5,8.918926E-4,-7.417575E-4,6.9375006E-3,4.32693E-4,3.5892862E-3,8.108177E-5,-3.7499928E-4,-5.3090207E-6,9.375E-3,1.6153853E-3,-1.6097489E-4,1.1935491E-3,-6.9999933E-4,5.4000006E-3,6.7875003E-3,-6.749993E-4,-7.394359E-4,1.1718756E-3,6.9375006E-3,-6.428565E-4,6.8437504E-3,-7.29729E-4,1.74E-2,2.0113643E-3,1.0546876E-2,-5.999994E-4,1.14E-2,-6.66666E-4],"categories":[],"categories_nodes":[],"categories_segments":[],"categories_sizes":[],"default_left":[0,0,0,0,0,0,0,0,0,0,0,0,0,0,0,0,0,0,0,0,0,0,0,0,0,0,0,0,0,0,0,0,0,0,0,0,0,0,0,0,0,0,0,0,0,0,0,0,0,0,0,0,0,0,0,0,0,0,0,0,0,0,0,0,0,0,0,0,0,0,0,0,0,0,0,0,0,0,0,0,0,0,0],"id":0,"left_children":[1,3,5,7,9,11,13,15,17,19,21,23,25,27,29,31,33,35,37,39,-1,41,-1,43,45,-1,47,49,-1,-1,-1,51,53,55,57,59,61,63,65,67,-1,-1,69,71,73,75,77,79,-1,-1,81,-1,-1,-1,-1,-1,-1,-1,-1,-1,-1,-1,-1,-1,-1,-1,-1,-1,-1,-1,-1,-1,-1,-1,-1,-1,-1,-1,-1,-1,-1,-1,-1],"loss_changes":[1.6550359E0,4.3882978E-1,1.2434429E0,1.2975222E-1,6.5625256E-1,3.672681E-1,1.4377766E0,4.4773996E-2,1.2872878E-1,2.943319E-1,5.2332956E-1,2.5806883E-1,4.431014E-1,5.9536743E-1,2.9287505E-1,2.6195228E-2,6.854409E-2,8.8786684E-2,3.058404E-1,3.5683244E-1,0E0,5.010545E-1,0E0,7.348959E-2,3.4852248E-1,0E0,3.6248553E-1,1.4400041E-1,0E0,0E0,0E0,3.1612396E-2,5.364703E-2,7.792118E-2,1.6103904E-1,1.3765958E-1,5.0282158E-2,2.5526175E-1,1.3034579E-1,1.5424562E-1,0E0,0E0,3.9125758E-1,5.2831296E-2,1.5705803E-1,4.1877398E-1,1.0447142E0,4.5325768E-1,0E0,0E0,5.041367E-1,0E0,0E0,0E0,0E0,0E0,0E0,0E0,0E0,0E0,0E0,0E0,0E0,0E0,0E0,0E0,0E0,0E0,0E0,0E0,0E0,0E0,0E0,0E0,0E0,0E0,0E0,0E0,0E0,0E0,0E0,0E0,0E0],"parents":[2147483647,0,0,1,1,2,2,3,3,4,4,5,5,6,6,7,7,8,8,9,9,10,10,11,11,12,12,13,13,14,14,15,15,16,16,17,17,18,18,19,19,21,21,23,23,24,24,26,26,27,27,31,31,32,32,33,33,34,34,35,35,36,36,37,37,38,38,39,39,42,42,43,43,44,44,45,45,46,46,47,47,50,50],"right_children":[2,4,6,8,10,12,14,16,18,20,22,24,26,28,30,32,34,36,38,40,-1,42,-1,44,46,-1,48,50,-1,-1,-1,52,54,56,58,60,62,64,66,68,-1,-1,70,72,74,76,78,80,-1,-1,82,-1,-1,-1,-1,-1,-1,-1,-1,-1,-1,-1,-1,-1,-1,-1,-1,-1,-1,-1,-1,-1,-1,-1,-1,-1,-1,-1,-1,-1,-1,-1,-1],"split_conditions":[1.1E1,2.561E1,1.444E0,1E0,3E0,1E0,2.3E1,5E0,1.565E1,2.64E1,8E0,2.5E1,4.3E-2,3.079E0,7.15E0,1E0,4E-1,2E-2,6.19E-1,3.581E0,-1.6228704E0,2.685E1,-7.832501E-1,1.092E0,3.5E-1,-6.46645E0,9.14E-1,2.045E0,2.4402502E0,3.363739E0,3.7924402E0,1E0,1.21E0,2.456E-1,2.18E0,2E0,7.61E-1,1.615E1,1E0,2.60004E1,2.5899498E0,2.7841387E0,2.678E0,1E0,1.147E0,1E-3,1.36E0,1E0,-2.3529701E0,-2.6485014E-1,2.148E0,-5.153753E0,2.0480031E-1,-5.4844165E0,8.899081E-2,1.3447393E0,-4.1530247E0,2.1214965E-1,5.7026E-1,4.1255603E0,4.2119293E0,-1.3801086E0,6.4570814E-2,2.6837604E0,3.320449E0,-2.1311456E-1,2.9864943E0,-2.23384E0,5.030594E-1,4.04066E0,-2.6145701E0,-1.5701948E0,2.79143E0,2.3825297E0,-1.1976407E0,1.31885E0,-3.6708407E0,3.5294604E0,1.3939397E0,4.13714E0,-3.5951505E0,1.0137497E0,-5.816501E-1],"split_indices":[2,0,1,7,2,8,2,2,0,0,2,2,1,1,0,21,1,1,1,1,0,0,0,1,0,0,1,1,0,0,0,4,0,0,0,2,1,0,8,0,0,0,1,21,1,1,0,21,0,0,1,0,0,0,0,0,0,0,0,0,0,0,0,0,0,0,0,0,0,0,0,0,0,0,0,0,0,0,0,0,0,0,0],"split_type":[0,0,0,0,0,0,0,0,0,0,0,0,0,0,0,0,0,0,0,0,0,0,0,0,0,0,0,0,0,0,0,0,0,0,0,0,0,0,0,0,0,0,0,0,0,0,0,0,0,0,0,0,0,0,0,0,0,0,0,0,0,0,0,0,0,0,0,0,0,0,0,0,0,0,0,0,0,0,0,0,0,0,0],"sum_hessian":[3.417E3,3.185E3,2.32E2,3.034E3,1.51E2,1.97E2,3.5E1,1.307E3,1.727E3,1.05E2,4.6E1,1.62E2,3.5E1,2.6E1,9E0,1.153E3,1.54E2,1.414E3,3.13E2,2.3E1,8.2E1,3.3E1,1.3E1,9.4E1,6.8E1,1.1E1,2.4E1,2.3E1,3E0,5E0,4E0,7.26E2,4.27E2,1.26E2,2.8E1,4.9E1,1.365E3,1.7E1,2.96E2,1.8E1,5E0,5E0,2.8E1,8.5E1,9E0,4.3E1,2.5E1,1.9E1,5E0,1.1E1,1.2E1,6.32E2,9.4E1,1.67E2,2.6E2,3.6E1,9E1,3E0,2.5E1,1.3E1,3.6E1,8.01E2,5.64E2,5E0,1.2E1,2.04E2,9.2E1,1.4E1,4E0,1.9E1,9E0,7E1,1.5E1,3E0,6E0,7E0,3.6E1,4E0,2.1E1,1.5E1,4E0,4E0,8E0],"tree_param":{"num_deleted":"0","num_feature":"23","num_nodes":"83","size_leaf_vector":"1"}},{"base_weights":[2.1220397E-3,-3.5545158E-3,8.322074E-2,-1.510256E-2,4.631149E-3,3.5570495E-2,1.7804056E-1,-1.1039633E-2,-7.4804615E-4,-3.339581E-3,1.5283043E-2,2.0000002E-1,2.482272E-2,1.15500025E-1,2.9600003E-1,-1.3065453E-2,7.1808747E-3,-6.756049E-3,4.1118443E-2,2.5370216E-3,3.3900954E-2,-6.249994E-4,1.44375E-2,-7.384608E-4,6.623379E-2,8.191492E-2,1.44375E-2,1.1000002E-1,5.227273E-1,-1.6417354E-2,3.956858E-3,-1.185895E-2,9.411767E-2,-1.0131255E-2,1.946905E-2,1.6406253E-1,8.196745E-3,-1.8633517E-2,1.3418554E-2,2.6105465E-2,1.0916669E-1,4.479169E-2,9.375E-3,1.2962986E-2,1.6666669E-1,1.14E-2,-6.8181753E-4,2.19375E-2,3.5312504E-1,3.5454615E-4,-5.636567E-4,-4.2968677E-4,1.3125006E-3,-7.3404185E-4,2.1093819E-4,6.8437504E-3,-6.749993E-4,-4.3544703E-4,1.2318912E-4,-1.1718679E-4,4.291667E-3,9.375E-3,2.0454552E-3,-7.343743E-4,3.5892862E-3,-7.4479094E-4,9.58334E-4,6.338919E-4,-3.399993E-4,1.4117653E-3,1.0035282E-4,6.796876E-3,-6.9999933E-4,-7.1052567E-4,2.0416672E-3,6.9375006E-3,-7.187493E-4,7.3000006E-3,-6.428565E-4,5.4000006E-3,1.44375E-2],"categories":[],"categories_nodes":[],"categories_segments":[],"categories_sizes":[],"default_left":[0,0,0,0,0,0,0,0,0,0,0,0,0,0,0,0,0,0,0,0,0,0,0,0,0,0,0,0,0,0,0,0,0,0,0,0,0,0,0,0,0,0,0,0,0,0,0,0,0,0,0,0,0,0,0,0,0,0,0,0,0,0,0,0,0,0,0,0,0,0,0,0,0,0,0,0,0,0,0,0,0],"id":1,"left_children":[1,3,5,7,9,11,13,15,-1,17,19,21,23,25,27,29,31,33,35,37,39,-1,-1,-1,41,43,-1,45,47,49,51,53,55,57,59,61,63,65,67,69,71,73,-1,75,77,-1,-1,-1,79,-1,-1,-1,-1,-1,-1,-1,-1,-1,-1,-1,-1,-1,-1,-1,-1,-1,-1,-1,-1,-1,-1,-1,-1,-1,-1,-1,-1,-1,-1,-1,-1],"loss_changes":[1.5623016E0,2.9991412E-1,9.9670494E-1,5.229622E-2,1.5771659E-1,2.5835595E-1,5.117285E-1,3.453222E-2,0E0,1.6173626E-1,1.885709E-1,5.6901044E-1,2.902974E-1,5.7476604E-1,9.967818E-1,4.7992945E-2,1.567107E-1,8.7650165E-2,3.0626735E-1,1.0921405E-1,1.8666494E-1,0E0,0E0,0E0,3.925984E-1,2.72498E-1,0E0,5.461818E-1,1.308024E-1,4.7222495E-2,1.017365E-1,1.875078E-2,2.7080238E-1,5.4732896E-2,3.2700104E-1,2.0640975E-1,2.2506645E-1,5.122177E-2,5.998053E-2,1.400532E-1,4.719349E-1,1.1630894E-1,0E0,2.2314526E-1,3.080476E-1,0E0,0E0,0E0,9.082806E-2,0E0,0E0,0E0,0E0,0E0,0E0,0E0,0E0,0E0,0E0,0E0,0E0,0E0,0E0,0E0,0E0,0E0,0E0,0E0,0E0,0E0,0E0,0E0,0E0,0E0,0E0,0E0,0E0,0E0,0E0,0E0,0E0],"parents":[2147483647,0,0,1,1,2,2,3,3,4,4,5,5,6,6,7,7,9,9,10,10,11,11,12,12,13,13,14,14,15,15,16,16,17,17,18,18,19,19,20,20,24,24,25,25,27,27,28,28,29,29,30,30,31,31,32,32,33,33,34,34,35,35,36,36,37,37,38,38,39,39,40,40,41,41,43,43,44,44,48,48],"right_children":[2,4,6,8,10,12,14,16,-1,18,20,22,24,26,28,30,32,34,36,38,40,-1,-1,-1,42,44,-1,46,48,50,52,54,56,58,60,62,64,66,68,70,72,74,-1,76,78,-1,-1,-1,80,-1,-1,-1,-1,-1,-1,-1,-1,-1,-1,-1,-1,-1,-1,-1,-1,-1,-1,-1,-1,-1,-1,-1,-1,-1,-1,-1,-1,-1,-1,-1,-1],"split_conditions":[1.1E1,1E0,8.67E-1,1E0,1.025E0,1E-3,2.6E1,5E0,-5.946839E0,1E0,3E0,1E0,3E-2,3.918E0,1.197E0,1E0,4E-1,1E0,2E0,1E0,1E0,-3.9331548E0,1.2792846E0,-5.183947E0,4.1E1,1.6E1,2.3670428E0,4.1E1,3.4E1,1.7E-2,6.7E-1,1E0,5.94E-1,1E0,6E0,4.9E-2,1.84E-1,3.333E0,1E0,5E0,2.045E0,1E0,3.4235768E0,9.9E-1,2.148E0,1.3521212E0,-1.6791687E0,3.2628267E0,4E1,3.6017992E0,-2.8721838E0,-3.6462045E0,1.9968024E0,-5.4251614E0,9.7430784E-1,5.5315244E-1,-7.7506347E0,-1.5958873E0,1.8989532E0,7.211997E-2,3.4930573E0,1.3067733E0,2.7913723E0,-8.1243634E-1,1.1469525E0,-3.6393785E0,2.5122519E0,1.3570951E0,-1.9880604E-2,2.7320445E0,2.2894712E-1,4.130702E0,-4.611676E-1,-1.1935455E-1,3.5561585E0,1.391835E0,-2.569043E-1,2.3110538E0,-5.642001E-1,2.1659765E0,3.6786666E0],"split_indices":[2,7,1,20,1,1,2,2,0,15,2,20,1,1,1,4,1,14,2,13,9,0,0,0,2,2,0,2,2,1,1,19,1,19,2,1,1,1,19,2,1,7,0,1,1,0,0,0,2,0,0,0,0,0,0,0,0,0,0,0,0,0,0,0,0,0,0,0,0,0,0,0,0,0,0,0,0,0,0,0,0],"split_type":[0,0,0,0,0,0,0,0,0,0,0,0,0,0,0,0,0,0,0,0,0,0,0,0,0,0,0,0,0,0,0,0,0,0,0,0,0,0,0,0,0,0,0,0,0,0,0,0,0,0,0,0,0,0,0,0,0,0,0,0,0,0,0,0,0,0,0,0,0,0,0,0,0,0,0,0,0,0,0,0,0],"sum_hessian":[3.392E3,3.171E3,2.21E2,1.315E3,1.856E3,1.48E2,7.3E1,9.32E2,3.83E2,1.062E3,7.94E2,8E0,1.4E2,4.9E1,2.4E1,8.39E2,9.3E1,9.87E2,7.5E1,4.72E2,3.22E2,5E0,3E0,6.4E1,7.6E1,4.6E1,3E0,1.4E1,1E1,7.01E2,1.38E2,7.7E1,1.6E1,8.75E2,1.12E2,1.5E1,6E1,1.6E2,3.12E2,2.93E2,2.9E1,7.1E1,5E0,2.6E1,2E1,4E0,1E1,3E0,7E0,5.4E1,6.47E2,9.5E1,4.3E1,4.6E1,3.1E1,7E0,9E0,6.69E2,2.06E2,9.5E1,1.7E1,5E0,1E1,4.7E1,1.3E1,1.43E2,1.7E1,2.38E2,7.4E1,1.52E2,1.41E2,1.5E1,1.4E1,1.8E1,5.3E1,3E0,2.3E1,1.4E1,6E0,4E0,3E0],"tree_param":{"num_deleted":"0","num_feature":"23","num_nodes":"81","size_leaf_vector":"1"}},{"base_weights":[-1.0422588E-3,-5.663791E-3,6.321588E-2,-9.56663E-3,1.883643E-2,2.0915056E-2,1.486667E-1,-7.660585E-3,-2.2136848E-2,-6.076151E-4,5.6802746E-2,4.379586E-3,1.529412E-1,1.69403E-1,-6.66666E-4,-8.631718E-3,1.3333357E-2,-7.477999E-4,3.194447E-2,-3.7102236E-3,4.3750005E-3,8.141595E-2,-7.285707E-4,4.2083357E-2,-7.4038387E-4,5.3846177E-2,1.14E-2,1.0319151E-1,3.0952382E-1,3.6904998E-3,-9.887945E-3,-3.4574233E-3,1.4375003E-1,5.4000006E-3,-6.964279E-4,-1.1555532E-2,2.627121E-2,9.887643E-2,1.6000023E-2,-7.199993E-4,8.680558E-2,-6.66666E-4,5.4000006E-3,1.6328128E-1,-7.0312433E-4,3.652778E-1,-5.6249945E-4,-1.0080574E-4,1.6800007E-3,-2.498605E-4,-6.2845775E-4,-7.3790253E-4,1.0909098E-3,-6.249994E-4,7.928572E-3,-7.443175E-4,2.1542623E-4,5.3250007E-3,-1.349993E-4,3.2349406E-3,-6.428565E-4,-7.1052567E-4,3.6428578E-3,6.0000005E-3,1.4196435E-3,7.3000006E-3,2.6250007E-3,6.8125003E-3,1.65E-2],"categories":[],"categories_nodes":[],"categories_segments":[],"categories_sizes":[],"default_left":[0,0,0,0,0,0,0,0,0,0,0,0,0,0,0,0,0,0,0,0,0,0,0,0,0,0,0,0,0,0,0,0,0,0,0,0,0,0,0,0,0,0,0,0,0,0,0,0,0,0,0,0,0,0,0,0,0,0,0,0,0,0,0,0,0,0,0,0,0],"id":2,"left_children":[1,3,5,7,9,11,13,15,17,19,21,23,25,27,-1,29,31,-1,33,35,-1,37,-1,39,-1,41,-1,43,45,47,49,51,53,-1,-1,55,57,59,61,-1,63,-1,-1,65,-1,67,-1,-1,-1,-1,-1,-1,-1,-1,-1,-1,-1,-1,-1,-1,-1,-1,-1,-1,-1,-1,-1,-1,-1],"loss_changes":[1.0047141E0,3.019583E-1,8.174139E-1,6.5071896E-2,3.2042143E-1,3.3334666E-1,2.6953506E-1,4.8352882E-2,5.4810196E-2,1.3139358E-1,2.9536673E-1,1.511407E-1,3.6204526E-1,5.896597E-1,0E0,3.5051137E-2,2.3042576E-1,0E0,1.5117657E-1,6.686903E-2,0E0,1.2748581E-1,0E0,1.7940694E-1,0E0,1.2875213E-1,0E0,3.614549E-1,3.912027E-1,7.7640004E-2,3.52325E-2,8.002278E-2,2.4356396E-1,0E0,0E0,5.6057375E-2,2.7535468E-1,9.8192215E-2,1.0747218E-1,0E0,1.5143353E-1,0E0,0E0,1.7283463E-1,0E0,3.346007E-1,0E0,0E0,0E0,0E0,0E0,0E0,0E0,0E0,0E0,0E0,0E0,0E0,0E0,0E0,0E0,0E0,0E0,0E0,0E0,0E0,0E0,0E0,0E0],"parents":[2147483647,0,0,1,1,2,2,3,3,4,4,5,5,6,6,7,7,8,8,9,9,10,10,11,11,12,12,13,13,15,15,16,16,18,18,19,19,21,21,23,23,25,25,27,27,28,28,29,29,30,30,31,31,32,32,35,35,36,36,37,37,38,38,40,40,43,43,45,45],"right_children":[2,4,6,8,10,12,14,16,18,20,22,24,26,28,-1,30,32,-1,34,36,-1,38,-1,40,-1,42,-1,44,46,48,50,52,54,-1,-1,56,58,60,62,-1,64,-1,-1,66,-1,68,-1,-1,-1,-1,-1,-1,-1,-1,-1,-1,-1,-1,-1,-1,-1,-1,-1,-1,-1,-1,-1,-1,-1],"split_conditions":[1.1E1,1.701E1,6.63E0,1E0,3E0,1E0,5E1,9E0,1E0,1E0,7E0,1.8E1,1E0,2.5E1,-5.326767E-1,2.95E-1,1E0,-4.490546E0,1E0,1E0,4.2806396E-1,1E0,-9.391635E-1,1E0,-2.6037357E0,5E-2,1.2409058E0,1E0,2.53E1,6E0,1E0,5.52E0,1E0,3.5523267E0,-9.6436E0,2.561E1,1.81008E1,1E0,6E0,-3.8151598E0,3.7E-1,-6.681406E0,1.355072E-2,1.3E1,-2.0300949E0,1.41E1,-2.0089636E0,3.575632E-1,4.1334486E0,-1.2256029E0,-3.386801E0,-2.1339514E0,3.1391437E0,-7.705099E0,1.6930014E0,-1.1183459E0,1.1231154E0,1.6524627E0,2.6873674E0,3.7584074E0,-2.5222979E0,-3.441558E0,3.3882658E0,3.9063408E0,9.140048E-1,2.2960317E0,2.2417219E0,1.2360791E0,2.100997E0],"split_indices":[2,0,0,6,2,10,2,2,17,4,2,2,20,2,0,0,9,0,11,21,0,21,0,7,0,0,0,19,0,2,5,0,13,0,0,0,0,9,2,0,0,0,0,2,0,0,0,0,0,0,0,0,0,0,0,0,0,0,0,0,0,0,0,0,0,0,0,0,0],"split_type":[0,0,0,0,0,0,0,0,0,0,0,0,0,0,0,0,0,0,0,0,0,0,0,0,0,0,0,0,0,0,0,0,0,0,0,0,0,0,0,0,0,0,0,0,0,0,0,0,0,0,0,0,0,0,0,0,0,0,0,0,0,0,0,0,0,0,0,0,0],"sum_hessian":[3.381E3,3.155E3,2.26E2,2.722E3,4.33E2,1.52E2,7.4E1,2.365E3,3.57E2,2.87E2,1.46E2,1.36E2,1.6E1,6.6E1,8E0,2.261E3,1.04E2,3.4E2,1.7E1,2.82E2,5E0,1.12E2,3.4E1,5.9E1,7.7E1,1.2E1,4E0,4.6E1,2E1,2.09E2,2.052E3,9.3E1,1.1E1,4E0,1.3E1,2.24E2,5.8E1,8.8E1,2.4E1,2.4E1,3.5E1,8E0,4E0,3.1E1,1.5E1,1.7E1,3E0,1.85E2,2.4E1,1.8E3,2.52E2,6.1E1,3.2E1,5E0,6E0,1.31E2,9.3E1,9E0,4.9E1,8.2E1,6E0,1.8E1,6E0,8E0,2.7E1,1.4E1,1.7E1,1.1E1,6E0],"tree_param":{"num_deleted":"0","num_feature":"23","num_nodes":"69","size_leaf_vector":"1"}},{"base_weights":[-3.736573E-4,-1.0895799E-2,1.4288243E-2,-1.4451649E-2,4.4786334E-3,1.2579755E-2,1.6406253E-1,-1.6379857E-2,1.37019465E-2,-1.0147578E-2,4.25481E-2,-3.033602E-3,2.7232166E-2,-6.8181753E-4,1.4375E-2,-2.2274539E-2,-1.0663175E-2,7.583336E-2,-1.133331E-2,6.445336E-3,-7.4479094E-4,1.0174442E-2,1.8684213E-1,-9.882723E-3,4.346593E-2,3.1111112E-1,2.3645857E-2,-2.356641E-2,1.0344851E-2,-1.6090402E-2,4.2475965E-3,1.6000023E-2,9.375E-3,-7.384608E-4,6.818184E-2,-1.3978471E-2,5.9027802E-2,5.4000006E-3,-3.048545E-4,4.3333355E-2,1.74E-2,-1.388374E-2,2.901788E-2,1.5909094E-1,2.6602587E-2,1.4375E-2,-5.6249945E-4,3.941834E-2,3.4700553E-3,-7.4876164E-4,-4.7045382E-4,6.9375006E-3,-7.211531E-4,6.7568275E-5,-6.1618874E-4,5.3250007E-3,-1.3705512E-4,-6.964279E-4,1.8125005E-3,-6.5624935E-4,6.9375006E-3,-7.4013084E-4,9.58334E-4,3.8888957E-4,5.3250007E-3,-7.361104E-4,1.3448283E-3,5.4000006E-3,-6.8181753E-4,-6.688647E-4,1.6920801E-4,-7.2321354E-4,2.3793108E-3,1.14E-2,-6.428565E-4,-7.3255744E-4,2.6041674E-3,7.580652E-4,2.113096E-3,-4.7045382E-4,4.0745264E-4],"categories":[],"categories_nodes":[],"categories_segments":[],"categories_sizes":[],"default_left":[0,0,0,0,0,0,0,0,0,0,0,0,0,0,0,0,0,0,0,0,0,0,0,0,0,0,0,0,0,0,0,0,0,0,0,0,0,0,0,0,0,0,0,0,0,0,0,0,0,0,0,0,0,0,0,0,0,0,0,0,0,0,0,0,0,0,0,0,0,0,0,0,0,0,0,0,0,0,0,0,0],"id":3,"left_children":[1,3,5,7,9,11,13,15,17,19,21,23,25,-1,-1,27,29,31,33,35,-1,37,39,41,43,45,47,49,51,53,55,57,-1,-1,59,61,63,-1,65,67,-1,69,71,73,75,-1,-1,77,79,-1,-1,-1,-1,-1,-1,-1,-1,-1,-1,-1,-1,-1,-1,-1,-1,-1,-1,-1,-1,-1,-1,-1,-1,-1,-1,-1,-1,-1,-1,-1,-1],"loss_changes":[5.265406E-1,1.0869236E-1,3.628318E-1,8.784205E-2,2.0867947E-1,3.228818E-1,9.5262194E-1,5.068019E-2,1.6262892E-1,6.616582E-2,4.8391682E-1,2.1827054E-1,7.3380417E-1,0E0,0E0,3.1553864E-2,6.2299013E-2,4.198166E-1,8.088764E-2,1.3828868E-1,0E0,1.5310499E-1,1.0468771E0,9.332113E-2,1.6735233E-1,5.0789934E-1,2.2898343E-1,7.457733E-3,2.2582683E-1,4.6074644E-2,3.1545755E-1,4.4946726E-2,0E0,0E0,1.6659802E-1,4.6454236E-2,1.9416551E-1,0E0,9.077982E-2,1.3951515E-1,0E0,8.9139014E-2,1.515321E-1,4.4680518E-1,2.4170657E-1,0E0,0E0,1.7553252E-1,6.160249E-2,0E0,0E0,0E0,0E0,0E0,0E0,0E0,0E0,0E0,0E0,0E0,0E0,0E0,0E0,0E0,0E0,0E0,0E0,0E0,0E0,0E0,0E0,0E0,0E0,0E0,0E0,0E0,0E0,0E0,0E0,0E0,0E0],"parents":[2147483647,0,0,1,1,2,2,3,3,4,4,5,5,6,6,7,7,8,8,9,9,10,10,11,11,12,12,15,15,16,16,17,17,18,18,19,19,21,21,22,22,23,23,24,24,25,25,26,26,27,27,28,28,29,29,30,30,31,31,34,34,35,35,36,36,38,38,39,39,41,41,42,42,43,43,44,44,47,47,48,48],"right_children":[2,4,6,8,10,12,14,16,18,20,22,24,26,-1,-1,28,30,32,34,36,-1,38,40,42,44,46,48,50,52,54,56,58,-1,-1,60,62,64,-1,66,68,-1,70,72,74,76,-1,-1,78,80,-1,-1,-1,-1,-1,-1,-1,-1,-1,-1,-1,-1,-1,-1,-1,-1,-1,-1,-1,-1,-1,-1,-1,-1,-1,-1,-1,-1,-1,-1,-1,-1],"split_conditions":[5.75E0,1E0,3.85E1,2.9004438E1,1E0,7.97045E0,1E0,1E0,6.4E-2,2.95E-1,1.84E-1,2.4E1,5.85E0,-3.3383112E0,2.2033968E0,9.72E-1,3.8E0,5E-1,1E0,2E-1,-5.989001E0,1E-2,1E0,1E0,9.35E-1,2.9004438E1,1.626E0,1E0,9.8E-1,4E-2,2.53E-1,1E0,3.4457564E0,-2.2321267E0,3.4E0,1E0,1E0,1.1719683E0,4.7E-2,8E-1,3.3989813E0,1.653E0,-6.0080957E0,-5.179364E0,2.628E0,3.0449698E0,-9.774448E0,1.5112331E1,2.306E0,-4.3015614E0,-4.799932E0,2.0775805E0,-9.536664E-1,6.108747E-1,-1.6412163E0,2.895218E0,-2.7791968E-2,-3.3270848E0,4.0389433E0,-4.6841574E0,1.000904E0,-6.3356295E0,1.2036786E0,1.0797949E0,1.9848009E0,-2.9951984E-1,3.7891507E0,1.1493127E0,-3.1024969E0,-1.9949625E0,2.8277013E-1,-9.392852E-2,2.5673482E0,1.3345633E0,-2.7517035E0,-1.9211844E0,3.7247267E0,1.635282E0,2.757967E0,-2.1275662E-1,6.0706323E-1],"split_indices":[0,15,0,22,7,22,20,7,1,0,1,0,0,0,0,1,0,0,14,0,0,0,21,9,1,22,1,4,1,1,1,21,0,0,0,10,5,0,1,0,0,1,22,22,1,0,0,22,1,0,0,0,0,0,0,0,0,0,0,0,0,0,0,0,0,0,0,0,0,0,0,0,0,0,0,0,0,0,0,0,0],"split_type":[0,0,0,0,0,0,0,0,0,0,0,0,0,0,0,0,0,0,0,0,0,0,0,0,0,0,0,0,0,0,0,0,0,0,0,0,0,0,0,0,0,0,0,0,0,0,0,0,0,0,0,0,0,0,0,0,0,0,0,0,0,0,0,0,0,0,0,0,0,0,0,0,0,0,0,0,0,0,0,0,0],"sum_hessian":[3.411E3,1.986E3,1.425E3,1.613E3,3.73E2,1.41E3,1.5E1,1.51E3,1.03E2,2.7E2,1.03E2,6.83E2,7.27E2,1E1,5E0,7.42E2,7.68E2,2.9E1,7.4E1,1.27E2,1.43E2,8.5E1,1.8E1,5.96E2,8.7E1,8E0,7.19E2,7.14E2,2.8E1,5.63E2,2.05E2,2.4E1,5E0,6.4E1,1E1,9.2E1,3.5E1,4E0,8.1E1,1.4E1,4E0,5.41E2,5.5E1,1E1,7.7E1,5E0,3E0,4.03E2,3.16E2,6.05E2,1.09E2,3E0,2.5E1,1.1E2,4.53E2,9E0,1.96E2,1.3E1,1.1E1,7E0,3E0,7.5E1,1.7E1,2.6E1,9E0,5.3E1,2.8E1,4E0,1E1,3.78E2,1.63E2,2.7E1,2.8E1,4E0,6E0,4.2E1,3.5E1,2.78E2,1.25E2,1.09E2,2.07E2],"tree_param":{"num_deleted":"0","num_feature":"23","num_nodes":"81","size_leaf_vector":"1"}},{"base_weights":[-2.4384647E-3,-7.393125E-3,6.523608E-2,-1.1472E-2,1.350964E-2,1.5986418E-2,1.4770117E-1,-1.880999E-2,-2.591187E-3,1.3783786E-1,3.9772964E-3,1.5909094E-1,4.379586E-3,9.208336E-2,2.6160717E-1,-2.0500349E-2,2.0835697E-4,2.1217128E-2,-6.0189334E-3,6.30435E-2,2.4333335E-1,-3.2520087E-3,2.6939679E-2,-6.428565E-4,1.14E-2,-7.4038387E-4,4.2083357E-2,6.3157916E-2,1.44375E-2,1.4305557E-1,4.3181822E-1,-2.2462225E-2,-4.560787E-3,-7.692284E-3,6.9375006E-3,1.0892881E-2,1.3076925E-1,-1.4499228E-2,8.656355E-3,2.2812502E-1,-7.0312433E-4,-5.6249945E-4,3.104167E-1,-9.633004E-3,4.534886E-2,7.5625025E-2,1.2987248E-3,1.2625003E-1,2.3260348E-8,1.6666669E-1,2.7027258E-3,3.1111112E-1,-6.749993E-4,1.74E-2,2.6428574E-1,-7.2168437E-4,-1.8224228E-4,-4.8260795E-4,1.0367654E-3,-7.4038387E-4,7.6875073E-4,1.2605751E-5,2.0113643E-3,7.928572E-3,-6.428565E-4,-5.918982E-4,5.078132E-4,5.8468453E-5,4.921876E-3,-5.6249945E-4,1.14E-2,1.2214286E-2,4.3750005E-3,-6.2293315E-4,6.5407046E-4,5.3250007E-3,1.5441245E-4,1.0909098E-3,6.8437504E-3,-7.3770416E-4,2.82353E-3,1.1718756E-3,1.14E-2,5.4000006E-3,-7.29729E-4,1.2214286E-2,1.3000006E-3,-7.265618E-4,4.3750005E-3,4.3750005E-3,1.44375E-2,1.44375E-2,-5.6249945E-4],"categories":[],"categories_nodes":[],"categories_segments":[],"categories_sizes":[],"default_left":[0,0,0,0,0,0,0,0,0,0,0,0,0,0,0,0,0,0,0,0,0,0,0,0,0,0,0,0,0,0,0,0,0,0,0,0,0,0,0,0,0,0,0,0,0,0,0,0,0,0,0,0,0,0,0,0,0,0,0,0,0,0,0,0,0,0,0,0,0,0,0,0,0,0,0,0,0,0,0,0,0,0,0,0,0,0,0,0,0,0,0,0,0],"id":4,"left_children":[1,3,5,7,9,11,13,15,17,19,21,23,25,27,29,31,33,35,37,39,41,43,45,-1,-1,-1,47,49,-1,51,53,55,57,59,-1,61,63,65,67,69,-1,-1,71,73,75,77,79,81,83,85,87,89,-1,-1,91,-1,-1,-1,-1,-1,-1,-1,-1,-1,-1,-1,-1,-1,-1,-1,-1,-1,-1,-1,-1,-1,-1,-1,-1,-1,-1,-1,-1,-1,-1,-1,-1,-1,-1,-1,-1,-1,-1],"loss_changes":[1.1452113E0,2.7145153E-1,9.4393986E-1,1.7349184E-1,6.1572415E-1,2.434688E-1,5.2707314E-1,4.6875834E-2,9.854801E-2,2.7660674E-1,8.043261E-2,4.4680518E-1,1.511407E-1,6.450143E-1,5.032319E-1,4.176998E-2,2.2082411E-1,1.7049414E-1,1.3142107E-1,3.337041E-1,2.6954162E-1,1.1487182E-1,1.4470908E-1,0E0,0E0,0E0,2.1252084E-1,3.5623515E-1,0E0,5.0780547E-1,1.1979222E-1,3.0989349E-2,6.728894E-2,6.685056E-2,0E0,8.2301445E-2,2.6983514E-1,1.1030561E-1,4.0307832E-1,3.0707812E-1,0E0,0E0,1.3165927E-1,1.1487675E-1,2.2753301E-1,2.3119883E-1,1.873436E-1,4.2763275E-1,1.8389188E-1,6.051904E-1,1.4610341E-1,1.828993E-1,0E0,0E0,4.3888393E-1,0E0,0E0,0E0,0E0,0E0,0E0,0E0,0E0,0E0,0E0,0E0,0E0,0E0,0E0,0E0,0E0,0E0,0E0,0E0,0E0,0E0,0E0,0E0,0E0,0E0,0E0,0E0,0E0,0E0,0E0,0E0,0E0,0E0,0E0,0E0,0E0,0E0,0E0],"parents":[2147483647,0,0,1,1,2,2,3,3,4,4,5,5,6,6,7,7,8,8,9,9,10,10,11,11,12,12,13,13,14,14,15,15,16,16,17,17,18,18,19,19,20,20,21,21,22,22,26,26,27,27,29,29,30,30,31,31,32,32,33,33,35,35,36,36,37,37,38,38,39,39,42,42,43,43,44,44,45,45,46,46,47,47,48,48,49,49,50,50,51,51,54,54],"right_children":[2,4,6,8,10,12,14,16,18,20,22,24,26,28,30,32,34,36,38,40,42,44,46,-1,-1,-1,48,50,-1,52,54,56,58,60,-1,62,64,66,68,70,-1,-1,72,74,76,78,80,82,84,86,88,90,-1,-1,92,-1,-1,-1,-1,-1,-1,-1,-1,-1,-1,-1,-1,-1,-1,-1,-1,-1,-1,-1,-1,-1,-1,-1,-1,-1,-1,-1,-1,-1,-1,-1,-1,-1,-1,-1,-1,-1,-1],"split_conditions":[1.1E1,1.565E1,6.8E-1,7.97045E0,6.77E-1,1E-3,2.5E1,1E0,4E-2,1.7628291E0,1E0,7.9954576E0,3.5E-1,3.918E0,1.197E0,1E0,9E0,6.4E-1,5.75E0,5.38E-1,5.59E-1,3.025E1,2E0,-3.5106363E0,1.1675683E0,-4.5807786E0,6.4E-1,4.059209E-1,2.2089396E0,4.1E1,1E0,1E0,1E0,1E0,2.674475E-1,3.6E-2,3E0,7.39E-1,9E0,4.17E-1,-2.8923092E0,-3.7562895E0,1.5112331E1,2.955E0,1.092E0,1E0,2.60004E1,2.1E1,-1.5181569E1,1.103E0,1E0,3.6E1,-1.7149347E0,3.5015478E0,1.711E0,-2.5658484E0,-1.1083351E0,-2.0321727E0,1.0474008E0,-4.758261E0,3.241951E0,1.3235762E0,1.299255E0,3.3423834E0,-9.272759E0,-2.2135932E0,7.8593814E-1,2.5252295E-1,2.9536202E0,-1.0913622E1,3.3464665E0,3.0568624E0,3.324829E-1,-1.6819881E0,2.1679707E0,3.6066778E0,2.1372948E0,1.3360482E0,4.0305285E0,-5.6560075E-1,1.5087698E0,2.4654858E0,3.2970116E0,1.2418845E0,-5.657547E-1,2.4903276E0,8.874188E-1,-1.1614856E0,1.1984601E0,1.149938E0,1.1657895E0,3.1193764E0,-3.3548903E0],"split_indices":[2,0,1,22,1,1,2,3,1,22,8,22,0,1,1,15,2,0,0,1,1,0,2,0,0,0,0,22,0,2,10,4,19,21,0,1,2,1,2,1,0,0,22,1,1,21,0,2,22,1,8,2,0,0,1,0,0,0,0,0,0,0,0,0,0,0,0,0,0,0,0,0,0,0,0,0,0,0,0,0,0,0,0,0,0,0,0,0,0,0,0,0,0],"split_type":[0,0,0,0,0,0,0,0,0,0,0,0,0,0,0,0,0,0,0,0,0,0,0,0,0,0,0,0,0,0,0,0,0,0,0,0,0,0,0,0,0,0,0,0,0,0,0,0,0,0,0,0,0,0,0,0,0,0,0,0,0,0,0,0,0,0,0,0,0,0,0,0,0,0,0,0,0,0,0,0,0,0,0,0,0,0,0,0,0,0,0,0,0],"sum_hessian":[3.413E3,3.181E3,2.32E2,2.662E3,5.19E2,1.46E2,8.6E1,1.457E3,1.205E3,3.6E1,4.83E2,1E1,1.36E2,5.9E1,2.7E1,1.338E3,1.19E2,1.51E2,1.054E3,2.2E1,1.4E1,3.68E2,1.15E2,6E0,4E0,7.7E1,5.9E1,5.6E1,3E0,1.7E1,1E1,1.191E3,1.47E2,1.16E2,3E0,1.39E2,1.2E1,6.68E2,3.86E2,7E0,1.5E1,3E0,1.1E1,3.26E2,4.2E1,3.9E1,7.6E1,1.9E1,4E1,2E1,3.6E1,8E0,9E0,4E0,6E0,1.085E3,1.06E2,1.14E2,3.3E1,7.7E1,3.9E1,1.18E2,2.1E1,6E0,6E0,5.73E2,9.5E1,3.71E2,1.5E1,3E0,4E0,6E0,5E0,2.41E2,8.5E1,9E0,3.3E1,3.2E1,7E0,6E1,1.6E1,1.5E1,4E0,4E0,3.6E1,6E0,1.4E1,3.1E1,5E0,5E0,3E0,3E0,3E0],"tree_param":{"num_deleted":"0","num_feature":"23","num_nodes":"93","size_leaf_vector":"1"}},{"base_weights":[-8.5778366E-4,-4.327619E-3,1.1386141E-1,-6.344793E-3,3.1960253E-2,1.1818205E-2,2.3085108E-1,-7.920199E-3,3.4033637E-2,2.3053916E-2,1.7750002E-1,2.2812502E-1,-7.343743E-4,4.5000002E-1,7.9310365E-2,-1.571382E-2,9.0975093E-4,2.15278E-2,1.4375003E-1,-1.095888E-2,4.894739E-2,1.14E-2,-6.249994E-4,1.44375E-2,-5.999994E-4,2.0000002E-1,6.136364E-1,1.7708356E-2,9.375E-3,-1.71712E-2,1.1445806E-2,-6.9627613E-3,1.1892821E-2,4.383564E-2,-7.291659E-4,1.44375E-2,-6.66666E-4,6.818184E-2,-7.380945E-4,1.7625003E-1,1.4802655E-2,-5.999994E-4,1.14E-2,2.4375E-2,9.375E-3,-7.1428507E-4,6.9375006E-3,-3.391297E-4,-7.079911E-4,-7.3255744E-4,1.4634153E-3,7.090916E-4,-4.3497686E-4,9.333333E-3,2.19016E-4,-7.159084E-4,2.149039E-3,-6.5624935E-4,6.9375006E-3,1.05937505E-2,1.6153853E-3,-2.3749929E-4,2.82353E-3],"categories":[],"categories_nodes":[],"categories_segments":[],"categories_sizes":[],"default_left":[0,0,0,0,0,0,0,0,0,0,0,0,0,0,0,0,0,0,0,0,0,0,0,0,0,0,0,0,0,0,0,0,0,0,0,0,0,0,0,0,0,0,0,0,0,0,0,0,0,0,0,0,0,0,0,0,0,0,0,0,0,0,0],"id":5,"left_children":[1,3,5,7,9,11,13,15,17,19,21,23,-1,25,27,29,31,33,35,37,39,-1,-1,-1,-1,41,43,45,-1,47,49,51,53,55,-1,-1,-1,57,-1,59,61,-1,-1,-1,-1,-1,-1,-1,-1,-1,-1,-1,-1,-1,-1,-1,-1,-1,-1,-1,-1,-1,-1],"loss_changes":[1.3694099E0,2.4461405E-1,1.2030098E0,2.0153932E-1,2.240437E-1,4.374093E-1,1.5251799E0,2.0963173E-1,1.601847E-1,1.476149E-1,4.0954167E-1,5.120781E-1,0E0,6.5454555E-1,4.110497E-1,6.424004E-2,1.2364037E-1,1.1148925E-1,6.828819E-1,8.0504164E-2,4.1032898E-1,0E0,0E0,0E0,0E0,3.6399996E-1,4.048295E-1,2.1828498E-1,0E0,5.7663828E-2,1.1232702E-1,1.9244042E-1,8.180644E-1,1.3909338E-1,0E0,0E0,0E0,1.6659802E-1,0E0,4.1398913E-1,1.3769569E-1,0E0,0E0,0E0,0E0,0E0,0E0,0E0,0E0,0E0,0E0,0E0,0E0,0E0,0E0,0E0,0E0,0E0,0E0,0E0,0E0,0E0,0E0],"parents":[2147483647,0,0,1,1,2,2,3,3,4,4,5,5,6,6,7,7,8,8,9,9,10,10,11,11,13,13,14,14,15,15,16,16,17,17,18,18,19,19,20,20,25,25,26,26,27,27,29,29,30,30,31,31,32,32,33,33,37,37,39,39,40,40],"right_children":[2,4,6,8,10,12,14,16,18,20,22,24,-1,26,28,30,32,34,36,38,40,-1,-1,-1,-1,42,44,46,-1,48,50,52,54,56,-1,-1,-1,58,-1,60,62,-1,-1,-1,-1,-1,-1,-1,-1,-1,-1,-1,-1,-1,-1,-1,-1,-1,-1,-1,-1,-1,-1],"split_conditions":[2.2E1,2.561E1,3.1E-1,1.2E1,2.9004438E1,1E-3,7.9954576E0,7.97045E0,2.045E0,2E0,1.924E0,1E0,-4.570958E0,-5.179364E0,1.5112331E1,2.628E0,5.75E0,1.6E1,2.148E0,2.60004E1,-5.179364E0,5.50253E-1,-1.0804696E0,1.1325412E0,-5.188602E0,3.6E1,1.7628291E0,1.902E0,3.396501E0,4.42E-1,1.643E1,4E-2,5.85E0,1E0,-1.6419342E-1,8.607962E-1,-5.042679E-1,3.241E0,-2.209093E0,1E0,3.918E0,-1.6582032E-1,1.7589806E0,3.1981018E0,1.11544E0,-4.1830443E-2,1.9147091E0,-1.6883186E0,-2.6486392E0,-5.543269E0,1.4005258E0,2.9943905E0,-1.6531405E0,2.865012E0,4.1774157E-1,-3.4053166E0,3.3864877E0,-2.3767035E0,2.2264104E0,3.663444E0,1.9480681E-1,1.2350153E0,2.1426709E0],"split_indices":[2,0,0,2,22,1,22,22,1,2,1,21,0,22,22,1,0,2,1,0,22,0,0,0,0,2,22,1,0,1,0,1,0,7,0,0,0,1,0,18,1,0,0,0,0,0,0,0,0,0,0,0,0,0,0,0,0,0,0,0,0,0,0],"split_type":[0,0,0,0,0,0,0,0,0,0,0,0,0,0,0,0,0,0,0,0,0,0,0,0,0,0,0,0,0,0,0,0,0,0,0,0,0,0,0,0,0,0,0,0,0,0,0,0,0,0,0,0,0,0,0,0,0,0,0,0,0,0,0],"sum_hessian":[3.438E3,3.338E3,1E2,3.163E3,1.75E2,5.4E1,4.6E1,3.045E3,1.18E2,1.66E2,9E0,7E0,4.7E1,1.8E1,2.8E1,1.617E3,1.428E3,1.07E2,1.1E1,7.2E1,9.4E1,4E0,5E0,3E0,4E0,8E0,1E1,2.3E1,5E0,1.535E3,8.2E1,8.32E2,5.96E2,7.2E1,3.5E1,3E0,8E0,1E1,6.2E1,1.9E1,7.5E1,4E0,4E0,5E0,5E0,2E1,3E0,8.04E2,7.31E2,4.2E1,4E1,1.64E2,6.68E2,8E0,5.88E2,2.1E1,5.1E1,7E0,3E0,7E0,1.2E1,5.9E1,1.6E1],"tree_param":{"num_deleted":"0","num_feature":"23","num_nodes":"63","size_leaf_vector":"1"}},{"base_weights":[-1.1269649E-3,-3.7931318E-3,9.354841E-2,-9.326024E-3,2.3431923E-2,4.200002E-2,2.921053E-1,-1.4596711E-2,5.379334E-3,1.522059E-1,1.5047642E-2,2.2812502E-1,1.9485317E-2,4.7750002E-1,7.750002E-2,-1.5473186E-2,5.6000024E-2,-6.468149E-3,2.949793E-2,1.0483874E-1,1.44375E-2,-1.705424E-2,2.544083E-2,1.44375E-2,-5.999994E-4,-7.3333265E-4,1.0104169E-1,2.3400001E-2,4.3750005E-3,5.4000006E-3,-6.249994E-4,-2.1870146E-2,-1.23982E-2,-7.124993E-4,9.375E-3,3.31731E-2,-1.1181169E-2,5.850697E-2,-1.4322893E-2,2.2812502E-1,5.937502E-2,-7.434203E-4,3.9062522E-2,1.1266471E-2,7.1010664E-2,1.44375E-2,2.3809547E-2,-7.0142106E-4,1.3000006E-3,-5.265753E-4,-1.4088326E-4,-7.291659E-4,4.5882356E-3,6.964292E-4,-4.443031E-4,3.8315225E-3,7.7272794E-4,-7.405056E-4,9.58334E-4,1.14E-2,-5.6249945E-4,-6.9999933E-4,5.3250007E-3,4.3750005E-3,-6.8181753E-4,6.9375006E-3,2.4917015E-4,-7.2321354E-4,3.2910453E-3,6.9375006E-3,-7.0833263E-4],"categories":[],"categories_nodes":[],"categories_segments":[],"categories_sizes":[],"default_left":[0,0,0,0,0,0,0,0,0,0,0,0,0,0,0,0,0,0,0,0,0,0,0,0,0,0,0,0,0,0,0,0,0,0,0,0,0,0,0,0,0,0,0,0,0,0,0,0,0,0,0,0,0,0,0,0,0,0,0,0,0,0,0,0,0,0,0,0,0,0,0],"id":6,"left_children":[1,3,5,7,9,11,13,15,17,19,21,23,25,27,29,31,33,35,37,39,-1,41,43,-1,-1,-1,45,-1,-1,-1,-1,47,49,-1,-1,51,53,55,57,59,61,-1,63,65,67,-1,69,-1,-1,-1,-1,-1,-1,-1,-1,-1,-1,-1,-1,-1,-1,-1,-1,-1,-1,-1,-1,-1,-1,-1,-1],"loss_changes":[8.570695E-1,4.9760965E-1,9.396132E-1,2.1283616E-1,6.0016954E-1,3.098461E-1,7.1894085E-1,1.2591851E-1,2.073557E-1,4.7946656E-1,1.7559531E-1,5.120781E-1,2.4609691E-1,8.8954186E-1,1.0454165E-1,3.901097E-2,5.1881874E-1,9.135713E-2,3.0465478E-1,1.6021168E-1,0E0,5.6900166E-2,2.5563148E-1,0E0,0E0,0E0,6.932849E-1,0E0,0E0,0E0,0E0,6.473851E-2,5.3550854E-2,0E0,0E0,3.6169085E-1,5.4764844E-2,3.2310045E-1,4.6806954E-2,3.0707812E-1,2.3861977E-1,0E0,1.0887192E-1,1.9608277E-1,3.4858227E-1,0E0,2.120362E-1,0E0,0E0,0E0,0E0,0E0,0E0,0E0,0E0,0E0,0E0,0E0,0E0,0E0,0E0,0E0,0E0,0E0,0E0,0E0,0E0,0E0,0E0,0E0,0E0],"parents":[2147483647,0,0,1,1,2,2,3,3,4,4,5,5,6,6,7,7,8,8,9,9,10,10,11,11,12,12,13,13,14,14,15,15,16,16,17,17,18,18,19,19,21,21,22,22,26,26,31,31,32,32,35,35,36,36,37,37,38,38,39,39,40,40,42,42,43,43,44,44,46,46],"right_children":[2,4,6,8,10,12,14,16,18,20,22,24,26,28,30,32,34,36,38,40,-1,42,44,-1,-1,-1,46,-1,-1,-1,-1,48,50,-1,-1,52,54,56,58,60,62,-1,64,66,68,-1,70,-1,-1,-1,-1,-1,-1,-1,-1,-1,-1,-1,-1,-1,-1,-1,-1,-1,-1,-1,-1,-1,-1,-1,-1],"split_conditions":[2.5E1,1.565E1,1.003E0,8.835566E0,6.77E-1,1E-3,3.9E1,1.7E1,7.39E-1,2.206E1,1.067E0,5E1,3.9E-1,1E0,9.25E0,-6.5692906E0,9.55E-1,2E-2,1.393E0,1.615E1,3.3255322E0,3.025E1,1E0,1.098565E0,-5.5746E0,-3.1308122E0,1.05E0,1.857268E0,1.9372558E-2,3.2946057E0,-1.6969501E0,1.2E1,1E0,-2.4749303E0,2.0276651E0,2.9004438E1,2.456E-1,1E0,1.385E1,1E0,3E0,-1.4786763E-1,3E0,1.092E0,1E0,3.102159E0,-6.0080957E0,-3.8763642E0,5.544232E-1,-3.2612507E0,-1.0000153E0,-7.104245E-1,3.788236E0,3.5842648E0,-2.0411928E0,3.5277617E0,1.819891E0,-4.1035593E-1,7.2672725E-2,2.6979976E0,-1.052623E1,-3.6561337E0,2.952624E0,1.0764221E0,-4.6122627E0,3.4614267E0,1.2776264E0,-3.8034675E0,3.5904214E0,8.4375274E-1,-5.4752654E-1],"split_indices":[2,0,1,22,1,1,2,2,1,0,1,2,0,10,0,22,1,1,1,0,0,0,8,0,0,0,0,0,0,0,0,2,13,0,0,22,0,13,0,8,2,0,2,1,13,0,22,0,0,0,0,0,0,0,0,0,0,0,0,0,0,0,0,0,0,0,0,0,0,0,0],"split_type":[0,0,0,0,0,0,0,0,0,0,0,0,0,0,0,0,0,0,0,0,0,0,0,0,0,0,0,0,0,0,0,0,0,0,0,0,0,0,0,0,0,0,0,0,0,0,0,0,0,0,0,0,0,0,0,0,0,0,0,0,0,0,0,0,0,0,0,0,0,0,0],"sum_hessian":[3.393E3,3.301E3,9.2E1,2.744E3,5.57E2,7.4E1,1.8E1,2.02E3,7.24E2,3.3E1,5.24E2,7E0,6.7E1,9E0,9E0,1.996E3,2.4E1,4.86E2,2.38E2,3E1,3E0,1.28E2,3.96E2,3E0,4E0,4.4E1,2.3E1,4E0,5E0,4E0,5E0,6.46E2,1.35E3,1.9E1,5E0,5.1E1,4.35E2,1.43E2,9.5E1,7E0,2.3E1,1.13E2,1.5E1,3.03E2,9.3E1,3E0,2E1,6.32E2,1.4E1,8.08E2,5.42E2,3.5E1,1.6E1,4.1E1,3.94E2,4.5E1,9.8E1,7.8E1,1.7E1,4E0,3E0,1.4E1,9E0,5E0,1E1,3E0,3E2,2.7E1,6.6E1,3E0,1.7E1],"tree_param":{"num_deleted":"0","num_feature":"23","num_nodes":"71","size_leaf_vector":"1"}},{"base_weights":[-3.4475315E-4,-4.878983E-3,6.321588E-2,-8.764127E-3,1.4446553E-2,2.6278432E-2,1.8701926E-1,-1.30513515E-2,2.6588636E-3,1.0384618E-1,7.3737614E-3,1.7750002E-1,1.7065892E-2,1.2562503E-1,3.6153847E-1,-2.0213583E-2,-9.548588E-3,7.0833355E-2,-1.5373115E-3,6.1428595E-2,1.14E-2,-7.4347755E-4,1.7060392E-2,-6.428565E-4,1.44375E-2,-7.3986413E-4,4.9734067E-2,1.9814818E-1,-6.964279E-4,2.19375E-2,1.7750002E-1,3.9285948E-3,-2.3179373E-2,-1.8488722E-2,-6.719043E-3,2.8289497E-2,1.14E-2,-1.6381742E-2,1.4114138E-2,1.529412E-1,-7.1052567E-4,6.9375006E-3,1.4748701E-2,1.529412E-1,2.6602587E-2,3.5312504E-1,1.2625003E-1,1.44375E-2,-6.428565E-4,-7.3333265E-4,1.5865391E-3,-7.486307E-4,1.1718756E-3,4.4117717E-4,-7.471257E-4,-2.9616652E-4,4.4642927E-4,1.8181888E-4,4.3750005E-3,2.6666673E-3,-5.7288556E-4,4.080001E-3,1.262143E-4,9.375E-3,1.8125005E-3,1.1290393E-4,1.3575007E-3,-6.749993E-4,1.05937505E-2,2.7403852E-3,-1.6981062E-4,1.74E-2,-5.6249945E-4,9.333333E-3,-6.8749936E-4],"categories":[],"categories_nodes":[],"categories_segments":[],"categories_sizes":[],"default_left":[0,0,0,0,0,0,0,0,0,0,0,0,0,0,0,0,0,0,0,0,0,0,0,0,0,0,0,0,0,0,0,0,0,0,0,0,0,0,0,0,0,0,0,0,0,0,0,0,0,0,0,0,0,0,0,0,0,0,0,0,0,0,0,0,0,0,0,0,0,0,0,0,0,0,0],"id":7,"left_children":[1,3,5,7,9,11,13,15,17,19,21,23,25,27,29,31,33,35,37,39,-1,-1,41,-1,-1,-1,43,45,-1,-1,47,49,51,53,55,57,-1,59,61,63,-1,-1,65,67,69,71,73,-1,-1,-1,-1,-1,-1,-1,-1,-1,-1,-1,-1,-1,-1,-1,-1,-1,-1,-1,-1,-1,-1,-1,-1,-1,-1,-1,-1],"loss_changes":[9.82489E-1,2.390391E-1,1.033152E0,1.2981297E-1,3.362528E-1,2.4216259E-1,5.1173437E-1,4.8150808E-2,2.072251E-1,4.334945E-1,1.5460868E-1,6.1455804E-1,2.2887737E-1,4.3637156E-1,7.5473785E-1,4.5342624E-2,3.2660045E-2,5.41682E-1,1.5891728E-1,2.7623352E-1,0E0,0E0,1.8523772E-1,0E0,0E0,0E0,2.2034073E-1,2.5626683E-1,0E0,0E0,6.1455804E-1,9.8524876E-2,6.317407E-2,6.6596515E-2,6.730202E-2,9.84051E-2,0E0,1.0199613E-1,4.0153295E-1,2.3209253E-1,0E0,0E0,1.26484E-1,6.049936E-1,1.6344492E-1,6.858281E-1,5.586319E-1,0E0,0E0,0E0,0E0,0E0,0E0,0E0,0E0,0E0,0E0,0E0,0E0,0E0,0E0,0E0,0E0,0E0,0E0,0E0,0E0,0E0,0E0,0E0,0E0,0E0,0E0,0E0,0E0],"parents":[2147483647,0,0,1,1,2,2,3,3,4,4,5,5,6,6,7,7,8,8,9,9,10,10,11,11,12,12,13,13,14,14,15,15,16,16,17,17,18,18,19,19,22,22,26,26,27,27,30,30,31,31,32,32,33,33,34,34,35,35,37,37,38,38,39,39,42,42,43,43,44,44,45,45,46,46],"right_children":[2,4,6,8,10,12,14,16,18,20,22,24,26,28,30,32,34,36,38,40,-1,-1,42,-1,-1,-1,44,46,-1,-1,48,50,52,54,56,58,-1,60,62,64,-1,-1,66,68,70,72,74,-1,-1,-1,-1,-1,-1,-1,-1,-1,-1,-1,-1,-1,-1,-1,-1,-1,-1,-1,-1,-1,-1,-1,-1,-1,-1,-1,-1],"split_conditions":[1.1E1,1.565E1,1.045E0,7.9954576E0,6.77E-1,1E-3,2.6E1,-6.5692906E0,2E-2,6E0,1.067E0,1E0,3.6E-2,1E0,1E0,2.95E-1,6E-1,1.6E-2,3.8E0,2E0,3.2257662E0,-1.7264711E0,1.092E0,-4.141472E0,1.0656079E0,-4.0698285E0,5E-1,1.289E0,-4.010202E-1,3.1957672E0,3.4E1,3.5E-2,1E0,9E-3,1E0,6E0,3.674589E0,8.835566E0,4.2E0,1.615E1,-2.8146596E0,3.3575838E0,4E0,1E0,4.059209E-1,1E0,1.3E1,2.929271E0,-1.3941376E-1,-1.6761564E0,2.1531627E0,-4.365918E0,1.5525604E0,9.2915136E-1,-3.7464573E0,-9.8139393E-1,1.3958628E0,3.4672236E0,3.6450906E0,1.3286728E0,-2.0377648E0,2.9855995E0,1.2916873E-1,2.6170578E0,2.0623443E-1,1.0930008E0,1.8773953E0,-7.712261E0,3.6037774E0,2.3440247E0,4.8767114E-1,1.9668347E0,-2.5408447E-1,2.0400622E0,-5.499701E-1],"split_indices":[2,0,1,22,1,1,2,22,1,2,1,20,1,19,18,0,0,1,0,2,0,0,1,0,0,0,0,1,0,0,2,1,17,1,9,2,0,22,0,0,0,0,2,7,22,10,2,0,0,0,0,0,0,0,0,0,0,0,0,0,0,0,0,0,0,0,0,0,0,0,0,0,0,0,0],"split_type":[0,0,0,0,0,0,0,0,0,0,0,0,0,0,0,0,0,0,0,0,0,0,0,0,0,0,0,0,0,0,0,0,0,0,0,0,0,0,0,0,0,0,0,0,0,0,0,0,0,0,0,0,0,0,0,0,0,0,0,0,0,0,0,0,0,0,0,0,0,0,0,0,0,0,0],"sum_hessian":[3.407E3,3.181E3,2.26E2,2.649E3,5.32E2,1.75E2,5.1E1,1.926E3,7.23E2,3.8E1,4.94E2,9E0,1.66E2,3.9E1,1.2E1,6.31E2,1.295E3,4.1E1,6.82E2,3.4E1,4E0,1.14E2,3.8E2,6E0,3E0,7.3E1,9.3E1,2.6E1,1.3E1,3E0,9E0,6.9E1,5.62E2,3.1E2,9.85E2,3.7E1,4E0,3.5E2,3.32E2,1.6E1,1.8E1,3E0,3.77E2,1.6E1,7.7E1,7E0,1.9E1,3E0,6E0,4.4E1,2.5E1,5.47E2,1.5E1,5E1,2.6E2,8.6E2,1.25E2,3.2E1,5E0,8E0,3.42E2,2.4E1,3.08E2,5E0,1.1E1,2.78E2,9.9E1,9E0,7E0,2.5E1,5.2E1,4E0,3E0,8E0,1.1E1],"tree_param":{"num_deleted":"0","num_feature":"23","num_nodes":"75","size_leaf_vector":"1"}},{"base_weights":[-1.4007429E-3,-4.070625E-3,9.228726E-2,-7.725487E-3,1.8438201E-2,1.25000235E-2,1.9512197E-1,-1.0013417E-2,1.7659599E-2,-1.1054184E-3,5.2529786E-2,-7.3295383E-4,1.5909094E-1,3.2941177E-1,9.600002E-2,-1.2071245E-2,2.847246E-3,-8.469922E-3,1.07547194E-1,-7.306314E-3,1.5909094E-1,4.2225633E-2,1.14E-2,9.375E-3,-6.249994E-4,4.0535715E-1,-5.6249945E-4,2.3809547E-2,1.14E-2,-1.4064028E-2,5.280196E-3,-8.945663E-3,7.968752E-2,-7.438009E-4,2.3015896E-2,6.063832E-2,1.2214286E-2,-1.2996008E-2,3.636366E-2,6.9375006E-3,1.0312502E-1,1.544643E-1,1.8978126E-2,2.7750003E-1,1.74E-2,-7.058817E-4,5.4000006E-3,-5.802358E-4,-2.9680494E-4,-2.3437428E-4,1.3684217E-3,-4.4850426E-4,3.9230776E-3,1.3604658E-3,9.375E-3,2.625007E-4,6.9375006E-3,1.44375E-2,6.306825E-4,-7.443602E-4,6.250709E-6,6.9375006E-3,2.7500067E-4,-5.999994E-4,6.9375006E-3,6.428572E-3,-6.5624935E-4,1.0943884E-3,-7.312493E-4,-5.6249945E-4,1.2214286E-2],"categories":[],"categories_nodes":[],"categories_segments":[],"categories_sizes":[],"default_left":[0,0,0,0,0,0,0,0,0,0,0,0,0,0,0,0,0,0,0,0,0,0,0,0,0,0,0,0,0,0,0,0,0,0,0,0,0,0,0,0,0,0,0,0,0,0,0,0,0,0,0,0,0,0,0,0,0,0,0,0,0,0,0,0,0,0,0,0,0,0,0],"id":8,"left_children":[1,3,5,7,9,11,13,15,17,19,21,-1,23,25,27,29,31,33,35,37,39,41,-1,-1,-1,43,-1,45,-1,47,49,51,53,-1,55,57,-1,59,61,-1,63,65,67,69,-1,-1,-1,-1,-1,-1,-1,-1,-1,-1,-1,-1,-1,-1,-1,-1,-1,-1,-1,-1,-1,-1,-1,-1,-1,-1,-1],"loss_changes":[8.485865E-1,2.7145788E-1,7.688214E-1,1.6500586E-1,3.072099E-1,2.962358E-1,5.1413035E-1,6.894934E-2,5.5286E-1,2.9321048E-1,5.508372E-1,0E0,3.1013256E-1,4.5710194E-1,5.0350475E-1,7.770106E-2,3.269342E-1,9.462477E-2,7.201574E-1,7.103772E-2,2.0575255E-2,4.2498878E-1,0E0,0E0,0E0,1.5166092E-1,0E0,1.5950699E-1,0E0,4.41339E-2,1.22870475E-1,2.6453552E-1,3.6956304E-1,0E0,1.8512698E-1,7.7303314E-1,0E0,3.93229E-2,1.727907E-1,0E0,1.3082811E-1,3.0005574E-1,1.04837105E-1,3.917008E-1,0E0,0E0,0E0,0E0,0E0,0E0,0E0,0E0,0E0,0E0,0E0,0E0,0E0,0E0,0E0,0E0,0E0,0E0,0E0,0E0,0E0,0E0,0E0,0E0,0E0,0E0,0E0],"parents":[2147483647,0,0,1,1,2,2,3,3,4,4,5,5,6,6,7,7,8,8,9,9,10,10,12,12,13,13,14,14,15,15,16,16,17,17,18,18,19,19,20,20,21,21,25,25,27,27,29,29,30,30,31,31,32,32,34,34,35,35,37,37,38,38,40,40,41,41,42,42,43,43],"right_children":[2,4,6,8,10,12,14,16,18,20,22,-1,24,26,28,30,32,34,36,38,40,42,-1,-1,-1,44,-1,46,-1,48,50,52,54,-1,56,58,-1,60,62,-1,64,66,68,70,-1,-1,-1,-1,-1,-1,-1,-1,-1,-1,-1,-1,-1,-1,-1,-1,-1,-1,-1,-1,-1,-1,-1,-1,-1,-1,-1],"split_conditions":[2.5E1,1.701E1,3.9E-1,9E0,3E0,7.9954576E0,7.9954576E0,1.5112331E1,7.15E0,3.261525E1,3.85E1,-4.189629E0,1.08E-2,1E0,1.5112331E1,1E0,1E0,1E0,1E0,1.5112331E1,2E1,-5.179364E0,1.9650073E0,1.0336396E0,-9.60684E0,3.6E1,-4.52605E0,1E0,3.099894E0,3.35E0,1E0,1E0,1E0,-5.8190405E-1,1E0,8.1504E0,2.2737038E0,2.35E1,1.73E1,1.0588458E0,2.53E1,7E0,1E0,-5.179364E0,2.9009802E0,-1.3523163E-1,1.7056768E0,-2.783203E0,-1.5372597E0,-2.8060958E0,2.163501E0,-1.7119378E0,3.5357382E0,7.75689E-1,9.521915E-1,1.8683373E0,2.9819822E-1,2.8352802E0,9.4017637E-1,-1.1759396E0,2.9248787E-2,1.2461994E0,3.3178893E-1,-4.872358E0,2.000473E-1,3.1289933E0,-2.2673035E-1,2.6906886E0,-1.2120895E0,-4.356395E0,2.841393E0],"split_indices":[2,0,0,2,2,22,22,22,0,22,0,0,0,20,22,15,14,13,9,22,0,22,0,0,0,2,0,19,0,0,7,17,3,0,3,0,0,0,0,0,0,2,8,22,0,0,0,0,0,0,0,0,0,0,0,0,0,0,0,0,0,0,0,0,0,0,0,0,0,0,0],"split_type":[0,0,0,0,0,0,0,0,0,0,0,0,0,0,0,0,0,0,0,0,0,0,0,0,0,0,0,0,0,0,0,0,0,0,0,0,0,0,0,0,0,0,0,0,0,0,0,0,0,0,0,0,0,0,0,0,0,0,0,0,0,0,0,0,0,0,0,0,0,0,0],"sum_hessian":[3.39E3,3.297E3,9.3E1,2.837E3,4.6E2,5.3E1,4E1,2.603E3,2.34E2,2.93E2,1.67E2,4.3E1,1E1,1.6E1,2.4E1,2.244E3,3.59E2,1.82E2,5.2E1,2.83E2,1E1,1.63E2,4E0,5E0,5E0,1.3E1,3E0,2E1,4E0,2.013E3,2.31E2,3.12E2,4.7E1,1.2E2,6.2E1,4.6E1,6E0,2.51E2,3.2E1,3E0,7E0,2.7E1,1.36E2,9E0,4E0,1.6E1,4E0,8.87E2,1.126E3,1.75E2,5.6E1,3E2,1.2E1,4.2E1,5E0,5.9E1,3E0,3E0,4.3E1,1.32E2,1.19E2,3E0,2.9E1,4E0,3E0,2E1,7E0,9.7E1,3.9E1,3E0,6E0],"tree_param":{"num_deleted":"0","num_feature":"23","num_nodes":"71","size_leaf_vector":"1"}},{"base_weights":[-7.8737776E-4,-4.9859094E-3,5.735933E-2,-7.597613E-3,4.7058847E-2,1.2191381E-2,1.6107145E-1,-9.478692E-3,1.1322487E-2,3.7241403E-2,2.0000002E-1,-2.9196844E-3,9.1346174E-2,1.2361114E-1,2.7058825E-1,-1.7055433E-2,-4.2150035E-3,1.1000002E-1,5.6297947E-3,1.4460808E-2,8.920457E-2,1.14E-2,-5.999994E-4,-1.5330165E-2,3.8281273E-2,-6.8181753E-4,1.6406253E-1,9.313728E-2,1.44375E-2,4.2222226E-1,8.888891E-2,-4.0648042E-4,-1.9058162E-2,-1.2704336E-2,2.682546E-3,-6.249994E-4,1.7750002E-1,1.0156252E-1,-6.072637E-4,5.4000006E-3,5.8673704E-3,1.4827588E-1,-7.0312433E-4,4.3750005E-3,-7.425735E-4,-7.173906E-4,1.7750002E-1,1.05937505E-2,-6.66666E-4,1.14E-2,6.063832E-2,5.4000006E-3,1.74E-2,-6.249994E-4,6.9375006E-3,-7.3770416E-4,6.9047685E-4,-5.974183E-4,3.8888957E-4,-4.806252E-4,6.6796946E-4,-1.8270746E-5,2.0581402E-3,6.9375006E-3,3.6428578E-3,-6.66666E-4,6.8437504E-3,-4.7787538E-4,3.6666737E-4,2.0113643E-3,-3.5064865E-4,9.333333E-3,2.1428578E-3,1.44375E-2,-6.428565E-4,6.0000005E-3,8.07693E-4],"categories":[],"categories_nodes":[],"categories_segments":[],"categories_sizes":[],"default_left":[0,0,0,0,0,0,0,0,0,0,0,0,0,0,0,0,0,0,0,0,0,0,0,0,0,0,0,0,0,0,0,0,0,0,0,0,0,0,0,0,0,0,0,0,0,0,0,0,0,0,0,0,0,0,0,0,0,0,0,0,0,0,0,0,0,0,0,0,0,0,0,0,0,0,0,0,0],"id":9,"left_children":[1,3,5,7,9,11,13,15,17,19,21,23,25,27,29,31,33,35,37,39,41,-1,-1,43,45,-1,47,49,-1,51,53,55,57,59,61,-1,63,65,67,-1,69,71,-1,-1,-1,-1,73,-1,-1,-1,75,-1,-1,-1,-1,-1,-1,-1,-1,-1,-1,-1,-1,-1,-1,-1,-1,-1,-1,-1,-1,-1,-1,-1,-1,-1,-1],"loss_changes":[8.374105E-1,4.3518317E-1,1.0801475E0,1.0855064E-1,2.2227994E-1,1.9403706E-1,2.537297E-1,1.1047995E-1,1.544212E-1,1.7035404E-1,3.6399996E-1,7.06382E-2,2.1939877E-1,5.4370403E-1,4.3084955E-1,3.7870258E-2,9.5889576E-2,1.3616668E-1,1.5682624E-1,1.4404406E-1,2.9624745E-1,0E0,0E0,1.6457379E-1,2.8132015E-1,0E0,5.7135856E-1,4.524172E-1,0E0,2.395556E-1,1.453993E-1,7.0237935E-2,2.8044939E-2,8.5484646E-2,1.9619834E-1,0E0,2.0580292E-3,2.557335E-1,4.874814E-2,0E0,1.060378E-1,3.4066772E-1,0E0,0E0,0E0,0E0,6.1455804E-1,0E0,0E0,0E0,2.1545008E-1,0E0,0E0,0E0,0E0,0E0,0E0,0E0,0E0,0E0,0E0,0E0,0E0,0E0,0E0,0E0,0E0,0E0,0E0,0E0,0E0,0E0,0E0,0E0,0E0,0E0,0E0],"parents":[2147483647,0,0,1,1,2,2,3,3,4,4,5,5,6,6,7,7,8,8,9,9,10,10,11,11,12,12,13,13,14,14,15,15,16,16,17,17,18,18,19,19,20,20,23,23,24,24,26,26,27,27,29,29,30,30,31,31,32,32,33,33,34,34,36,36,37,37,38,38,40,40,41,41,46,46,50,50],"right_children":[2,4,6,8,10,12,14,16,18,20,22,24,26,28,30,32,34,36,38,40,42,-1,-1,44,46,-1,48,50,-1,52,54,56,58,60,62,-1,64,66,68,-1,70,72,-1,-1,-1,-1,74,-1,-1,-1,76,-1,-1,-1,-1,-1,-1,-1,-1,-1,-1,-1,-1,-1,-1,-1,-1,-1,-1,-1,-1,-1,-1,-1,-1,-1,-1],"split_conditions":[1.1E1,2.561E1,9.09E-1,1.701E1,2.9004438E1,1E0,2.5E1,4.059209E-1,1.73E1,3E0,1.924E0,1E0,5.3E-2,3.918E0,3.9E1,2.95E-1,1E0,9.55E-1,6.19E-1,9.35E-1,5E0,3.8014525E-1,-1.1757267E0,1E-3,3.7E-2,-6.9459167E0,2.53E-1,9.43E-1,1.89814E0,9E0,1.197E0,1E0,1.59E1,3.261525E1,1E0,-1.0065686E1,1.823E0,1.9E1,2E0,1.0950466E0,2.64E1,1.579E0,-9.881927E-2,1.0026306E0,-9.234737E-1,-5.0048895E0,5E-1,3.513121E0,-1.8981078E-1,2.2054925E0,-5.179364E0,2.756151E0,1.6545062E0,-3.1873333E0,3.0068974E0,-8.071878E-1,1.6148622E0,-2.90958E0,2.5846636E0,-3.1810298E0,2.0268104E0,1.4309139E-2,2.6310127E0,1.2088138E0,1.1726714E0,-3.9333324E0,3.035123E0,-5.201896E-1,7.3861235E-1,2.087623E0,-7.027616E-1,3.1761365E0,3.3650208E0,2.813951E0,-5.6293297E0,1.8396184E0,1.4271569E0],"split_indices":[2,0,1,0,22,8,2,22,0,2,1,21,1,1,2,0,7,1,1,1,2,0,0,1,1,0,1,1,0,0,1,11,0,22,15,0,1,0,2,0,0,1,0,0,0,0,0,0,0,0,22,0,0,0,0,0,0,0,0,0,0,0,0,0,0,0,0,0,0,0,0,0,0,0,0,0,0],"split_type":[0,0,0,0,0,0,0,0,0,0,0,0,0,0,0,0,0,0,0,0,0,0,0,0,0,0,0,0,0,0,0,0,0,0,0,0,0,0,0,0,0,0,0,0,0,0,0,0,0,0,0,0,0,0,0,0,0,0,0,0,0,0,0,0,0,0,0,0,0,0,0,0,0,0,0,0,0],"sum_hessian":[3.428E3,3.198E3,2.3E2,3.046E3,1.52E2,1.61E2,6.9E1,2.771E3,2.75E2,1.44E2,8E0,1.36E2,2.5E1,5.3E1,1.6E1,1.135E3,1.636E3,1.4E1,2.61E2,1.01E2,4.3E1,4E0,4E0,1.05E2,3.1E1,1E1,1.5E1,5E1,3E0,8E0,8E0,1.22E2,1.013E3,7.33E2,9.03E2,5E0,9E0,1.5E1,2.46E2,4E0,9.7E1,2.8E1,1.5E1,5E0,1E2,2.2E1,9E0,7E0,8E0,4E0,4.6E1,4E0,4E0,5E0,3E0,6E1,6.2E1,9.87E2,2.6E1,6.7E2,6.3E1,8.61E2,4.2E1,3E0,6E0,8E0,7E0,1.12E2,1.34E2,2.1E1,7.6E1,8E0,2E1,3E0,6E0,8E0,3.8E1],"tree_param":{"num_deleted":"0","num_feature":"23","num_nodes":"77","size_leaf_vector":"1"}},{"base_weights":[-1.0020242E-3,-5.5319914E-3,6.094423E-2,-1.6654026E-2,2.344611E-3,4.0537406E-2,2.7625003E-1,-1.8595347E-2,1.8840604E-2,-1.3770948E-3,3.0930256E-2,1.8098183E-2,1.1009618E-1,3.5156253E-1,-5.999994E-4,-1.9293234E-2,1.956524E-2,5.6818416E-3,6.9375006E-3,-1.2075005E-2,1.0031274E-2,-3.225783E-3,5.650409E-2,-1.1513134E-2,4.346593E-2,6.444447E-2,3.5312504E-1,1.21428594E-1,4.7750002E-1,-2.125579E-2,-5.7324604E-3,-7.124993E-4,6.9375006E-3,-7.312493E-4,5.0000023E-2,-1.5018633E-2,3.5500024E-2,1.1250002E-1,7.1245423E-3,-7.388052E-4,5.0000023E-2,4.4181056E-2,2.2812502E-1,7.750002E-2,-7.388052E-4,2.408539E-2,2.6428574E-1,2.2812502E-1,2.8289497E-2,1.44375E-2,5.4000006E-3,6.9375006E-3,-5.6249945E-4,1.9375E-2,5.4000006E-3,-6.8453595E-4,-3.395263E-4,2.3250007E-3,-3.395263E-4,3.9230776E-3,-6.9999933E-4,-6.360218E-4,-8.547723E-5,7.5000008E-3,-7.312493E-4,7.928572E-3,1.1718756E-3,4.7909326E-4,-4.7132955E-4,9.375E-3,-7.159084E-4,1.8956051E-3,-7.211531E-4,-5.999994E-4,1.44375E-2,-6.249994E-4,5.4000006E-3,1.8750007E-3,-7.29729E-4,1.44375E-2,-5.6249945E-4,-5.999994E-4,1.44375E-2,-7.211531E-4,3.9230776E-3],"categories":[],"categories_nodes":[],"categories_segments":[],"categories_sizes":[],"default_left":[0,0,0,0,0,0,0,0,0,0,0,0,0,0,0,0,0,0,0,0,0,0,0,0,0,0,0,0,0,0,0,0,0,0,0,0,0,0,0,0,0,0,0,0,0,0,0,0,0,0,0,0,0,0,0,0,0,0,0,0,0,0,0,0,0,0,0,0,0,0,0,0,0,0,0,0,0,0,0,0,0,0,0,0,0],"id":10,"left_children":[1,3,5,7,9,11,13,15,17,19,21,23,25,27,-1,29,31,33,-1,35,37,39,41,43,45,47,49,51,53,55,57,-1,-1,-1,59,61,63,65,67,-1,69,71,73,75,-1,77,79,81,83,-1,-1,-1,-1,-1,-1,-1,-1,-1,-1,-1,-1,-1,-1,-1,-1,-1,-1,-1,-1,-1,-1,-1,-1,-1,-1,-1,-1,-1,-1,-1,-1,-1,-1,-1,-1],"loss_changes":[9.594774E-1,2.791449E-1,1.0125353E0,9.13758E-2,1.9856142E-1,3.3202827E-1,4.5325768E-1,3.3747047E-2,1.9154418E-1,2.0174064E-1,1.8798494E-1,1.2294154E-1,5.5416656E-1,4.0573764E-1,0E0,3.2639742E-2,2.1638314E-1,8.913494E-2,0E0,1.19989954E-1,2.3747778E-1,1.0716659E-1,2.5005266E-1,9.062281E-2,3.702401E-1,2.5985038E-1,9.082806E-2,1.1209822E-1,3.845415E-1,1.6430348E-2,7.386019E-2,0E0,0E0,0E0,1.6297436E-1,6.0426384E-2,6.482531E-1,2.3490512E-1,1.5759763E-1,0E0,5.3096586E-1,1.519204E-1,5.120781E-1,1.0454165E-1,0E0,1.5401077E-1,4.3888393E-1,5.120781E-1,2.0692055E-1,0E0,0E0,0E0,0E0,0E0,0E0,0E0,0E0,0E0,0E0,0E0,0E0,0E0,0E0,0E0,0E0,0E0,0E0,0E0,0E0,0E0,0E0,0E0,0E0,0E0,0E0,0E0,0E0,0E0,0E0,0E0,0E0,0E0,0E0,0E0,0E0],"parents":[2147483647,0,0,1,1,2,2,3,3,4,4,5,5,6,6,7,7,8,8,9,9,10,10,11,11,12,12,13,13,15,15,16,16,17,17,19,19,20,20,21,21,22,22,23,23,24,24,25,25,26,26,27,27,28,28,29,29,30,30,34,34,35,35,36,36,37,37,38,38,40,40,41,41,42,42,43,43,45,45,46,46,47,47,48,48],"right_children":[2,4,6,8,10,12,14,16,18,20,22,24,26,28,-1,30,32,34,-1,36,38,40,42,44,46,48,50,52,54,56,58,-1,-1,-1,60,62,64,66,68,-1,70,72,74,76,-1,78,80,82,84,-1,-1,-1,-1,-1,-1,-1,-1,-1,-1,-1,-1,-1,-1,-1,-1,-1,-1,-1,-1,-1,-1,-1,-1,-1,-1,-1,-1,-1,-1,-1,-1,-1,-1,-1,-1],"split_conditions":[1.1E1,1E0,2.045E0,3.261525E1,2.206E1,8.67E-1,1E0,1E1,1E0,7.97045E0,2E0,3.1E-2,1.5112331E1,1.41E1,-3.8235981E0,1E0,8.8E-1,4.75E-1,2.7615187E0,1E0,2E-2,3.581E0,3.85E1,1E-3,4.1E1,-5.179364E0,1.031E1,2.341E0,1E0,1E0,1.65E-1,-3.985046E0,3.8468352E-1,-4.3893385E0,7.52E-1,3E0,2E0,2E0,1.424E0,-2.1465168E0,2.64E1,7E0,1E0,1E0,-4.198281E0,2.53E-1,1.05E0,1.4E1,1.197E0,2.9166906E0,8.159399E-1,7.608151E-1,-3.1472049E0,1.841196E0,7.873535E-3,-3.5463996E0,-1.7520938E0,3.587329E-1,-4.2834406E0,1.4356604E0,-2.14398E0,-1.5782037E0,-1.7788741E-1,2.6661704E0,-1.5012616E0,3.6152802E0,3.4292367E0,1.0017114E0,-3.0169797E-1,2.0249944E0,-8.643805E-1,3.043237E0,-1.1519119E0,-7.2096667E0,1.810773E0,-3.0936968E0,9.417929E-1,3.228473E0,-1.841162E-1,2.729532E0,-5.139706E-1,-3.952458E0,1.7844296E0,-1.2412106E0,2.6734662E0],"split_indices":[2,7,1,22,0,1,18,2,17,22,2,1,22,0,0,14,0,1,0,15,1,1,0,1,2,22,0,1,9,4,1,0,0,0,1,2,2,2,1,0,0,2,20,7,0,1,0,2,1,0,0,0,0,0,0,0,0,0,0,0,0,0,0,0,0,0,0,0,0,0,0,0,0,0,0,0,0,0,0,0,0,0,0,0,0],"split_type":[0,0,0,0,0,0,0,0,0,0,0,0,0,0,0,0,0,0,0,0,0,0,0,0,0,0,0,0,0,0,0,0,0,0,0,0,0,0,0,0,0,0,0,0,0,0,0,0,0,0,0,0,0,0,0,0,0,0,0,0,0,0,0,0,0,0,0,0,0,0,0,0,0,0,0,0,0,0,0,0,0,0,0,0,0],"sum_hessian":[3.417E3,3.185E3,2.32E2,1.32E3,1.865E3,2.13E2,1.9E1,1.252E3,6.8E1,1.651E3,2.14E2,1.62E2,5.1E1,1.5E1,4E0,1.23E3,2.2E1,6.5E1,3E0,8.52E2,7.99E2,9.2E1,1.22E2,7.5E1,8.7E1,4.4E1,7E0,6E0,9E0,1.074E3,1.56E2,1.9E1,3E0,3.9E1,2.6E1,8.03E2,4.9E1,2.1E1,7.78E2,6.6E1,2.6E1,1.15E2,7E0,9E0,6.6E1,8.1E1,6E0,7E0,3.7E1,3E0,4E0,3E0,3E0,5E0,4E0,9.27E2,1.47E2,9E0,1.47E2,1.2E1,1.4E1,5.32E2,2.71E2,1E1,3.9E1,6E0,1.5E1,5.61E2,2.17E2,5E0,2.1E1,9E1,2.5E1,4E0,3E0,5E0,4E0,4.5E1,3.6E1,3E0,3E0,4E0,3E0,2.5E1,1.2E1],"tree_param":{"num_deleted":"0","num_feature":"23","num_nodes":"85","size_leaf_vector":"1"}},{"base_weights":[-7.5202057E-4,-3.109988E-3,8.764047E-2,-1.1957284E-2,3.145804E-3,-4.4999765E-3,2.0062502E-1,-1.4236353E-2,2.5312524E-2,4.6022958E-4,4.862388E-2,1.21428594E-1,-7.3295383E-4,3.2941177E-1,1.0104169E-1,-1.6817747E-2,2.3723242E-8,1.4285738E-2,6.9375006E-3,-7.1727512E-3,8.6226445E-3,3.1839646E-2,1.44375E-2,6.9375006E-3,-5.6249945E-4,4.0535715E-1,-5.6249945E-4,-6.92307E-4,2.2708336E-1,-1.8691076E-2,-4.6979627E-3,-1.3017728E-2,6.666669E-2,-7.346932E-4,7.9310365E-2,-1.3429463E-2,2.0596614E-2,1.5600648E-2,-9.0908855E-3,6.4732164E-2,-4.901937E-3,2.7750003E-1,1.74E-2,3.1111112E-1,-5.6249945E-4,-3.9612604E-4,-6.919804E-4,-3.251741E-4,3.6428578E-3,-5.4362346E-4,7.142864E-4,3.4821496E-4,9.375E-3,6.8125003E-3,-7.0833263E-4,-1.355678E-4,-6.1130064E-4,6.9375006E-3,4.682088E-4,6.858048E-5,2.0683599E-3,-4.620846E-4,6.6279137E-4,2.8392863E-3,-6.9999933E-4,-7.3295383E-4,3.0937504E-3,1.2214286E-2,-5.6249945E-4,4.3750005E-3,1.44375E-2],"categories":[],"categories_nodes":[],"categories_segments":[],"categories_sizes":[],"default_left":[0,0,0,0,0,0,0,0,0,0,0,0,0,0,0,0,0,0,0,0,0,0,0,0,0,0,0,0,0,0,0,0,0,0,0,0,0,0,0,0,0,0,0,0,0,0,0,0,0,0,0,0,0,0,0,0,0,0,0,0,0,0,0,0,0,0,0,0,0,0,0],"id":11,"left_children":[1,3,5,7,9,11,13,15,17,19,21,23,-1,25,27,29,31,33,-1,35,37,39,-1,-1,-1,41,-1,-1,43,45,47,49,51,-1,53,55,57,59,61,63,65,67,-1,69,-1,-1,-1,-1,-1,-1,-1,-1,-1,-1,-1,-1,-1,-1,-1,-1,-1,-1,-1,-1,-1,-1,-1,-1,-1,-1,-1],"loss_changes":[7.139254E-1,1.8467468E-1,9.2743266E-1,1.1774811E-1,2.3875105E-1,1.28466E-1,4.797163E-1,4.7884822E-2,1.7836271E-1,1.1513651E-1,7.761586E-1,1.1209822E-1,0E0,4.5710194E-1,3.806991E-1,2.4955094E-2,1.7530571E-1,1.9608727E-1,0E0,1.6620302E-1,1.1052116E-1,1.2842077E-1,0E0,0E0,0E0,1.5166092E-1,0E0,0E0,2.5371528E-1,2.2619963E-2,1.1672639E-1,3.219188E-2,4.430431E-1,0E0,4.4642296E-1,4.8192665E-2,1.8138233E-1,4.5512214E-1,5.013852E-2,1.4971799E-1,1.1011683E-1,3.917008E-1,0E0,1.828993E-1,0E0,0E0,0E0,0E0,0E0,0E0,0E0,0E0,0E0,0E0,0E0,0E0,0E0,0E0,0E0,0E0,0E0,0E0,0E0,0E0,0E0,0E0,0E0,0E0,0E0,0E0,0E0],"parents":[2147483647,0,0,1,1,2,2,3,3,4,4,5,5,6,6,7,7,8,8,9,9,10,10,11,11,13,13,14,14,15,15,16,16,17,17,19,19,20,20,21,21,25,25,28,28,29,29,30,30,31,31,32,32,34,34,35,35,36,36,37,37,38,38,39,39,40,40,41,41,43,43],"right_children":[2,4,6,8,10,12,14,16,18,20,22,24,-1,26,28,30,32,34,-1,36,38,40,-1,-1,-1,42,-1,-1,44,46,48,50,52,-1,54,56,58,60,62,64,66,68,-1,70,-1,-1,-1,-1,-1,-1,-1,-1,-1,-1,-1,-1,-1,-1,-1,-1,-1,-1,-1,-1,-1,-1,-1,-1,-1,-1,-1],"split_conditions":[2.5E1,1E0,3E-2,3.261525E1,1.1E1,1E-3,7.9954576E0,1E0,1E0,7.97045E0,3.918E0,1.5E2,-2.453569E0,1E0,1.003E0,1E0,1E0,4.75E-1,2.6786737E0,1.902E0,1.626E0,1.7628291E0,1.7859603E0,9.135388E-1,-5.035536E0,6.61E-1,-3.172174E-1,-2.0476198E0,1E0,4.059209E-1,5E0,6E0,4E0,-3.034105E0,7.52E-1,4.42E-1,1.955E0,1.108E0,3.918E0,2E1,1E0,2.11E-1,8.696127E-1,1.197E0,-3.9197633E0,-2.7420626E0,-2.7674034E0,-4.4740553E0,9.0149045E-1,-4.085816E0,1.4100558E0,2.437738E-1,3.7314332E-1,1.3925903E0,-2.0796607E0,-4.3078175E-1,-8.658848E-1,1.5172595E0,1.1384554E0,1.9502704E-1,2.7630293E0,-9.7106606E-1,3.7506124E-1,2.1735272E0,-3.286505E-1,-1.2347586E0,8.0981416E-1,2.6476464E0,-4.1924763E0,7.9146147E-1,2.82919E0],"split_indices":[2,7,1,22,2,1,22,9,17,22,1,2,0,10,1,14,3,1,0,1,1,22,0,0,0,1,0,0,10,22,2,2,2,0,1,1,1,1,1,2,8,1,0,1,0,0,0,0,0,0,0,0,0,0,0,0,0,0,0,0,0,0,0,0,0,0,0,0,0,0,0],"split_type":[0,0,0,0,0,0,0,0,0,0,0,0,0,0,0,0,0,0,0,0,0,0,0,0,0,0,0,0,0,0,0,0,0,0,0,0,0,0,0,0,0,0,0,0,0,0,0,0,0,0,0,0,0,0,0,0,0,0,0,0,0,0,0,0,0,0,0,0,0,0,0],"sum_hessian":[3.423E3,3.335E3,8.8E1,1.381E3,1.954E3,4.9E1,3.9E1,1.302E3,7.9E1,1.846E3,1.08E2,6E0,4.3E1,1.6E1,2.3E1,1.102E3,2E2,7.6E1,3E0,9.54E2,8.92E2,1.05E2,3E0,3E0,3E0,1.3E1,3E0,1.2E1,1.1E1,9.54E2,1.48E2,1.68E2,3.2E1,4.8E1,2.8E1,7.79E2,1.75E2,6.4E2,2.52E2,5.5E1,5E1,9E0,4E0,8E0,3E0,4.25E2,5.29E2,1.42E2,6E0,1.48E2,2E1,2.7E1,5E0,1.1E1,1.7E1,3.42E2,4.37E2,3E0,1.72E2,5.13E2,1.27E2,2.1E2,4.2E1,4.1E1,1.4E1,4.3E1,7E0,6E0,3E0,5E0,3E0],"tree_param":{"num_deleted":"0","num_feature":"23","num_nodes":"71","size_leaf_vector":"1"}},{"base_weights":[8.1185333E-4,-3.4700322E-3,5.7069696E-2,-4.30897E-3,1.6406253E-1,1.656807E-2,1.463816E-1,-7.3890486E-3,1.3763465E-2,-6.8181753E-4,1.4375E-2,1.5909094E-1,6.6037974E-3,2.4519233E-1,9.313728E-2,-9.870387E-3,6.537554E-3,1.2625003E-1,8.688364E-3,-6.5624935E-4,1.44375E-2,-7.39285E-4,3.0833356E-2,1.4375E-2,1.6666669E-1,-6.8749936E-4,1.2562503E-1,-1.2341908E-2,4.572295E-3,9.375E-3,2.0220827E-3,3.9062522E-2,1.14E-2,-9.753764E-3,3.5245925E-2,2.0000002E-1,1.1890267E-2,-6.249994E-4,2.2656253E-1,1.6328128E-1,-6.66666E-4,-5.118758E-4,-1.1957971E-4,-1.7436234E-4,3.8942313E-3,-4.1512845E-4,9.945659E-4,-6.92307E-4,6.9375006E-3,-3.9825507E-4,3.6428578E-3,7.3000006E-3,4.970421E-4,1.44375E-2,-6.249994E-4,-2.9104407E-4,3.0468756E-3,9.312501E-3,-5.999994E-4,2.6111116E-3,1.4375E-2],"categories":[],"categories_nodes":[],"categories_segments":[],"categories_sizes":[],"default_left":[0,0,0,0,0,0,0,0,0,0,0,0,0,0,0,0,0,0,0,0,0,0,0,0,0,0,0,0,0,0,0,0,0,0,0,0,0,0,0,0,0,0,0,0,0,0,0,0,0,0,0,0,0,0,0,0,0,0,0,0,0],"id":12,"left_children":[1,3,5,7,9,11,13,15,17,-1,-1,19,21,23,25,27,29,31,33,-1,-1,-1,35,-1,37,-1,39,41,43,-1,45,47,-1,49,51,53,55,-1,57,59,-1,-1,-1,-1,-1,-1,-1,-1,-1,-1,-1,-1,-1,-1,-1,-1,-1,-1,-1,-1,-1],"loss_changes":[8.3102643E-1,4.5130834E-1,8.801904E-1,1.7772715E-1,9.5262194E-1,2.3895253E-1,3.7700784E-1,9.4300404E-2,2.6436257E-1,0E0,0E0,6.5182525E-1,1.2113748E-1,3.9783657E-1,1.9516575E-1,8.26913E-2,5.6995434E-1,4.2763275E-1,2.1878475E-1,0E0,0E0,0E0,2.8603047E-1,0E0,2.4055994E-1,0E0,2.263233E-1,7.791492E-2,4.4162104E-1,0E0,2.0189413E-1,1.9641526E-1,0E0,1.2356582E-1,7.072211E-1,5.6901044E-1,1.5975204E-1,0E0,3.3701295E-1,7.2899675E-1,0E0,0E0,0E0,0E0,0E0,0E0,0E0,0E0,0E0,0E0,0E0,0E0,0E0,0E0,0E0,0E0,0E0,0E0,0E0,0E0,0E0],"parents":[2147483647,0,0,1,1,2,2,3,3,4,4,5,5,6,6,7,7,8,8,11,11,12,12,13,13,14,14,15,15,16,16,17,17,18,18,22,22,24,24,26,26,27,27,28,28,30,30,31,31,33,33,34,34,35,35,36,36,38,38,39,39],"right_children":[2,4,6,8,10,12,14,16,18,-1,-1,20,22,24,26,28,30,32,34,-1,-1,-1,36,-1,38,-1,40,42,44,-1,46,48,-1,50,52,54,56,-1,58,60,-1,-1,-1,-1,-1,-1,-1,-1,-1,-1,-1,-1,-1,-1,-1,-1,-1,-1,-1,-1,-1],"split_conditions":[1.1E1,3.85E1,8.67E-1,1.5112331E1,1E0,1E-3,4.059209E-1,1.59E1,2E-2,-3.3882136E0,1.6735592E0,1E0,3.1E-2,1.103E0,7.15E0,1E0,5.38E-1,1.66E-1,7.35E0,-2.9178643E0,1.0379562E0,-3.411681E0,3.9E-2,2.111358E0,1.509E0,-5.188449E-1,3.9E1,7.97045E0,6E0,2.8787484E0,3E0,5E0,3.5009701E0,2.306E0,8.1504E0,1E0,1E0,-1.4598761E0,1E0,2.5E1,-1.6221194E0,-1.6808777E0,-1.4556372E0,-1.9203744E0,1.3755935E0,-1.203575E0,2.2419157E0,-3.5425928E0,3.3205087E0,-1.4262059E0,2.0077515E-3,2.7138903E0,7.667158E-1,2.0506291E0,-9.145683E0,8.3462544E-2,3.2865782E0,2.6027792E0,-1.8450622E-2,1.7323818E0,1.4647595E0],"split_indices":[2,0,1,22,20,1,22,0,1,0,0,20,1,1,0,9,1,0,0,0,0,0,1,0,1,0,2,22,2,0,2,2,0,1,0,15,8,0,9,2,0,0,0,0,0,0,0,0,0,0,0,0,0,0,0,0,0,0,0,0,0],"split_type":[0,0,0,0,0,0,0,0,0,0,0,0,0,0,0,0,0,0,0,0,0,0,0,0,0,0,0,0,0,0,0,0,0,0,0,0,0,0,0,0,0,0,0,0,0,0,0,0,0,0,0,0,0,0,0,0,0,0,0,0,0],"sum_hessian":[3.448E3,3.205E3,2.43E2,3.19E3,1.5E1,1.68E2,7.5E1,2.726E3,4.64E2,1E1,5E0,1E1,1.58E2,2.5E1,5E1,2.314E3,4.12E2,1.9E1,4.45E2,7E0,3E0,6.9E1,8.9E1,5E0,2E1,1.1E1,3.9E1,1.976E3,3.38E2,5E0,4.07E2,1.5E1,4E0,2.63E2,1.82E2,8E0,8.1E1,5E0,1.5E1,3.1E1,8E0,1.262E3,7.14E2,3.13E2,2.5E1,2.7E2,1.37E2,1.2E1,3E0,2.57E2,6E0,1.4E1,1.68E2,3E0,5E0,6.6E1,1.5E1,1.1E1,4E0,2.6E1,5E0],"tree_param":{"num_deleted":"0","num_feature":"23","num_nodes":"61","size_leaf_vector":"1"}},{"base_weights":[-1.4050871E-4,-4.3308726E-3,5.595747E-2,-1.27858E-2,1.7166451E-3,1.8633565E-2,1.3533336E-1,-7.758383E-4,-1.6177883E-2,-7.7873017E-3,1.1491736E-2,1.5909094E-1,8.27817E-3,2.3695655E-1,8.867927E-2,-6.388865E-3,7.14286E-2,-1.9184005E-2,1.5627369E-4,-1.2998646E-2,1.4027801E-2,1.1250002E-1,8.964956E-3,-6.428565E-4,1.14E-2,-7.391297E-4,3.5542194E-2,1.44375E-2,1.7625003E-1,5.885419E-2,9.375E-3,-1.1904738E-2,2.5625024E-2,1.14E-2,-7.058817E-4,-2.0259105E-2,3.9062522E-2,-1.0839137E-2,8.750002E-2,-7.677519E-3,-7.467665E-4,6.9375006E-3,9.0395715E-3,2.6428574E-1,3.9062522E-2,-5.310434E-3,1.6493978E-2,2.7397496E-3,2.5000003E-1,5.3846177E-2,3.5312504E-1,8.064539E-3,1.4305557E-1,2.58334E-4,-7.447176E-4,-7.2321354E-4,3.9230776E-3,-6.9538114E-4,-4.3379716E-4,-6.92307E-4,6.9375006E-3,4.3750005E-3,-5.271732E-4,-6.8181753E-4,6.8437504E-3,-2.8433197E-4,5.4000006E-3,-4.1014915E-5,1.0650007E-3,-5.6249945E-4,1.44375E-2,-6.8749936E-4,5.4000006E-3,-3.2482322E-4,1.8913049E-3,5.3250007E-3,4.0921124E-4,2.82353E-3,-7.368414E-4,1.74E-2,-6.428565E-4,5.4000006E-3,-6.66666E-4,1.74E-2,-5.6249945E-4,-7.2321354E-4,6.9375006E-3,1.05937505E-2,-6.8181753E-4],"categories":[],"categories_nodes":[],"categories_segments":[],"categories_sizes":[],"default_left":[0,0,0,0,0,0,0,0,0,0,0,0,0,0,0,0,0,0,0,0,0,0,0,0,0,0,0,0,0,0,0,0,0,0,0,0,0,0,0,0,0,0,0,0,0,0,0,0,0,0,0,0,0,0,0,0,0,0,0,0,0,0,0,0,0,0,0,0,0,0,0,0,0,0,0,0,0,0,0,0,0,0,0,0,0,0,0,0,0],"id":13,"left_children":[1,3,5,7,9,11,13,15,17,19,21,23,25,27,29,31,33,35,37,39,41,43,45,-1,-1,-1,47,-1,49,51,-1,53,55,-1,-1,57,59,61,63,65,-1,-1,67,69,71,73,75,77,79,81,83,85,87,-1,-1,-1,-1,-1,-1,-1,-1,-1,-1,-1,-1,-1,-1,-1,-1,-1,-1,-1,-1,-1,-1,-1,-1,-1,-1,-1,-1,-1,-1,-1,-1,-1,-1,-1,-1],"loss_changes":[7.9478216E-1,1.6088109E-1,6.936936E-1,5.3436756E-2,1.7056456E-1,2.3285617E-1,3.3457208E-1,1.17989115E-1,5.0234795E-2,1.06024034E-1,2.2997075E-1,4.4680518E-1,1.3638578E-1,2.5627446E-1,3.3540806E-1,4.7982886E-2,6.242689E-1,5.489579E-2,1.546093E-1,4.7400862E-2,1.9294938E-1,2.3490512E-1,9.509968E-2,0E0,0E0,0E0,5.8319855E-1,0E0,4.1398913E-1,2.0412116E-1,0E0,6.1439913E-2,2.123144E-1,0E0,0E0,1.40428245E-2,1.9641526E-1,1.5341668E-1,2.8419745E-1,1.7773083E-1,0E0,0E0,4.8788477E-2,4.3888393E-1,1.4388801E-1,1.1607801E-1,2.6359895E-1,1.8442623E-1,9.977143E-1,1.2875213E-1,6.858281E-1,2.2816244E-1,6.3489187E-1,0E0,0E0,0E0,0E0,0E0,0E0,0E0,0E0,0E0,0E0,0E0,0E0,0E0,0E0,0E0,0E0,0E0,0E0,0E0,0E0,0E0,0E0,0E0,0E0,0E0,0E0,0E0,0E0,0E0,0E0,0E0,0E0,0E0,0E0,0E0,0E0],"parents":[2147483647,0,0,1,1,2,2,3,3,4,4,5,5,6,6,7,7,8,8,9,9,10,10,11,11,12,12,13,13,14,14,15,15,16,16,17,17,18,18,19,19,20,20,21,21,22,22,26,26,28,28,29,29,31,31,32,32,35,35,36,36,37,37,38,38,39,39,42,42,43,43,44,44,45,45,46,46,47,47,48,48,49,49,50,50,51,51,52,52],"right_children":[2,4,6,8,10,12,14,16,18,20,22,24,26,28,30,32,34,36,38,40,42,44,46,-1,-1,-1,48,-1,50,52,-1,54,56,-1,-1,58,60,62,64,66,-1,-1,68,70,72,74,76,78,80,82,84,86,88,-1,-1,-1,-1,-1,-1,-1,-1,-1,-1,-1,-1,-1,-1,-1,-1,-1,-1,-1,-1,-1,-1,-1,-1,-1,-1,-1,-1,-1,-1,-1,-1,-1,-1,-1,-1],"split_conditions":[1.1E1,1E0,8.67E-1,5.6E-2,7.97045E0,1E-3,4.059209E-1,5.3E-2,1E0,1.902E0,2E-2,7.9954576E0,3.1E-2,9.43E-1,2.9004438E1,6E0,-6.5692906E0,1E1,1.5112331E1,9.35E-1,1.924E0,2E0,5.64E-1,-2.830328E0,1.0068173E0,-3.269649E0,3.2E1,2.0480173E0,2.045E0,2.5E1,2.792978E0,1.7E-2,3.5E-2,2.3633842E0,-5.2956896E0,1E0,2.03E-1,1.65E-1,6.77E-1,9.27E-1,-2.5519657E0,1.4215347E0,4E0,1E-3,7E0,1E0,5.94E-1,5.7E-2,2.11E-1,1.103E0,1.8E1,3.048E0,3.9E1,1.9628108E0,-4.506293E0,-3.7320464E0,1.3931414E0,-3.5002925E0,-1.5988346E0,-6.1547976E0,3.2068175E-1,5.32619E-1,-4.815848E0,-4.123848E0,1.1377624E0,-4.12952E-1,1.0329821E0,8.372526E-1,2.547998E0,-1.0455969E1,3.3959408E0,-1.0020236E0,3.2208939E0,-1.3122814E0,1.1527432E0,1.7547445E0,7.889463E-1,3.1879807E0,-1.5692122E-1,2.5657132E0,-4.3962705E-1,1.6023505E0,-2.289006E0,5.947018E-1,-1.7896729E-2,-5.032791E-1,1.6804101E0,1.4208169E0,-3.3779755E-1],"split_indices":[2,7,1,1,22,1,22,1,14,1,1,22,1,1,22,2,22,2,22,1,1,2,1,0,0,0,2,0,1,2,0,1,1,0,0,21,1,1,1,1,0,0,2,1,2,15,1,1,1,1,2,1,2,0,0,0,0,0,0,0,0,0,0,0,0,0,0,0,0,0,0,0,0,0,0,0,0,0,0,0,0,0,0,0,0,0,0,0,0],"split_type":[0,0,0,0,0,0,0,0,0,0,0,0,0,0,0,0,0,0,0,0,0,0,0,0,0,0,0,0,0,0,0,0,0,0,0,0,0,0,0,0,0,0,0,0,0,0,0,0,0,0,0,0,0,0,0,0,0,0,0,0,0,0,0,0,0,0,0,0,0,0,0,0,0,0,0,0,0,0,0,0,0,0,0,0,0,0,0,0,0],"sum_hessian":[3.379E3,3.145E3,2.34E2,1.311E3,1.834E3,1.6E2,7.4E1,2.89E2,1.022E3,9.3E2,9.04E2,1E1,1.5E2,2.2E1,5.2E1,2.69E2,2E1,8.63E2,1.59E2,7.51E2,1.79E2,2.1E1,8.83E2,6E0,4E0,6.8E1,8.2E1,3E0,1.9E1,4.7E1,5E0,2.3E2,3.9E1,4E0,1.6E1,8.48E2,1.5E1,1.42E2,1.7E1,5.2E2,2.31E2,3E0,1.76E2,6E0,1.5E1,3.05E2,5.78E2,7.2E1,1E1,1.2E1,7E0,3E1,1.7E1,8.9E1,1.41E2,2.7E1,1.2E1,5.62E2,2.86E2,1.2E1,3E0,5E0,1.37E2,1E1,7E0,5.16E2,4E0,1.27E2,4.9E1,3E0,3E0,1.1E1,4E0,2.83E2,2.2E1,9E0,5.69E2,1.6E1,5.6E1,4E0,6E0,4E0,8E0,4E0,3E0,2.7E1,3E0,7E0,1E1],"tree_param":{"num_deleted":"0","num_feature":"23","num_nodes":"89","size_leaf_vector":"1"}},{"base_weights":[-5.598947E-4,-4.380051E-3,5.1054876E-2,-5.211907E-3,1.4305557E-1,-1.5429729E-4,1.5953949E-1,-1.3178843E-2,3.8371552E-3,-6.8749936E-4,1.2214286E-2,-1.5681794E-2,3.2075495E-2,2.4519233E-1,1.1274512E-1,-1.4766898E-2,6.201574E-3,-8.183429E-3,1.904403E-2,6.818184E-2,-7.4249925E-4,1.529412E-1,-7.29729E-4,-5.6249945E-4,2.8043482E-1,8.4239155E-2,9.375E-3,-1.7546445E-2,2.1396633E-3,-1.5330165E-2,1.0104169E-1,2.6602587E-2,-1.1756912E-2,2.5000003E-1,1.5100178E-2,-6.5624935E-4,6.9375006E-3,4.821431E-2,1.44375E-2,3.6153847E-1,1.5909094E-1,5.0625023E-2,7.928572E-3,-4.37694E-4,-7.48041E-4,5.4000006E-3,-5.8485526E-5,4.800007E-4,-7.4085296E-4,8.684217E-4,9.375E-3,-2.9104407E-4,6.8125003E-3,-4.7572004E-4,4.6969764E-4,1.2214286E-2,-5.999994E-4,1.7569452E-3,1.9234388E-4,6.9375006E-3,-6.8181753E-4,6.8437504E-3,1.4375E-2,-5.999994E-4,7.928572E-3,8.918926E-4,6.9375006E-3],"categories":[],"categories_nodes":[],"categories_segments":[],"categories_sizes":[],"default_left":[0,0,0,0,0,0,0,0,0,0,0,0,0,0,0,0,0,0,0,0,0,0,0,0,0,0,0,0,0,0,0,0,0,0,0,0,0,0,0,0,0,0,0,0,0,0,0,0,0,0,0,0,0,0,0,0,0,0,0,0,0,0,0,0,0,0,0],"id":14,"left_children":[1,3,5,7,9,11,13,15,17,-1,-1,19,21,23,25,27,29,31,33,35,-1,37,-1,-1,39,41,-1,43,45,47,49,51,53,55,57,-1,-1,59,-1,61,63,65,-1,-1,-1,-1,-1,-1,-1,-1,-1,-1,-1,-1,-1,-1,-1,-1,-1,-1,-1,-1,-1,-1,-1,-1,-1],"loss_changes":[6.781164E-1,3.9345554E-1,1.3166564E0,2.2966771E-1,7.982912E-1,8.157557E-2,2.769692E-1,5.2228153E-2,2.7288678E-1,0E0,0E0,8.5341476E-2,3.6501065E-1,2.4710965E-1,2.6407975E-1,7.362792E-2,2.6497635E-1,1.0398497E-1,5.9647924E-1,1.6659802E-1,0E0,5.6130385E-1,0E0,0E0,1.688354E-1,2.6501757E-1,0E0,2.9016972E-2,1.6181222E-1,3.149607E-2,3.5683244E-1,5.699077E-1,8.5340366E-2,4.748571E-1,2.4472068E-1,0E0,0E0,1.8704343E-1,0E0,9.470165E-2,2.1251947E-1,1.4409333E-1,0E0,0E0,0E0,0E0,0E0,0E0,0E0,0E0,0E0,0E0,0E0,0E0,0E0,0E0,0E0,0E0,0E0,0E0,0E0,0E0,0E0,0E0,0E0,0E0,0E0],"parents":[2147483647,0,0,1,1,2,2,3,3,4,4,5,5,6,6,7,7,8,8,11,11,12,12,13,13,14,14,15,15,16,16,17,17,18,18,19,19,21,21,24,24,25,25,27,27,28,28,29,29,30,30,31,31,32,32,33,33,34,34,37,37,39,39,40,40,41,41],"right_children":[2,4,6,8,10,12,14,16,18,-1,-1,20,22,24,26,28,30,32,34,36,-1,38,-1,-1,40,42,-1,44,46,48,50,52,54,56,58,-1,-1,60,-1,62,64,66,-1,-1,-1,-1,-1,-1,-1,-1,-1,-1,-1,-1,-1,-1,-1,-1,-1,-1,-1,-1,-1,-1,-1,-1,-1],"split_conditions":[1.1E1,3.85E1,8.67E-1,7.97045E0,1E0,9.5E-1,4.059209E-1,1E0,5.75E0,-4.396408E0,1.5996844E0,1E-3,2.53E-1,-1.6604446E1,2.9004438E1,1.59E1,1E0,2E-2,5.85E0,7.9954576E0,-2.3441076E0,2.8E1,-3.376886E-1,-3.1208184E0,1E0,2.365E0,2.7091892E0,1E0,4.42E-1,1.59E-1,4E0,2.9004438E1,7.39E-1,2.9004438E1,7.88E-1,-2.7454183E0,9.7661316E-1,-6.5692906E0,1.4985534E0,1.44E1,1.9E1,1.5112331E1,1.6299975E0,-1.4235322E0,-3.1384764E0,2.4934204E0,-5.877455E-2,3.7804503E0,-4.075688E0,3.4203735E-1,3.1106138E-1,5.519635E-1,3.2940626E0,-1.8914993E0,8.533596E-1,2.7323813E0,-9.6092005E0,1.677742E0,3.4441426E-1,5.986862E-1,-1.5491143E0,1.9865772E0,4.6238342E-1,-5.868732E-1,2.5933657E0,1.3043078E0,6.811505E-1],"split_indices":[2,0,1,22,20,0,22,3,0,0,0,1,1,22,22,0,9,1,0,22,0,2,0,0,18,1,0,21,1,1,2,22,1,22,1,0,0,22,0,0,2,22,0,0,0,0,0,0,0,0,0,0,0,0,0,0,0,0,0,0,0,0,0,0,0,0,0],"split_type":[0,0,0,0,0,0,0,0,0,0,0,0,0,0,0,0,0,0,0,0,0,0,0,0,0,0,0,0,0,0,0,0,0,0,0,0,0,0,0,0,0,0,0,0,0,0,0,0,0,0,0,0,0,0,0,0,0,0,0,0,0,0,0,0,0,0,0],"sum_hessian":[3.437E3,3.201E3,2.36E2,3.184E3,1.7E1,1.61E2,7.5E1,1.693E3,1.491E3,1.1E1,6E0,1.09E2,5.2E1,2.5E1,5E1,1.565E3,1.28E2,8.33E2,6.58E2,1E1,9.9E1,1.6E1,3.6E1,3E0,2.2E1,4.5E1,5E0,1.344E3,2.21E2,1.05E2,2.3E1,7.7E1,7.56E2,1E1,6.48E2,7E0,3E0,1.3E1,3E0,1.2E1,1E1,3.9E1,6E0,9.62E2,3.82E2,4E0,2.17E2,2.4E1,8.1E1,1.8E1,5E0,6.6E1,1.1E1,6.58E2,9.8E1,6E0,4E0,1.07E2,5.41E2,3E0,1E1,7E0,5E0,4E0,6E0,3.6E1,3E0],"tree_param":{"num_deleted":"0","num_feature":"23","num_nodes":"67","size_leaf_vector":"1"}},{"base_weights":[-1.6612284E-3,-2.4540094E-3,1.7666669E-1,-6.1944397E-3,2.2035819E-2,-6.749993E-4,1.4375E-2,3.0902801E-2,-7.127822E-3,1.4270836E-1,1.5153326E-2,-4.081609E-3,1.0104169E-1,-2.2028962E-2,-5.0776345E-3,7.14286E-2,1.44375E-2,1.3076925E-1,1.146847E-2,-7.285707E-4,4.3333355E-2,1.6406253E-1,-6.66666E-4,-7.47747E-4,5.3846177E-2,-1.7800395E-3,-1.5219132E-2,-6.92307E-4,2.0000002E-1,-5.999994E-4,6.0000005E-3,-1.6008748E-2,2.1906378E-2,-6.749993E-4,4.3750005E-3,6.8125003E-3,-5.999994E-4,-6.749993E-4,6.9375006E-3,-1.15383904E-4,4.909801E-4,-5.4464216E-4,1.3448283E-3,-5.999994E-4,1.14E-2,-7.4264634E-4,1.6153853E-3,1.1587308E-3,-2.02702E-4],"categories":[],"categories_nodes":[],"categories_segments":[],"categories_sizes":[],"default_left":[0,0,0,0,0,0,0,0,0,0,0,0,0,0,0,0,0,0,0,0,0,0,0,0,0,0,0,0,0,0,0,0,0,0,0,0,0,0,0,0,0,0,0,0,0,0,0,0,0],"id":15,"left_children":[1,3,5,7,9,-1,-1,11,13,15,17,19,21,23,25,27,-1,29,31,-1,33,35,-1,-1,37,39,41,-1,43,-1,-1,45,47,-1,-1,-1,-1,-1,-1,-1,-1,-1,-1,-1,-1,-1,-1,-1,-1],"loss_changes":[4.7912925E-1,3.090201E-1,9.145E-1,1.0153569E-1,3.690834E-1,0E0,0E0,1.7708369E-1,8.7108776E-2,5.447731E-1,1.7913614E-1,4.7993198E-2,1.9008248E-1,7.71489E-2,8.394716E-2,2.597802E-1,0E0,1.396923E-1,1.1851421E-1,0E0,1.04499996E-1,1.9013798E-1,0E0,0E0,1.8127644E-1,7.114658E-2,1.0939838E-1,0E0,3.6399996E-1,0E0,0E0,7.098242E-2,1.4353861E-1,0E0,0E0,0E0,0E0,0E0,0E0,0E0,0E0,0E0,0E0,0E0,0E0,0E0,0E0,0E0,0E0],"parents":[2147483647,0,0,1,1,2,2,3,3,4,4,7,7,8,8,9,9,10,10,11,11,12,12,13,13,14,14,15,15,17,17,18,18,20,20,21,21,24,24,25,25,26,26,28,28,31,31,32,32],"right_children":[2,4,6,8,10,-1,-1,12,14,16,18,20,22,24,26,28,-1,30,32,-1,34,36,-1,-1,38,40,42,-1,44,-1,-1,46,48,-1,-1,-1,-1,-1,-1,-1,-1,-1,-1,-1,-1,-1,-1,-1,-1],"split_conditions":[3.85E1,1.701E1,1E0,1E-3,6.77E-1,-4.2645164E0,1.5516943E0,7.9954576E0,-1.0480209E1,1E0,1.73E1,1E0,3.261525E1,1E0,1E0,1E0,2.806538E0,9.55E-1,1E0,-2.6630557E0,1E0,1E0,-4.814259E0,-3.9179978E0,2.0832E0,1E0,3.261525E1,-3.4223566E0,1.7628291E0,-9.443519E0,1.002605E0,1E0,7.9954576E0,-6.7087646E0,4.0664336E-1,3.7004597E0,-9.73447E0,-6.1594405E0,1.8051801E0,-2.3802206E-1,1.1998868E0,-2.4872468E0,3.1952407E0,-2.9369357E0,2.599551E0,-2.3431857E0,2.3177974E0,1.2568682E0,-4.8923172E-2],"split_indices":[0,0,20,1,1,0,0,22,22,21,0,13,22,17,11,18,0,1,13,0,21,9,0,0,0,15,22,0,22,0,0,10,22,0,0,0,0,0,0,0,0,0,0,0,0,0,0,0,0],"split_type":[0,0,0,0,0,0,0,0,0,0,0,0,0,0,0,0,0,0,0,0,0,0,0,0,0,0,0,0,0,0,0,0,0,0,0,0,0,0,0,0,0,0,0,0,0,0,0,0,0],"sum_hessian":[3.385E3,3.371E3,1.4E1,2.925E3,4.46E2,9E0,5E0,7.1E1,2.854E3,2.3E1,4.23E2,4.8E1,2.3E1,3.44E2,2.51E3,2E1,3E0,1.2E1,4.11E2,3.4E1,1.4E1,1.5E1,8E0,3.32E2,1.2E1,1.895E3,6.15E2,1.2E1,8E0,4E0,8E0,1.13E2,2.98E2,9E0,5E0,1.1E1,4E0,9E0,3E0,1.702E3,1.93E2,5.87E2,2.8E1,4E0,4E0,1.01E2,1.2E1,1.88E2,1.1E2],"tree_param":{"num_deleted":"0","num_feature":"23","num_nodes":"49","size_leaf_vector":"1"}},{"base_weights":[8.7450945E-4,-3.8764337E-3,6.641307E-2,-1.43426815E-2,3.5387753E-3,8.507856E-2,-7.312493E-4,-1.5976574E-2,-5.4611415E-3,1.463164E-3,4.8475634E-2,6.277375E-2,1.3909093E-1,-1.3760873E-2,-2.1682825E-2,-1.428569E-2,8.750002E-2,4.8370557E-3,-1.302081E-2,2.6250002E-1,4.3478496E-3,-7.173906E-4,7.956524E-2,2.3695655E-1,6.666669E-2,-1.744838E-2,-6.4575407E-3,-7.4727205E-4,4.2857374E-3,-1.8787855E-2,1.6000023E-2,1.4375003E-1,-6.428565E-4,-5.5230176E-4,1.2778754E-2,-1.8446578E-2,4.732145E-2,8.888891E-2,1.4375E-2,-8.730135E-3,1.21428594E-1,1.0783135E-1,6.060629E-3,3.0972224E-1,-6.249994E-4,1.6406253E-1,-7.0833263E-4,-5.717085E-4,4.800007E-4,-3.430486E-4,4.897966E-4,-7.265618E-4,6.9375006E-3,-7.447176E-4,5.3125067E-4,1.6153853E-3,-6.92307E-4,6.0000005E-3,-5.6249945E-4,-1.446036E-4,5.1957904E-4,6.271841E-4,-5.0595164E-4,-6.3568697E-4,6.978104E-10,5.3125067E-4,5.4000006E-3,-6.249994E-4,6.9375006E-3,2.0454552E-3,-7.358483E-4,6.9375006E-3,-5.6249945E-4,2.6772157E-3,1.14E-2,-7.187493E-4,2.3250007E-3,1.1325001E-2,6.0000005E-3,7.5000008E-3,-6.249994E-4],"categories":[],"categories_nodes":[],"categories_segments":[],"categories_sizes":[],"default_left":[0,0,0,0,0,0,0,0,0,0,0,0,0,0,0,0,0,0,0,0,0,0,0,0,0,0,0,0,0,0,0,0,0,0,0,0,0,0,0,0,0,0,0,0,0,0,0,0,0,0,0,0,0,0,0,0,0,0,0,0,0,0,0,0,0,0,0,0,0,0,0,0,0,0,0,0,0,0,0,0,0],"id":16,"left_children":[1,3,5,7,9,11,-1,13,15,17,19,21,23,25,27,29,31,33,35,37,39,-1,41,43,45,47,49,-1,51,53,55,57,-1,59,61,63,65,67,-1,69,71,73,75,77,-1,79,-1,-1,-1,-1,-1,-1,-1,-1,-1,-1,-1,-1,-1,-1,-1,-1,-1,-1,-1,-1,-1,-1,-1,-1,-1,-1,-1,-1,-1,-1,-1,-1,-1,-1,-1],"loss_changes":[1.0595381E0,2.463054E-1,3.918326E-1,1.9009858E-2,1.732274E-1,2.213732E-1,0E0,1.3748378E-2,1.702401E-1,8.690027E-2,7.7330136E-1,2.0131987E-1,3.740343E-1,2.1513E-2,2.5995046E-2,2.6070997E-2,1.1337055E-1,6.172561E-2,1.1088039E-1,4.8402774E-1,1.0671152E-1,0E0,2.3828071E-1,4.3789244E-1,2.9403213E-1,2.898249E-2,3.0919677E-2,0E0,2.3203292E-1,3.6788017E-2,3.8215384E-2,1.1343749E-1,0E0,6.5678045E-2,1.4081278E-1,1.5635028E-2,1.06825136E-1,1.453993E-1,0E0,7.822157E-2,1.1209822E-1,3.8605523E-1,7.262642E-2,5.8361173E-2,0E0,2.5944012E-1,0E0,0E0,0E0,0E0,0E0,0E0,0E0,0E0,0E0,0E0,0E0,0E0,0E0,0E0,0E0,0E0,0E0,0E0,0E0,0E0,0E0,0E0,0E0,0E0,0E0,0E0,0E0,0E0,0E0,0E0,0E0,0E0,0E0,0E0,0E0],"parents":[2147483647,0,0,1,1,2,2,3,3,4,4,5,5,7,7,8,8,9,9,10,10,11,11,12,12,13,13,14,14,15,15,16,16,17,17,18,18,19,19,20,20,22,22,23,23,24,24,25,25,26,26,28,28,29,29,30,30,31,31,33,33,34,34,35,35,36,36,37,37,39,39,40,40,41,41,42,42,43,43,45,45],"right_children":[2,4,6,8,10,12,-1,14,16,18,20,22,24,26,28,30,32,34,36,38,40,-1,42,44,46,48,50,-1,52,54,56,58,-1,60,62,64,66,68,-1,70,72,74,76,78,-1,80,-1,-1,-1,-1,-1,-1,-1,-1,-1,-1,-1,-1,-1,-1,-1,-1,-1,-1,-1,-1,-1,-1,-1,-1,-1,-1,-1,-1,-1,-1,-1,-1,-1,-1,-1],"split_conditions":[1.1E1,1E0,1E0,1E0,1E0,3.2E1,-2.583164E0,3E0,6E0,1E0,2E0,1E0,4.7E1,2E0,1E0,4E0,1E0,3E0,6E0,1E0,1E0,-2.4795585E0,2E1,1E0,1E0,1E0,1E0,-3.2397468E0,1E0,1E0,1E0,1E0,-5.459613E0,1E0,1E0,1E0,1E0,1E0,8.6033016E-1,3E0,7E0,1E0,1E0,3.9E1,-1.59531E0,9E1,-4.0916654E-1,-3.099904E0,2.342719E0,-1.8236699E0,2.309811E0,-1.108125E0,1.1084289E-1,-4.386287E0,4.767407E0,5.2629087E-2,-7.688419E0,1.3054413E0,-1.0041012E1,-6.4408916E-1,1.157617E0,1.4161909E0,-2.4753375E-1,-2.052403E0,2.974274E0,2.7223415E0,2.2456054E-2,-1.5368252E0,2.727267E0,4.5310178E-1,-1.7713736E0,1.1389096E0,-6.769773E0,1.963937E0,1.9709353E0,-3.8777342E-1,7.2496945E-1,2.5227063E0,8.363003E-1,2.523069E0,-1.9433322E0],"split_indices":[2,7,11,9,15,2,0,2,2,21,2,7,2,2,18,2,19,2,2,19,10,0,2,9,18,17,4,0,13,4,21,6,0,8,8,11,10,21,0,2,2,21,9,2,0,2,0,0,0,0,0,0,0,0,0,0,0,0,0,0,0,0,0,0,0,0,0,0,0,0,0,0,0,0,0,0,0,0,0,0,0],"split_type":[0,0,0,0,0,0,0,0,0,0,0,0,0,0,0,0,0,0,0,0,0,0,0,0,0,0,0,0,0,0,0,0,0,0,0,0,0,0,0,0,0,0,0,0,0,0,0,0,0,0,0,0,0,0,0,0,0,0,0,0,0,0,0,0,0,0,0,0,0,0,0,0,0,0,0,0,0,0,0,0,0],"sum_hessian":[3.401E3,3.172E3,2.29E2,1.315E3,1.857E3,1.9E2,3.9E1,1.11E3,2.05E2,1.776E3,8.1E1,1.36E2,5.4E1,8.02E2,3.08E2,1.88E2,1.7E1,1.441E3,3.35E2,1.3E1,6.8E1,2.2E1,1.14E2,2.2E1,3.2E1,5.32E2,2.7E2,2.74E2,3.4E1,1.64E2,2.4E1,1.1E1,6E0,8.59E2,5.82E2,3.08E2,2.7E1,8E0,5E0,6.2E1,6E0,8.2E1,3.2E1,1.7E1,5E0,1.5E1,1.7E1,5.08E2,2.4E1,2.22E2,4.8E1,3.1E1,3E0,1.41E2,2.3E1,1.2E1,1.2E1,8E0,3E0,6.94E2,1.65E2,4.57E2,1.25E2,2.68E2,4E1,2.3E1,4E0,5E0,3E0,1E1,5.2E1,3E0,3E0,7.8E1,4E0,2.3E1,9E0,9E0,8E0,1E1,5E0],"tree_param":{"num_deleted":"0","num_feature":"23","num_nodes":"81","size_leaf_vector":"1"}},{"base_weights":[6.7912834E-4,-3.4554568E-3,5.4270856E-2,-1.3187869E-2,3.2744803E-3,4.6835467E-2,1.44375E-2,-1.5613272E-2,-4.8778116E-4,-3.8220915E-3,1.2484418E-2,1.9462049E-2,1.0031252E-1,-2.0781009E-2,-5.0425897E-3,-8.648625E-3,7.14286E-2,-7.3757526E-3,4.200002E-2,3.2716073E-2,3.6672868E-3,2.0000002E-1,8.500024E-3,6.636366E-2,1.6826925E-1,6.060629E-3,-2.2043772E-2,1.1780129E-2,-7.4536965E-4,-7.9997635E-4,-7.3770416E-4,3.194447E-2,6.9375006E-3,-3.6617604E-3,-2.0254606E-2,1.5000002E-1,-5.660354E-3,2.3355287E-2,1.6406253E-1,-1.9008978E-3,2.2817483E-2,-6.249994E-4,1.44375E-2,-7.3896983E-4,3.5542194E-2,2.2812502E-1,3.8020857E-2,7.14286E-2,1.4375E-2,-7.222215E-4,3.6428578E-3,-6.9991784E-4,-3.2291593E-4,2.1143688E-4,6.9375006E-3,-2.5204846E-4,6.9375006E-3,-6.964279E-4,5.4000006E-3,-2.0588163E-4,6.067423E-4,-7.454812E-4,-1.4705812E-4,2.2875008E-3,1.44375E-2,-7.3404185E-4,3.6428578E-3,-1.6019346E-4,1.3988102E-3,-6.5624935E-4,9.333333E-3,-4.1999927E-4,5.671882E-4,-7.321421E-4,1.3764712E-3,9.375071E-5,6.8125003E-3,-5.6249945E-4,1.14E-2,1.8181888E-4,3.0468756E-3,9.375E-3,-7.0312433E-4],"categories":[],"categories_nodes":[],"categories_segments":[],"categories_sizes":[],"default_left":[0,0,0,0,0,0,0,0,0,0,0,0,0,0,0,0,0,0,0,0,0,0,0,0,0,0,0,0,0,0,0,0,0,0,0,0,0,0,0,0,0,0,0,0,0,0,0,0,0,0,0,0,0,0,0,0,0,0,0,0,0,0,0,0,0,0,0,0,0,0,0,0,0,0,0,0,0,0,0,0,0,0,0],"id":17,"left_children":[1,3,5,7,9,11,-1,13,15,17,19,21,23,25,27,29,31,33,35,37,39,41,43,45,47,49,51,53,-1,55,-1,57,-1,59,61,63,65,67,69,71,73,-1,-1,-1,75,77,79,81,-1,-1,-1,-1,-1,-1,-1,-1,-1,-1,-1,-1,-1,-1,-1,-1,-1,-1,-1,-1,-1,-1,-1,-1,-1,-1,-1,-1,-1,-1,-1,-1,-1,-1,-1],"loss_changes":[7.424791E-1,2.0380908E-1,7.39402E-1,3.9173603E-2,1.20308265E-1,3.4498018E-1,0E0,5.823633E-2,1.2093191E-1,1.696595E-1,1.4276654E-1,3.1099176E-1,1.733973E-1,2.4436027E-2,1.1755846E-1,2.312741E-2,1.2513144E-1,4.61315E-2,3.868981E-1,2.949382E-1,5.965057E-2,5.6901044E-1,1.352711E-1,2.4348883E-1,7.485692E-1,1.17650315E-1,9.691805E-3,1.9673944E-1,0E0,2.2243793E-1,0E0,1.5117657E-1,0E0,5.7560075E-2,1.5115254E-2,5.251875E-1,1.2965447E-1,1.5250364E-1,4.4427514E-1,1.0952315E-1,1.3835585E-1,0E0,0E0,0E0,5.146558E-1,3.0707812E-1,9.6863165E-2,4.875837E-1,0E0,0E0,0E0,0E0,0E0,0E0,0E0,0E0,0E0,0E0,0E0,0E0,0E0,0E0,0E0,0E0,0E0,0E0,0E0,0E0,0E0,0E0,0E0,0E0,0E0,0E0,0E0,0E0,0E0,0E0,0E0,0E0,0E0,0E0,0E0],"parents":[2147483647,0,0,1,1,2,2,3,3,4,4,5,5,7,7,8,8,9,9,10,10,11,11,12,12,13,13,14,14,15,15,16,16,17,17,18,18,19,19,20,20,21,21,22,22,23,23,24,24,25,25,26,26,27,27,29,29,31,31,33,33,34,34,35,35,36,36,37,37,38,38,39,39,40,40,44,44,45,45,46,46,47,47],"right_children":[2,4,6,8,10,12,-1,14,16,18,20,22,24,26,28,30,32,34,36,38,40,42,44,46,48,50,52,54,-1,56,-1,58,-1,60,62,64,66,68,70,72,74,-1,-1,-1,76,78,80,82,-1,-1,-1,-1,-1,-1,-1,-1,-1,-1,-1,-1,-1,-1,-1,-1,-1,-1,-1,-1,-1,-1,-1,-1,-1,-1,-1,-1,-1,-1,-1,-1,-1,-1,-1],"split_conditions":[1.1E1,1E0,3.918E0,1E0,1.01E0,8.67E-1,1.5924755E0,5.8E-1,6E0,1E0,1.424E0,1E-3,2.5E1,1E-3,1.025E0,4.3E-1,8.3E-2,1E0,3E0,9E0,1E0,1E0,3.1E-2,9.43E-1,1E0,1E0,1E0,1.01E0,-4.8057423E0,4.08E-1,-4.2402263E0,1E0,2.6970702E-1,1E0,1E0,2.41E-1,1E0,2E0,1E0,2.955E0,1E0,-2.505669E0,8.112112E-1,-4.6048326E0,3.2E1,9.09E-1,2.045E0,3.4E1,2.5593622E0,-3.36492E0,4.4915405E-1,-2.7514992E0,-3.14961E0,3.2212892E-1,6.728915E-1,-3.8764343E0,4.7050598E-1,-5.295824E0,1.2662778E0,-5.417437E-1,1.1639873E0,-2.2646477E0,-7.7578676E-1,8.345206E-1,2.6454492E0,-1.479212E0,1.104742E0,3.8815442E-1,2.3641062E0,-5.0393076E0,2.4538512E0,-3.7520045E-1,8.9418066E-1,-3.3770418E0,1.4427844E0,2.1429975E0,2.4473767E0,-1.2271737E0,1.8752033E0,1.4247024E0,4.6548706E-1,2.447025E0,-3.473767E-1],"split_indices":[2,7,1,9,1,1,0,1,2,15,1,1,2,1,1,1,1,21,2,2,20,20,1,1,19,13,14,1,0,1,0,5,0,14,8,1,10,2,13,1,13,0,0,0,2,1,1,2,0,0,0,0,0,0,0,0,0,0,0,0,0,0,0,0,0,0,0,0,0,0,0,0,0,0,0,0,0,0,0,0,0,0,0],"split_type":[0,0,0,0,0,0,0,0,0,0,0,0,0,0,0,0,0,0,0,0,0,0,0,0,0,0,0,0,0,0,0,0,0,0,0,0,0,0,0,0,0,0,0,0,0,0,0,0,0,0,0,0,0,0,0,0,0,0,0,0,0,0,0,0,0,0,0,0,0,0,0,0,0,0,0,0,0,0,0,0,0,0,0],"sum_hessian":[3.349E3,3.11E3,2.39E2,1.271E3,1.839E3,2.36E2,3E0,1.067E3,2.04E2,1.039E3,8E2,1.57E2,7.9E1,7.16E2,3.51E2,1.84E2,2E1,9.65E2,7.4E1,2.42E2,5.58E2,8E0,1.49E2,5.4E1,2.5E1,3.2E1,6.84E2,1.9E2,1.61E2,1.24E2,6E1,1.7E1,3E0,7.5E2,2.15E2,2.2E1,5.2E1,2.27E2,1.5E1,4.33E2,1.25E2,5E0,3E0,6.7E1,8.2E1,7E0,4.7E1,2E1,5E0,2.6E1,6E0,6.13E2,7.1E1,1.87E2,3E0,1.21E2,3E0,1.3E1,4E0,6.62E2,8.8E1,1.65E2,5E1,1.9E1,3E0,4.6E1,6E0,1.02E2,1.25E2,7E0,8E0,2.74E2,1.59E2,4.1E1,8.4E1,7.1E1,1.1E1,3E0,4E0,3.2E1,1.5E1,5E0,1.5E1],"tree_param":{"num_deleted":"0","num_feature":"23","num_nodes":"83","size_leaf_vector":"1"}},{"base_weights":[-1.9769606E-3,-3.9144596E-3,9.130437E-2,-4.7078175E-3,1.3421054E-1,2.4886365E-1,1.7187523E-2,-1.1736727E-2,3.0771922E-3,-6.5624935E-4,2.2708336E-1,1.19642876E-1,4.2222226E-1,6.9375006E-3,-2.222199E-3,-1.2914883E-2,1.2812523E-2,-7.926113E-3,1.7126294E-2,3.1111112E-1,-5.6249945E-4,2.2812502E-1,-6.428565E-4,5.4000006E-3,1.74E-2,-7.29729E-4,8.888891E-2,-1.15151275E-2,-7.4566406E-4,4.375002E-2,-7.29729E-4,2.1264391E-2,-1.1114586E-2,4.4236336E-2,-1.0349831E-2,-5.6249945E-4,1.4375E-2,-5.6249945E-4,1.14E-2,6.9375006E-3,-6.249994E-4,-3.9729974E-4,-2.5239671E-5,2.3793108E-3,-7.0312433E-4,4.934281E-5,4.312501E-3,-4.4978558E-4,5.483878E-4,6.8437504E-3,1.193383E-3,-3.8629447E-4,1.8125005E-3],"categories":[],"categories_nodes":[],"categories_segments":[],"categories_sizes":[],"default_left":[0,0,0,0,0,0,0,0,0,0,0,0,0,0,0,0,0,0,0,0,0,0,0,0,0,0,0,0,0,0,0,0,0,0,0,0,0,0,0,0,0,0,0,0,0,0,0,0,0,0,0,0,0],"id":18,"left_children":[1,3,5,7,9,11,13,15,17,-1,19,21,23,-1,25,27,29,31,33,35,-1,37,-1,-1,-1,-1,39,41,-1,43,-1,45,47,49,51,-1,-1,-1,-1,-1,-1,-1,-1,-1,-1,-1,-1,-1,-1,-1,-1,-1,-1],"loss_changes":[6.128599E-1,3.6455545E-1,8.0149066E-1,1.8077672E-1,2.8039336E-1,4.4231784E-1,1.9994879E-1,5.0375506E-2,2.4252744E-1,0E0,2.5371528E-1,2.1914059E-1,2.395556E-1,0E0,9.278077E-2,2.7408719E-2,9.297783E-2,8.2140714E-2,5.136793E-1,5.0789934E-1,0E0,3.0707812E-1,0E0,0E0,0E0,0E0,1.453993E-1,2.7381822E-2,0E0,1.06984116E-1,0E0,2.0883526E-1,9.078887E-2,2.7531725E-1,6.2107172E-2,0E0,0E0,0E0,0E0,0E0,0E0,0E0,0E0,0E0,0E0,0E0,0E0,0E0,0E0,0E0,0E0,0E0,0E0],"parents":[2147483647,0,0,1,1,2,2,3,3,4,4,5,5,6,6,7,7,8,8,10,10,11,11,12,12,14,14,15,15,16,16,17,17,18,18,19,19,21,21,26,26,27,27,29,29,31,31,32,32,33,33,34,34],"right_children":[2,4,6,8,10,12,14,16,18,-1,20,22,24,-1,26,28,30,32,34,36,-1,38,-1,-1,-1,-1,40,42,-1,44,-1,46,48,50,52,-1,-1,-1,-1,-1,-1,-1,-1,-1,-1,-1,-1,-1,-1,-1,-1,-1,-1],"split_conditions":[3.2E1,3.85E1,4.7E1,7.97045E0,2E0,8.57E-1,1E-3,1.2E1,5.75E0,-8.43135E0,1.924E0,1.36E0,8.45E0,5.844479E-1,1E0,1E0,1.6E1,1.7E-2,1.424E0,1E0,-3.01711E0,4.059209E-1,-1.993591E0,2.3736145E0,1.1839719E0,-4.703128E-1,5E-1,1E0,-3.210785E0,1E0,-1.4446197E-1,1E0,7.39E-1,5.85E0,1.2E1,-4.106001E0,1.4193741E0,-5.5506186E0,7.8687465E-1,2.373955E0,-3.3695525E-1,-7.9123384E-1,-3.9315966E-1,1.8475168E0,-2.6527185E0,1.0823643E0,2.8560343E0,-1.5054787E0,8.926194E-1,2.5518987E0,1.1833407E0,-3.8827035E-1,1.5447015E0],"split_indices":[2,0,2,22,2,1,1,2,0,0,1,0,0,0,9,5,2,1,1,13,0,22,0,0,0,0,0,9,0,18,0,8,1,0,2,0,0,0,0,0,0,0,0,0,0,0,0,0,0,0,0,0,0],"split_type":[0,0,0,0,0,0,0,0,0,0,0,0,0,0,0,0,0,0,0,0,0,0,0,0,0,0,0,0,0,0,0,0,0,0,0,0,0,0,0,0,0,0,0,0,0,0,0,0,0,0,0,0,0],"sum_hessian":[3.388E3,3.32E3,6.8E1,3.302E3,1.8E1,2.1E1,4.7E1,1.735E3,1.567E3,7E0,1.1E1,1.3E1,8E0,3E0,4.4E1,1.656E3,7.9E1,8.79E2,6.88E2,8E0,3E0,7E0,6E0,4E0,4E0,3.6E1,8E0,1.484E3,1.72E2,4.3E1,3.6E1,8.6E1,7.93E2,3.46E2,3.42E2,3E0,5E0,3E0,4E0,3E0,5E0,1.277E3,2.07E2,2.8E1,1.5E1,7.5E1,1.1E1,7.01E2,9.2E1,7E0,3.39E2,3.31E2,1.1E1],"tree_param":{"num_deleted":"0","num_feature":"23","num_nodes":"53","size_leaf_vector":"1"}},{"base_weights":[-1.0209883E-3,-3.2532974E-3,1.0772061E-1,-4.0769693E-3,1.9107145E-1,2.7027258E-3,2.2578128E-1,-7.83436E-3,2.0101376E-2,-6.5624935E-4,1.2214286E-2,5.4000006E-3,-7.27272E-4,1.4375E-2,1.6111113E-1,-9.577958E-3,2.821972E-2,1.8140614E-2,6.9375006E-3,3.4090912E-1,3.529414E-2,-6.879393E-3,-2.278136E-2,6.281252E-2,-7.358483E-4,6.4263563E-3,4.837401E-2,4.7812504E-1,-5.6249945E-4,-6.964279E-4,6.9375006E-3,-4.084346E-4,7.146177E-10,-7.4822205E-4,6.978104E-10,1.3150692E-3,6.8437504E-3,-2.1168642E-5,9.27084E-4,1.0826094E-3,6.0000005E-3,5.4000006E-3,2.19375E-2],"categories":[],"categories_nodes":[],"categories_segments":[],"categories_sizes":[],"default_left":[0,0,0,0,0,0,0,0,0,0,0,0,0,0,0,0,0,0,0,0,0,0,0,0,0,0,0,0,0,0,0,0,0,0,0,0,0,0,0,0,0,0,0],"id":19,"left_children":[1,3,5,7,9,11,13,15,17,-1,-1,-1,-1,-1,19,21,23,25,-1,27,29,31,33,35,-1,37,39,41,-1,-1,-1,-1,-1,-1,-1,-1,-1,-1,-1,-1,-1,-1,-1],"loss_changes":[8.205853E-1,5.308971E-1,8.4248644E-1,2.9986334E-1,6.530692E-1,1.8112366E-1,4.47168E-1,1.7980936E-1,1.7962639E-1,0E0,0E0,0E0,0E0,0E0,5.9875214E-1,9.6935675E-2,2.4240124E-1,1.5587449E-1,0E0,5.518253E-1,2.0027441E-1,1.0489907E-1,2.27274E-2,2.4096924E-1,0E0,5.5708185E-2,2.2193566E-1,4.7207785E-1,0E0,0E0,0E0,0E0,0E0,0E0,0E0,0E0,0E0,0E0,0E0,0E0,0E0,0E0,0E0],"parents":[2147483647,0,0,1,1,2,2,3,3,4,4,5,5,6,6,7,7,8,8,14,14,15,15,16,16,17,17,19,19,20,20,21,21,22,22,23,23,25,25,26,26,27,27],"right_children":[2,4,6,8,10,12,14,16,18,-1,-1,-1,-1,-1,20,22,24,26,-1,28,30,32,34,36,-1,38,40,42,-1,-1,-1,-1,-1,-1,-1,-1,-1,-1,-1,-1,-1,-1,-1],"split_conditions":[3.2E1,3.85E1,3.5E-1,1.701E1,1E0,4.7E1,1.36E0,1.2E1,1E0,-2.9265966E0,1.3767929E0,7.632687E-1,-1.7327783E0,2.302736E0,4.1E1,1E1,1.8E1,4E0,3.6061704E-2,2.53E1,6.6E1,1E0,7E0,1.6E1,-1.3038044E-1,1E0,1E0,3.4E1,-1.9337832E0,-3.2684693E-1,2.4926898E0,-2.937034E0,5.2687053E-2,-2.2602117E0,1.4332151E-1,2.0119872E0,1.1351596E0,2.2503287E-1,3.406082E0,1.9694673E0,2.1905997E0,2.3024056E0,1.148453E0],"split_indices":[2,0,0,0,20,2,0,2,15,0,0,0,0,0,2,0,2,2,0,0,2,7,2,2,0,8,10,2,0,0,0,0,0,0,0,0,0,0,0,0,0,0,0],"split_type":[0,0,0,0,0,0,0,0,0,0,0,0,0,0,0,0,0,0,0,0,0,0,0,0,0,0,0,0,0,0,0,0,0,0,0,0,0,0,0,0,0,0,0],"sum_hessian":[3.378E3,3.311E3,6.7E1,3.298E3,1.3E1,3.6E1,3.1E1,2.855E3,4.43E2,7E0,6E0,4E0,3.2E1,5E0,2.6E1,2.724E3,1.31E2,4.4E2,3E0,1E1,1.6E1,2.263E3,4.61E2,7.9E1,5.2E1,3.18E2,1.22E2,7E0,3E0,1.3E1,3E0,1.143E3,1.12E3,4.21E2,4E1,7.2E1,7E0,2.47E2,7.1E1,1.14E2,8E0,4E0,3E0],"tree_param":{"num_deleted":"0","num_feature":"23","num_nodes":"43","size_leaf_vector":"1"}},{"base_weights":[-1.3292196E-3,-2.1053166E-3,1.6406253E-1,-6.4635416E-3,8.699004E-3,-6.8181753E-4,1.4375E-2,-9.67701E-3,1.3308847E-2,1.1875002E-1,5.456477E-3,-7.965402E-3,-7.464448E-4,2.6428574E-1,8.009006E-3,1.7625003E-1,-6.66666E-4,-6.468149E-3,1.788011E-2,-9.264435E-3,1.5250023E-2,-5.6249945E-4,1.44375E-2,-8.031891E-4,3.3430256E-2,2.6250002E-1,-6.428565E-4,6.818184E-2,-8.176077E-3,9.375E-3,1.4015175E-2,-3.5003258E-4,1.0982214E-4,5.4000006E-3,1.953132E-4,2.3250007E-3,-1.21874284E-4,6.978104E-10,1.8750007E-3,9.333333E-3,4.3750005E-3,6.9375006E-3,-6.5624935E-4,-3.6146832E-4,2.58334E-4,6.9375006E-3,3.627458E-4],"categories":[],"categories_nodes":[],"categories_segments":[],"categories_sizes":[],"default_left":[0,0,0,0,0,0,0,0,0,0,0,0,0,0,0,0,0,0,0,0,0,0,0,0,0,0,0,0,0,0,0,0,0,0,0,0,0,0,0,0,0,0,0,0,0,0,0],"id":20,"left_children":[1,3,5,7,9,-1,-1,11,13,15,17,19,-1,21,23,25,-1,27,29,31,33,-1,-1,35,37,39,-1,41,43,-1,45,-1,-1,-1,-1,-1,-1,-1,-1,-1,-1,-1,-1,-1,-1,-1,-1],"loss_changes":[4.3972182E-1,1.6053097E-1,9.5262194E-1,1.5446246E-1,3.490585E-1,0E0,0E0,5.41922E-2,4.5013013E-1,2.3088196E-1,1.412999E-1,5.683756E-2,0E0,4.3888393E-1,7.484853E-2,3.4662056E-1,0E0,6.264841E-2,5.273869E-1,5.536644E-2,1.4281276E-1,0E0,0E0,6.386279E-2,8.357557E-2,3.4027696E-2,0E0,1.6659802E-1,3.1115748E-2,0E0,1.9026597E-1,0E0,0E0,0E0,0E0,0E0,0E0,0E0,0E0,0E0,0E0,0E0,0E0,0E0,0E0,0E0,0E0],"parents":[2147483647,0,0,1,1,2,2,3,3,4,4,7,7,8,8,9,9,10,10,11,11,13,13,14,14,15,15,17,17,18,18,19,19,20,20,23,23,24,24,25,25,27,27,28,28,30,30],"right_children":[2,4,6,8,10,-1,-1,12,14,16,18,20,-1,22,24,26,-1,28,30,32,34,-1,-1,36,38,40,-1,42,44,-1,46,-1,-1,-1,-1,-1,-1,-1,-1,-1,-1,-1,-1,-1,-1,-1,-1],"split_conditions":[3.85E1,7.9954576E0,1E0,1.59E1,1E-3,-2.8387985E0,1.3354889E0,1.145E1,5.38E-1,1E0,5.75E0,1.559E0,-2.0982482E0,4.23E-1,1E0,3.261525E1,-6.983576E0,8.835566E0,5.85E0,1E0,3.9125E0,-1.0330489E1,2.6632771E0,5.71E-1,2.069E0,1E0,-8.417635E0,6.4E-1,1E0,2.302098E0,2.22E-1,-1.2770532E0,2.6724946E-1,4.2180175E-1,1.4597597E0,1.4017931E0,-1.6995864E-2,1.2032429E-1,3.7736697E0,3.8007438E0,7.4037045E-1,1.1151847E0,-1.15365595E-1,-1.0919183E0,2.2545028E0,2.565337E0,6.7474693E-1],"split_indices":[0,22,20,0,1,0,0,0,1,9,0,1,0,1,8,22,0,22,0,9,0,0,0,1,1,6,0,0,18,0,1,0,0,0,0,0,0,0,0,0,0,0,0,0,0,0,0],"split_type":[0,0,0,0,0,0,0,0,0,0,0,0,0,0,0,0,0,0,0,0,0,0,0,0,0,0,0,0,0,0,0,0,0,0,0,0,0,0,0,0,0,0,0,0,0,0,0],"sum_hessian":[3.422E3,3.407E3,1.5E1,2.428E3,9.79E2,1E1,5E0,2.089E3,3.39E2,2.7E1,9.52E2,1.879E3,2.1E2,6E0,3.33E2,1.9E1,8E0,4.86E2,4.66E2,1.78E3,9.9E1,3E0,3E0,2.48E2,8.5E1,1.3E1,6E0,1E1,4.76E2,5E0,4.61E2,1.501E3,2.79E2,4E0,9.5E1,9E0,2.39E2,4E1,4.5E1,8E0,5E0,3E0,7E0,3.87E2,8.9E1,3E0,4.58E2],"tree_param":{"num_deleted":"0","num_feature":"23","num_nodes":"47","size_leaf_vector":"1"}},{"base_weights":[-6.5960677E-4,-4.9733887E-3,6.3488394E-2,-8.651029E-3,1.7849123E-2,1.6267147E-2,1.6107145E-1,-1.6817747E-2,-3.1930755E-3,1.4270836E-1,1.068886E-2,2.2812502E-1,3.956858E-3,1.2361114E-1,2.7058825E-1,-1.7603664E-2,2.894739E-2,-1.4036861E-2,5.4289056E-3,2.6250002E-1,-6.8181753E-4,1.1000002E-1,7.002481E-3,1.44375E-2,-5.999994E-4,-7.3790253E-4,2.6602587E-2,1.14E-2,9.550002E-2,4.7812504E-1,7.750002E-2,-1.904053E-2,2.0000236E-3,-7.0312433E-4,6.9375006E-3,-1.7488765E-2,2.2265648E-2,7.9310365E-2,3.0235401E-3,1.21428594E-1,3.5312504E-1,-6.428565E-4,6.0000005E-3,3.1969547E-3,9.411767E-2,3.1250236E-3,2.6428574E-1,5.675678E-2,1.9107145E-1,6.9375006E-3,1.74E-2,-6.428565E-4,6.9375006E-3,-6.183199E-4,-1.105256E-4,-7.3255744E-4,1.0909098E-3,-6.029166E-4,3.9622711E-4,2.4590234E-4,6.9375006E-3,5.3125067E-4,9.375E-3,-1.951837E-4,4.3411402E-4,-5.6249945E-4,6.9375006E-3,5.4000006E-3,1.44375E-2,3.937079E-5,2.0454552E-3,-6.92307E-4,1.14E-2,5.4000006E-3,-2.977934E-4,1.44375E-2,-5.6249945E-4,-7.1052567E-4,4.026316E-3,-5.999994E-4,8.325001E-3],"categories":[],"categories_nodes":[],"categories_segments":[],"categories_sizes":[],"default_left":[0,0,0,0,0,0,0,0,0,0,0,0,0,0,0,0,0,0,0,0,0,0,0,0,0,0,0,0,0,0,0,0,0,0,0,0,0,0,0,0,0,0,0,0,0,0,0,0,0,0,0,0,0,0,0,0,0,0,0,0,0,0,0,0,0,0,0,0,0,0,0,0,0,0,0,0,0,0,0,0,0],"id":21,"left_children":[1,3,5,7,9,11,13,15,17,19,21,23,25,27,29,31,33,35,37,39,-1,41,43,-1,-1,-1,45,-1,47,49,51,53,55,-1,-1,57,59,61,63,65,67,-1,-1,69,71,73,75,77,79,-1,-1,-1,-1,-1,-1,-1,-1,-1,-1,-1,-1,-1,-1,-1,-1,-1,-1,-1,-1,-1,-1,-1,-1,-1,-1,-1,-1,-1,-1,-1,-1],"loss_changes":[9.4420934E-1,2.684882E-1,9.8809856E-1,1.2270188E-1,3.954217E-1,3.7986994E-1,2.537297E-1,4.0181845E-2,1.545298E-1,4.815933E-1,1.5335722E-1,5.120781E-1,9.053414E-2,3.5290837E-1,6.441847E-1,3.060028E-2,2.0677426E-1,9.211837E-2,1.6343288E-1,1.3610494E-1,0E0,1.8171428E-1,1.3462739E-1,0E0,0E0,0E0,4.3443134E-1,0E0,1.7429274E-1,6.707811E-2,1.5705803E-1,2.4300784E-2,6.89759E-2,0E0,0E0,5.3832248E-2,1.862761E-1,4.110497E-1,9.750738E-2,1.1209822E-1,9.082806E-2,0E0,0E0,4.7796365E-2,5.783348E-1,1.6799723E-1,4.3888393E-1,2.3370552E-1,2.609464E-1,0E0,0E0,0E0,0E0,0E0,0E0,0E0,0E0,0E0,0E0,0E0,0E0,0E0,0E0,0E0,0E0,0E0,0E0,0E0,0E0,0E0,0E0,0E0,0E0,0E0,0E0,0E0,0E0,0E0,0E0,0E0,0E0],"parents":[2147483647,0,0,1,1,2,2,3,3,4,4,5,5,6,6,7,7,8,8,9,9,10,10,11,11,12,12,13,13,14,14,15,15,16,16,17,17,18,18,19,19,21,21,22,22,26,26,28,28,29,29,30,30,31,31,32,32,35,35,36,36,37,37,38,38,39,39,40,40,43,43,44,44,45,45,46,46,47,47,48,48],"right_children":[2,4,6,8,10,12,14,16,18,20,22,24,26,28,30,32,34,36,38,40,-1,42,44,-1,-1,-1,46,-1,48,50,52,54,56,-1,-1,58,60,62,64,66,68,-1,-1,70,72,74,76,78,80,-1,-1,-1,-1,-1,-1,-1,-1,-1,-1,-1,-1,-1,-1,-1,-1,-1,-1,-1,-1,-1,-1,-1,-1,-1,-1,-1,-1,-1,-1,-1,-1],"split_conditions":[1.2E1,1.701E1,8.67E-1,4.059209E-1,6.77E-1,1E-3,2.7E1,1.643E1,1E0,1E0,1.73E1,1E0,3E-2,9.43E-1,4.1E1,1E0,2.502E0,3.261525E1,2E-2,1.9E1,-8.757852E0,9.55E-1,3.85E1,7.181598E-1,-2.4850185E0,-2.4572554E0,4.1E1,1.766109E0,1E0,7.15E0,1.103E0,1E0,-6.0080957E0,-1.3985631E0,1.125834E0,6E0,1E0,2.9004438E1,5.75E0,3E0,1E0,-9.218173E0,8.645297E-1,3.261525E1,1E0,1.66E-1,1.05E0,1.7E1,1.168E0,2.1895413E0,1.0937567E0,-1.5707601E0,2.3976672E0,-2.4376612E0,-1.4406421E0,-5.7026443E0,4.832567E0,-2.737855E0,1.0560585E0,1.1313995E0,2.3901699E0,7.907584E-1,3.1544366E0,-1.7990313E-1,2.3844832E-1,-3.254793E0,1.3597393E0,1.4737244E-2,2.548699E0,3.2920736E-1,7.645999E-1,-2.7536342E0,1.2954245E0,2.9206293E0,8.074214E-2,2.225637E0,-4.3466454E0,-6.762094E-1,1.382189E0,-1.7350973E0,1.4190335E0],"split_indices":[2,0,1,22,1,1,2,0,7,13,0,11,1,1,2,4,1,22,1,0,0,1,0,0,0,0,2,0,20,0,1,3,22,0,0,2,17,22,0,2,7,0,0,22,20,0,0,2,1,0,0,0,0,0,0,0,0,0,0,0,0,0,0,0,0,0,0,0,0,0,0,0,0,0,0,0,0,0,0,0,0],"split_type":[0,0,0,0,0,0,0,0,0,0,0,0,0,0,0,0,0,0,0,0,0,0,0,0,0,0,0,0,0,0,0,0,0,0,0,0,0,0,0,0,0,0,0,0,0,0,0,0,0,0,0,0,0,0,0,0,0,0,0,0,0,0,0,0,0,0,0,0,0,0,0,0,0,0,0,0,0,0,0,0,0],"sum_hessian":[3.41E3,3.196E3,2.14E2,2.753E3,4.43E2,1.45E2,6.9E1,1.102E3,1.651E3,2.3E1,4.2E2,7E0,1.38E2,5.3E1,1.6E1,1.084E3,1.8E1,7.31E2,9.2E2,1.3E1,1E1,1.4E1,4.06E2,3E0,4E0,6.1E1,7.7E1,4E0,4.9E1,7E0,9E0,1.01E3,7.4E1,1.5E1,3E0,6.68E2,6.3E1,2.8E1,8.92E2,6E0,7E0,6E0,8E0,3.9E2,1.6E1,7.1E1,6E0,3.6E1,1.3E1,3E0,4E0,6E0,3E0,9.16E2,9.4E1,4.2E1,3.2E1,6.16E2,5.2E1,6E1,3E0,2.3E1,5E0,4.87E2,4.05E2,3E0,3E0,4E0,3E0,3.8E2,1E1,1.2E1,4E0,4E0,6.7E1,3E0,3E0,1.8E1,1.8E1,4E0,9E0],"tree_param":{"num_deleted":"0","num_feature":"23","num_nodes":"81","size_leaf_vector":"1"}},{"base_weights":[-2.0143003E-3,-7.830858E-3,7.031274E-3,2.866669E-2,-9.219203E-3,6.9375006E-3,6.340742E-3,6.6406485E-3,1.4375003E-1,-1.2455227E-2,9.450195E-3,-4.292504E-3,1.615274E-2,-7.3275627E-3,1.21428594E-1,-6.428565E-4,9.375E-3,-1.5992485E-2,1.3889127E-3,6.623379E-2,-1.09302085E-2,-8.7679615E-3,2.9391915E-2,5.688778E-2,9.289407E-3,-7.321421E-4,3.529414E-2,-5.6249945E-4,6.9375006E-3,-1.1304324E-2,-2.3069656E-2,-8.305624E-3,7.0833355E-2,3.3333357E-2,3.1111112E-1,-1.8970564E-2,1.9021763E-2,-1.5393771E-2,1.1413068E-2,9.913816E-3,9.411767E-2,3.0219804E-2,1.05937505E-2,-7.4157235E-4,1.5373007E-2,4.3750005E-3,-6.8749936E-4,-4.576969E-4,6.705889E-4,-7.484687E-4,-1.7856444E-5,-4.8586886E-4,5.104174E-4,2.7500067E-4,6.2307697E-3,-7.321421E-4,3.5625005E-3,4.3750005E-3,1.44375E-2,-7.4369676E-4,-1.5865313E-4,2.3250007E-3,8.108177E-5,-7.4703485E-4,-2.6945396E-5,2.2750008E-3,-1.9265985E-4,-7.3333265E-4,3.5892862E-3,-6.8749936E-4,9.375E-3,3.9873488E-4,3.9230776E-3,1.1844066E-3,-3.5592508E-5],"categories":[],"categories_nodes":[],"categories_segments":[],"categories_sizes":[],"default_left":[0,0,0,0,0,0,0,0,0,0,0,0,0,0,0,0,0,0,0,0,0,0,0,0,0,0,0,0,0,0,0,0,0,0,0,0,0,0,0,0,0,0,0,0,0,0,0,0,0,0,0,0,0,0,0,0,0,0,0,0,0,0,0,0,0,0,0,0,0,0,0,0,0,0,0],"id":22,"left_children":[1,3,5,7,9,-1,11,13,15,17,19,21,23,25,27,-1,-1,29,31,33,35,37,39,41,43,-1,45,-1,-1,47,49,51,53,55,57,59,61,63,65,67,69,71,-1,-1,73,-1,-1,-1,-1,-1,-1,-1,-1,-1,-1,-1,-1,-1,-1,-1,-1,-1,-1,-1,-1,-1,-1,-1,-1,-1,-1,-1,-1,-1,-1],"loss_changes":[1.7636494E-1,1.0363346E-1,2.0167094E-1,1.891577E-1,1.1889283E-1,0E0,1.3664174E-1,1.0350624E-1,3.41183E-1,8.209646E-2,3.374903E-1,9.508147E-2,1.8986425E-1,4.3077126E-2,1.1209822E-1,0E0,0E0,4.403305E-2,2.3083355E-1,6.0998553E-1,5.213812E-2,7.4521594E-2,9.236129E-2,7.6353323E-1,1.2120612E-1,0E0,1.1272977E-1,0E0,0E0,1.07423484E-1,2.2412568E-2,6.04067E-2,3.5256088E-1,3.4319198E-1,1.828993E-1,1.3404429E-2,4.3688744E-2,5.7722226E-2,1.590407E-1,2.2159025E-1,4.416513E-1,1.5315899E-1,0E0,0E0,1.9805083E-1,0E0,0E0,0E0,0E0,0E0,0E0,0E0,0E0,0E0,0E0,0E0,0E0,0E0,0E0,0E0,0E0,0E0,0E0,0E0,0E0,0E0,0E0,0E0,0E0,0E0,0E0,0E0,0E0,0E0,0E0],"parents":[2147483647,0,0,1,1,2,2,3,3,4,4,6,6,7,7,8,8,9,9,10,10,11,11,12,12,13,13,14,14,17,17,18,18,19,19,20,20,21,21,22,22,23,23,24,24,26,26,29,29,30,30,31,31,32,32,33,33,34,34,35,35,36,36,37,37,38,38,39,39,40,40,41,41,44,44],"right_children":[2,4,6,8,10,-1,12,14,16,18,20,22,24,26,28,-1,-1,30,32,34,36,38,40,42,44,-1,46,-1,-1,48,50,52,54,56,58,60,62,64,66,68,70,72,-1,-1,74,-1,-1,-1,-1,-1,-1,-1,-1,-1,-1,-1,-1,-1,-1,-1,-1,-1,-1,-1,-1,-1,-1,-1,-1,-1,-1,-1,-1,-1,-1],"split_conditions":[6.5E0,1E-3,1.34E-1,1E0,7.39E-1,2.4812236E0,7.97045E0,2.9004438E1,1E0,1E0,4E0,2.561E1,6.77E-1,1E0,1E0,-3.2402186E0,6.966147E-1,2E0,2.03E-1,1E0,1E0,1E0,4.059209E-1,1.87E1,1.01E0,-2.4489872E0,4.059209E-1,-8.199047E0,2.5601165E0,1.55E0,1E0,1E0,1E0,3.35E0,1.7628291E0,5.75E0,4.65E0,1E0,-1.3769159E1,1E0,3.581E0,5.8E-1,2.3052034E0,-1.5525328E0,1.626E0,6.589682E-1,-2.4020517E0,-1.1313534E0,9.6225494E-1,-2.2205567E0,3.852548E-1,-2.7366097E0,1.0746206E0,1.0871265E0,2.5736802E0,-1.4580133E0,2.58714E0,3.2114226E-1,9.4620115E-1,-6.9506913E-1,6.962293E-1,3.2397664E0,1.672608E0,-1.2415242E0,3.3670753E-2,2.6565087E0,-1.578722E0,-6.5560687E-1,2.883036E0,-2.024295E-1,2.0132575E0,1.3479865E0,1.7477865E0,1.2688683E0,7.053098E-3],"split_indices":[0,1,1,10,1,0,22,22,20,15,0,0,1,13,8,0,0,0,1,18,19,20,22,0,1,0,22,0,0,0,3,19,21,0,22,0,0,18,22,19,1,1,0,0,1,0,0,0,0,0,0,0,0,0,0,0,0,0,0,0,0,0,0,0,0,0,0,0,0,0,0,0,0,0,0],"split_type":[0,0,0,0,0,0,0,0,0,0,0,0,0,0,0,0,0,0,0,0,0,0,0,0,0,0,0,0,0,0,0,0,0,0,0,0,0,0,0,0,0,0,0,0,0,0,0,0,0,0,0,0,0,0,0,0,0,0,0,0,0,0,0,0,0,0,0,0,0,0,0,0,0,0,0],"sum_hessian":[3.35E3,2.039E3,1.311E3,7.4E1,1.965E3,3E0,1.308E3,6.3E1,1.1E1,1.675E3,2.9E2,6.28E2,6.8E2,5.7E1,6E0,6E0,5E0,1.334E3,3.41E2,7.6E1,2.14E2,5.55E2,7.3E1,9.7E1,5.83E2,4.1E1,1.6E1,3E0,3E0,8.04E2,5.3E2,3E2,4.1E1,6.8E1,8E0,1.69E2,4.5E1,4.18E2,1.37E2,5.7E1,1.6E1,9E1,7E0,8.8E1,4.95E2,5E0,1.1E1,7.2E2,8.4E1,4.89E2,4.1E1,2.29E2,7.1E1,2.9E1,1.2E1,4.1E1,2.7E1,5E0,3E0,1.18E2,5.1E1,9E0,3.6E1,2.52E2,1.66E2,2.9E1,1.08E2,4.4E1,1.3E1,1.1E1,5E0,7.8E1,1.2E1,2.01E2,2.94E2],"tree_param":{"num_deleted":"0","num_feature":"23","num_nodes":"75","size_leaf_vector":"1"}},{"base_weights":[1.0307255E-3,-8.13409E-4,8.802819E-2,-1.1785166E-2,6.718695E-3,-7.302624E-4,2.1102944E-1,-8.949219E-3,-7.469001E-4,4.8005558E-3,4.004632E-2,1.74E-2,1.4250003E-1,-5.9056967E-3,-7.458326E-4,4.0082543E-4,2.1940127E-2,8.476565E-2,-7.3333265E-4,-6.92307E-4,2.541667E-1,-7.675652E-3,7.6250024E-2,-1.6936953E-3,3.703706E-2,2.0769233E-1,1.5389808E-2,5.094342E-2,2.2708336E-1,1.74E-2,1.19642876E-1,-1.0861209E-4,-5.249993E-4,-6.92307E-4,6.8437504E-3,-3.661195E-4,1.484472E-4,4.080001E-3,-2.105256E-4,-6.249994E-4,1.05937505E-2,4.312501E-3,3.3241068E-4,-3.488302E-5,7.5000008E-3,1.05937505E-2,-5.999994E-4,1.14E-2,-6.749993E-4],"categories":[],"categories_nodes":[],"categories_segments":[],"categories_sizes":[],"default_left":[0,0,0,0,0,0,0,0,0,0,0,0,0,0,0,0,0,0,0,0,0,0,0,0,0,0,0,0,0,0,0,0,0,0,0,0,0,0,0,0,0,0,0,0,0,0,0,0,0],"id":23,"left_children":[1,3,5,7,9,-1,11,13,-1,15,17,-1,19,21,-1,23,25,27,-1,-1,29,31,33,35,37,39,41,43,45,-1,47,-1,-1,-1,-1,-1,-1,-1,-1,-1,-1,-1,-1,-1,-1,-1,-1,-1,-1],"loss_changes":[5.487594E-1,2.7692458E-1,9.8647636E-1,5.049555E-2,1.2683076E-1,0E0,7.7705145E-1,5.423796E-2,0E0,1.4176106E-1,3.135422E-1,0E0,5.6054807E-1,1.3785416E-1,0E0,1.14935555E-1,4.6403033E-1,2.9649574E-1,0E0,0E0,7.1958935E-1,3.6788724E-2,3.0696994E-1,9.897925E-2,3.540959E-1,4.3941307E-1,2.0418358E-1,5.500109E-1,3.8077605E-1,0E0,5.266607E-1,0E0,0E0,0E0,0E0,0E0,0E0,0E0,0E0,0E0,0E0,0E0,0E0,0E0,0E0,0E0,0E0,0E0,0E0],"parents":[2147483647,0,0,1,1,2,2,3,3,4,4,6,6,7,7,9,9,10,10,12,12,13,13,15,15,16,16,17,17,20,20,21,21,22,22,23,23,24,24,25,25,26,26,27,27,28,28,30,30],"right_children":[2,4,6,8,10,-1,12,14,-1,16,18,-1,20,22,-1,24,26,28,-1,-1,30,32,34,36,38,40,42,44,46,-1,48,-1,-1,-1,-1,-1,-1,-1,-1,-1,-1,-1,-1,-1,-1,-1,-1,-1,-1],"split_conditions":[3.2E1,1E0,3.5E-1,1E0,1.2E1,-1.5403793E0,1.36E0,8.1504E0,-2.1719062E0,1.701E1,1.7E1,2.0816574E0,8.57E-1,7.5E0,-2.489206E0,1E0,6.19E-1,1E0,-1.6949469E-1,-4.6126646E-1,1E0,1E0,1E0,3.69E0,3E0,3E0,1.73E1,1E0,8.7E0,2.287671E0,3.9E1,-7.242699E-1,-2.1620984E0,-4.659347E0,1.3047006E0,-1.2029476E0,9.976865E-2,2.49647E0,2.2086109E-1,-8.4578705E0,2.5094833E0,8.05567E-1,7.0168924E-1,1.5637134E0,1.7604877E0,2.9151087E0,-7.5253186E0,2.1228452E0,-4.0942565E-1],"split_indices":[2,7,0,10,2,0,0,0,0,0,2,0,1,0,0,15,1,8,0,0,18,20,21,0,2,2,0,20,0,0,2,0,0,0,0,0,0,0,0,0,0,0,0,0,0,0,0,0,0],"split_type":[0,0,0,0,0,0,0,0,0,0,0,0,0,0,0,0,0,0,0,0,0,0,0,0,0,0,0,0,0,0,0,0,0,0,0,0,0,0,0,0,0,0,0,0,0,0,0,0,0],"sum_hessian":[3.419E3,3.349E3,7E1,1.363E3,1.986E3,3.7E1,3.3E1,1.122E3,2.41E2,1.879E3,1.07E2,4E0,2.9E1,9.43E2,1.79E2,1.496E3,3.83E2,6.3E1,4.4E1,1.2E1,1.7E1,9.24E2,1.9E1,1.416E3,8E1,1.2E1,3.71E2,5.2E1,1.1E1,4E0,1.3E1,6.55E2,2.69E2,1.2E1,7E0,5.48E2,8.68E2,2.4E1,5.6E1,5E0,7E0,1.1E1,3.6E2,4.2E1,1E1,7E0,4E0,4E0,9E0],"tree_param":{"num_deleted":"0","num_feature":"23","num_nodes":"49","size_leaf_vector":"1"}},{"base_weights":[8.158055E-4,-1.0166682E-3,7.92208E-2,-2.9613427E-3,3.6128074E-2,3.789065E-2,2.6250002E-1,-5.921029E-3,1.2230944E-2,6.9375006E-3,3.1055924E-2,2.2812502E-1,1.05263395E-2,1.4375E-2,8.888891E-2,-1.1522264E-2,-1.2726401E-3,5.9602885E-3,6.0169514E-2,3.1252354E-4,6.0670756E-2,1.44375E-2,-5.999994E-4,5.4000006E-3,-5.660354E-3,5.4000006E-3,-5.999994E-4,-1.43064745E-2,6.6037974E-3,-3.3212758E-3,5.5500023E-2,4.0089325E-3,5.4000006E-3,-7.058817E-4,9.186049E-2,1.3076925E-1,-7.3896983E-4,2.3790346E-2,1.6666669E-1,-7.3333265E-4,8.888891E-2,7.6875073E-4,-4.770658E-4,3.6428578E-3,3.9216397E-5,-3.108738E-6,-7.458326E-4,4.2812508E-3,-7.222215E-4,-1.2448062E-4,4.0191456E-4,7.928572E-3,1.7027033E-3,-6.749993E-4,1.44375E-2,-6.666597E-5,2.6250007E-3,2.6250007E-3,1.44375E-2,-6.249994E-4,6.9375006E-3],"categories":[],"categories_nodes":[],"categories_segments":[],"categories_sizes":[],"default_left":[0,0,0,0,0,0,0,0,0,0,0,0,0,0,0,0,0,0,0,0,0,0,0,0,0,0,0,0,0,0,0,0,0,0,0,0,0,0,0,0,0,0,0,0,0,0,0,0,0,0,0,0,0,0,0,0,0,0,0,0,0],"id":24,"left_children":[1,3,5,7,9,11,13,15,17,-1,19,21,23,-1,25,27,29,31,33,35,37,-1,-1,-1,39,-1,-1,41,43,45,47,49,-1,-1,51,53,-1,55,57,-1,59,-1,-1,-1,-1,-1,-1,-1,-1,-1,-1,-1,-1,-1,-1,-1,-1,-1,-1,-1,-1],"loss_changes":[4.8440927E-1,2.3811944E-1,5.733255E-1,1.4090091E-1,1.5512708E-1,3.3075914E-1,4.8402774E-1,6.8253614E-2,1.5325114E-1,0E0,1.4656518E-1,5.120781E-1,1.5738232E-1,0E0,9.288888E-2,6.0099483E-2,1.6696787E-1,1.5312332E-1,1.5865892E-1,2.6355907E-1,3.1658718E-1,0E0,0E0,0E0,9.6301876E-2,0E0,0E0,6.610225E-2,9.654176E-2,9.598845E-2,3.504117E-1,3.44453E-2,0E0,0E0,2.4526891E-1,7.0916104E-1,0E0,1.02943994E-1,4.808854E-1,0E0,1.453993E-1,0E0,0E0,0E0,0E0,0E0,0E0,0E0,0E0,0E0,0E0,0E0,0E0,0E0,0E0,0E0,0E0,0E0,0E0,0E0,0E0],"parents":[2147483647,0,0,1,1,2,2,3,3,4,4,5,5,6,6,7,7,8,8,10,10,11,11,12,12,14,14,15,15,16,16,17,17,18,18,19,19,20,20,24,24,27,27,28,28,29,29,30,30,31,31,34,34,35,35,37,37,38,38,40,40],"right_children":[2,4,6,8,10,12,14,16,18,-1,20,22,24,-1,26,28,30,32,34,36,38,-1,-1,-1,40,-1,-1,42,44,46,48,50,-1,-1,52,54,-1,56,58,-1,60,-1,-1,-1,-1,-1,-1,-1,-1,-1,-1,-1,