{"learner":{"attributes":{},"feature_names":["Weight","Cube","Quantity","aisle_33","aisle_34","aisle_35","aisle_36","aisle_other","level_2","level_3","level_4","level_5+","level_nan","UoM_CA","UoM_CS","UoM_EA","UoM_PK","UoM_other","t25_products_1","t25_50_products_1","t50_75_products_1","other_products_1","worker_effect"],"feature_types":["float","float","float","float","float","float","float","float","float","float","float","float","float","float","float","float","float","float","float","float","float","float","float"],"gradient_booster":{"model":{"cats":{"enc":[],"feature_segments":[],"sorted_idx":[]},"gbtree_model_param":{"num_parallel_tree":"1","num_trees":"10"},"iteration_indptr":[0,1,2,3,4,5,6,7,8,9,10],"tree_info":[0,0,0,0,0,0,0,0,0,0],"trees":[{"base_weights":[-4.8372228E-4,-6.1512645E-3,7.583958E-2,-1.0884875E-2,2.3930777E-2,4.497819E-2,2.50625E-1,-8.696452E-3,-2.2868998E-2,1.5795457E-1,1.7606407E-2,-1.2941153E-2,7.862072E-2,1.3709679E-1,1.7325E-2,-1.2118661E-2,4.5664445E-3,-7.4814283E-4,-1.185895E-2,4.821431E-2,3.1111112E-1,1.2833357E-2,1.1904764E-1,8.888891E-2,-7.40259E-4,5.2136775E-2,1.8275864E-1,2.394737E-1,-6.92307E-4,-1.2904761E-2,4.2500023E-2,4.8897084E-2,-1.78945E-3,1.7708356E-2,-7.3636294E-4,-6.8181753E-4,6.9375006E-3,5.4000006E-3,1.14E-2,4.485318E-3,3.828831E-2,-6.9999933E-4,1.2214286E-2,-6.249994E-4,6.9375006E-3,1.44375E-2,3.662283E-2,1.74E-2,9.600002E-2,3.6153847E-1,-6.428565E-4,-4.528839E-4,9.3000715E-5,3.8888957E-4,6.9375006E-3,6.9047685E-4,9.375E-3,-4.8119397E-4,3.330007E-4,-7.1428507E-4,6.9375006E-3,2.4276322E-3,-1.5346463E-4,-2.7692236E-4,3.0957453E-3,1.05634506E-4,2.676137E-3,6.8437504E-3,9.58334E-4,6.0000005E-3,1.74E-2],"categories":[],"categories_nodes":[],"categories_segments":[],"categories_sizes":[],"default_left":[0,0,0,0,0,0,0,0,0,0,0,0,0,0,0,0,0,0,0,0,0,0,0,0,0,0,0,0,0,0,0,0,0,0,0,0,0,0,0,0,0,0,0,0,0,0,0,0,0,0,0,0,0,0,0,0,0,0,0,0,0,0,0,0,0,0,0,0,0,0,0],"id":0,"left_children":[1,3,5,7,9,11,13,15,17,19,21,23,25,27,-1,29,31,-1,33,35,37,39,41,43,-1,45,47,49,-1,51,53,55,57,59,-1,-1,-1,-1,-1,61,63,-1,-1,-1,-1,-1,65,-1,67,69,-1,-1,-1,-1,-1,-1,-1,-1,-1,-1,-1,-1,-1,-1,-1,-1,-1,-1,-1,-1,-1],"loss_changes":[1.6770905E0,5.1417005E-1,1.4343518E0,8.160105E-2,4.1339853E-1,4.472361E-1,1.4052081E0,1.1983535E-1,1.066187E-2,3.547637E-1,2.2603872E-1,1.0375893E-1,3.90379E-1,5.138671E-1,0E0,9.062773E-2,1.5280187E-1,0E0,2.9692855E-2,1.8704343E-1,1.2888849E-2,9.545279E-2,8.7090474E-1,1.453993E-1,0E0,7.6127225E-1,9.437793E-1,6.128397E-1,0E0,7.261154E-2,1.6425577E-1,4.5672774E-1,8.7425806E-2,2.1828498E-1,0E0,0E0,0E0,0E0,0E0,2.499212E-1,3.4329188E-1,0E0,0E0,0E0,0E0,0E0,1.9810791E-1,0E0,2.0429619E-1,3.4276938E-1,0E0,0E0,0E0,0E0,0E0,0E0,0E0,0E0,0E0,0E0,0E0,0E0,0E0,0E0,0E0,0E0,0E0,0E0,0E0,0E0,0E0],"parents":[2147483647,0,0,1,1,2,2,3,3,4,4,5,5,6,6,7,7,8,8,9,9,10,10,11,11,12,12,13,13,15,15,16,16,18,18,19,19,20,20,21,21,22,22,23,23,25,25,26,26,27,27,29,29,30,30,31,31,32,32,33,33,39,39,40,40,46,46,48,48,49,49],"right_children":[2,4,6,8,10,12,14,16,18,20,22,24,26,28,-1,30,32,-1,34,36,38,40,42,44,-1,46,48,50,-1,52,54,56,58,60,-1,-1,-1,-1,-1,62,64,-1,-1,-1,-1,-1,66,-1,68,70,-1,-1,-1,-1,-1,-1,-1,-1,-1,-1,-1,-1,-1,-1,-1,-1,-1,-1,-1,-1,-1],"split_conditions":[1.1E1,1.701E1,1.447E0,1.393E0,6.77E-1,3.4E-2,2.6E1,7.44E-1,1E0,3E0,3.85E1,1E-3,1E0,1.8E1,3.6954455E0,1.462E1,4E0,-2.7475445E0,1.6E0,2.165E1,1.88E1,1E0,1E0,1E0,-5.0017085E0,3.9E-2,1.3E1,1E0,-6.786447E-1,6E0,4E0,1E0,1.01E0,1.574E0,-1.0764385E0,-3.9636447E0,4.0606475E-1,2.3794353E0,3.4956756E0,1.854E1,2.1E1,-3.6308248E0,2.4223351E0,-4.608945E0,1.1901453E0,2.6944354E0,7.5E0,1.8730352E0,1.6E1,1.91496E1,-6.239565E0,-2.644797E0,7.852103E-1,1.9829553E0,1.3206455E0,1.3047903E0,6.179553E-1,-1.9388516E0,8.193392E-1,-5.490345E0,2.785155E0,1.5680548E0,-3.5714307E-1,7.422593E-1,3.7681072E0,1.3597323E0,2.1866772E0,4.0401454E0,1.1022455E0,9.16755E-1,2.3432555E0],"split_indices":[2,0,1,1,1,1,2,1,8,2,0,1,8,2,0,0,0,0,1,0,0,8,20,20,0,1,2,18,0,2,2,18,1,1,0,0,0,0,0,0,0,0,0,0,0,0,0,0,2,0,0,0,0,0,0,0,0,0,0,0,0,0,0,0,0,0,0,0,0,0,0],"split_type":[0,0,0,0,0,0,0,0,0,0,0,0,0,0,0,0,0,0,0,0,0,0,0,0,0,0,0,0,0,0,0,0,0,0,0,0,0,0,0,0,0,0,0,0,0,0,0,0,0,0,0,0,0,0,0,0,0,0,0,0,0,0,0,0,0,0,0,0,0,0,0],"sum_hessian":[3.875E3,3.608E3,2.67E2,3.118E3,4.9E2,2.28E2,3.9E1,2.638E3,4.8E2,2.1E1,4.69E2,8.4E1,1.44E2,3E1,9E0,2.097E3,5.41E2,4.03E2,7.7E1,1.3E1,8E0,4.49E2,2E1,8E0,7.6E1,1.16E2,2.8E1,1.8E1,1.2E1,2.068E3,2.9E1,6.7E1,4.74E2,2.3E1,5.4E1,1E1,3E0,4E0,4E0,3.39E2,1.1E2,1.4E1,6E0,5E0,3E0,3E0,1.13E2,4E0,2.4E1,1.2E1,6E0,1.819E3,2.49E2,2.6E1,3E0,6.2E1,5E0,2.25E2,2.49E2,2E1,3E0,3.7E1,3.02E2,6.4E1,4.6E1,7E1,4.3E1,7E0,1.7E1,8E0,4E0],"tree_param":{"num_deleted":"0","num_feature":"23","num_nodes":"71","size_leaf_vector":"1"}},{"base_weights":[2.4002325E-3,-3.6984913E-3,8.452833E-2,-1.6270084E-2,5.3296676E-3,5.8078628E-2,2.4594598E-1,-1.2315377E-2,-2.3119243E-2,-2.5914682E-4,1.3818205E-2,-1.7241144E-3,9.4055966E-2,1.544643E-1,4.7750002E-1,-1.7324816E-2,1.1737828E-2,-7.483436E-4,-1.3978471E-2,-2.1224252E-3,7.583336E-2,6.6641807E-3,4.305558E-2,2.2812502E-1,-7.4062427E-4,5.5250023E-2,1.8011366E-1,2.541667E-1,-6.8181753E-4,2.19375E-2,2.6428574E-1,-1.3801091E-2,-7.4697507E-4,7.317075E-2,-8.669331E-3,-7.3828053E-4,9.16669E-3,-1.40054505E-2,7.4852747E-3,1.7708356E-2,2.6428574E-1,-5.7534007E-3,2.1750024E-2,2.278914E-2,2.2656253E-1,-5.6249945E-4,1.14E-2,1.3355266E-1,7.1428805E-3,2.8906253E-1,1.1379313E-1,3.9375E-1,-6.428565E-4,-5.6249945E-4,1.44375E-2,-5.132346E-4,1.3448283E-3,1.0367654E-3,6.8437504E-3,-7.4096315E-4,6.964292E-4,-7.0312433E-4,1.3000006E-3,3.4337418E-4,-5.552568E-4,-5.445473E-5,4.4880388E-4,6.9375006E-3,-7.1428507E-4,1.44375E-2,-5.6249945E-4,3.0937504E-3,-2.45111E-4,8.935554E-4,-7.3333265E-4,-7.199993E-4,9.6341537E-4,1.1325001E-2,-6.428565E-4,1.1718756E-3,5.8043483E-3,2.447369E-3,-7.3333265E-4,1.0846154E-2,-5.6249945E-4,-6.8181753E-4,5.6052636E-3,1.65E-2,4.3750005E-3],"categories":[],"categories_nodes":[],"categories_segments":[],"categories_sizes":[],"default_left":[0,0,0,0,0,0,0,0,0,0,0,0,0,0,0,0,0,0,0,0,0,0,0,0,0,0,0,0,0,0,0,0,0,0,0,0,0,0,0,0,0,0,0,0,0,0,0,0,0,0,0,0,0,0,0,0,0,0,0,0,0,0,0,0,0,0,0,0,0,0,0,0,0,0,0,0,0,0,0,0,0,0,0,0,0,0,0,0,0],"id":1,"left_children":[1,3,5,7,9,11,13,15,17,19,21,23,25,27,29,31,33,-1,35,37,39,41,43,45,-1,47,49,51,-1,-1,53,55,-1,57,59,-1,61,63,65,67,69,71,73,75,77,-1,-1,79,81,83,85,87,-1,-1,-1,-1,-1,-1,-1,-1,-1,-1,-1,-1,-1,-1,-1,-1,-1,-1,-1,-1,-1,-1,-1,-1,-1,-1,-1,-1,-1,-1,-1,-1,-1,-1,-1,-1,-1],"loss_changes":[1.9201725E0,4.0516227E-1,1.1171196E0,4.012817E-2,9.858571E-2,4.928655E-1,7.100127E-1,1.14430785E-1,8.7457E-3,1.7795496E-1,1.722741E-1,4.648273E-1,4.676044E-1,5.004362E-1,3.4777212E-1,2.0607993E-2,2.0623647E-1,0E0,2.3108555E-2,1.3996129E-1,3.2393378E-1,1.2451205E-1,5.9732014E-1,3.0707812E-1,0E0,3.7573764E-1,2.8503072E-1,7.008705E-1,0E0,0E0,4.3888393E-1,1.05068505E-1,0E0,2.3742254E-1,6.3946895E-2,0E0,3.4434896E-2,6.301802E-2,4.7161303E-2,2.1828498E-1,4.3888393E-1,9.689432E-2,1.1208196E-1,6.490606E-2,6.0698766E-1,0E0,0E0,2.076127E-1,1.5012197E-1,3.637228E-1,2.9345402E-1,3.8463533E-1,0E0,0E0,0E0,0E0,0E0,0E0,0E0,0E0,0E0,0E0,0E0,0E0,0E0,0E0,0E0,0E0,0E0,0E0,0E0,0E0,0E0,0E0,0E0,0E0,0E0,0E0,0E0,0E0,0E0,0E0,0E0,0E0,0E0,0E0,0E0,0E0,0E0],"parents":[2147483647,0,0,1,1,2,2,3,3,4,4,5,5,6,6,7,7,8,8,9,9,10,10,11,11,12,12,13,13,14,14,15,15,16,16,18,18,19,19,20,20,21,21,22,22,23,23,25,25,26,26,27,27,30,30,31,31,33,33,34,34,36,36,37,37,38,38,39,39,40,40,41,41,42,42,43,43,44,44,47,47,48,48,49,49,50,50,51,51],"right_children":[2,4,6,8,10,12,14,16,18,20,22,24,26,28,30,32,34,-1,36,38,40,42,44,46,-1,48,50,52,-1,-1,54,56,-1,58,60,-1,62,64,66,68,70,72,74,76,78,-1,-1,80,82,84,86,88,-1,-1,-1,-1,-1,-1,-1,-1,-1,-1,-1,-1,-1,-1,-1,-1,-1,-1,-1,-1,-1,-1,-1,-1,-1,-1,-1,-1,-1,-1,-1,-1,-1,-1,-1,-1,-1],"split_conditions":[1.1E1,1E0,1.447E0,1E0,3E0,3.4E-2,2.6E1,5.59E-1,1E0,1E0,1E0,1E-3,2.5E1,1.8E1,3.4E1,1.6E-1,6.77E-1,-2.6990926E0,1E0,1E0,2.4E-1,8.54E-1,1E0,2.4E1,-5.4146004E0,1.4E1,2.61E-1,1E0,-6.582852E-1,3.1558812E0,4E1,1.53E-1,-3.3309202E0,5E0,1E0,-4.7261767E0,9.09E-1,4E-2,1.01E0,1E-2,3.37E-1,1E-3,1E0,5.64E-1,1.278E0,-4.11296E0,1.3601239E0,1E0,2.53E-1,1E0,6.6E-1,1E0,-1.6486478E0,-4.0259976E0,3.5845823E0,-4.669769E0,3.7674985E0,1.4921795E0,1.5009989E0,-6.9967804E0,9.091471E-1,-7.3698807E0,1.970722E0,8.603249E-1,-1.9398104E0,1.036109E-1,8.992737E-1,1.4128894E0,-1.5230072E-1,2.7323189E0,-6.314888E0,4.091378E0,-1.0665314E0,2.5128396E0,-5.403363E-1,-2.3441014E0,2.249027E0,4.0110645E0,-2.981717E-1,2.6136026E0,1.8168439E0,3.9189413E0,-1.7444395E-1,3.3916736E0,-7.0911374E0,-5.5074555E-1,2.229744E0,2.2729578E0,8.892526E-1],"split_indices":[2,7,1,13,2,1,2,1,4,15,14,1,2,2,2,1,1,0,19,13,1,1,21,2,0,2,1,18,0,0,2,1,0,2,21,0,1,1,1,1,1,1,21,1,1,0,0,13,1,11,1,19,0,0,0,0,0,0,0,0,0,0,0,0,0,0,0,0,0,0,0,0,0,0,0,0,0,0,0,0,0,0,0,0,0,0,0,0,0],"split_type":[0,0,0,0,0,0,0,0,0,0,0,0,0,0,0,0,0,0,0,0,0,0,0,0,0,0,0,0,0,0,0,0,0,0,0,0,0,0,0,0,0,0,0,0,0,0,0,0,0,0,0,0,0,0,0,0,0,0,0,0,0,0,0,0,0,0,0,0,0,0,0,0,0,0,0,0,0,0,0,0,0,0,0,0,0,0,0,0,0],"sum_hessian":[3.832E3,3.568E3,2.64E2,1.491E3,2.077E3,2.28E2,3.6E1,9.47E2,5.44E2,1.253E3,8.24E2,8.6E1,1.42E2,2.7E1,9E0,7.84E2,1.63E2,4.52E2,9.2E1,1.224E3,2.9E1,6.63E2,1.61E2,7E0,7.9E1,9.9E1,4.3E1,1.7E1,1E1,3E0,6E0,5.37E2,2.47E2,4E1,1.23E2,6.3E1,2.9E1,5.47E2,6.77E2,2.3E1,6E0,3.64E2,2.99E2,1.46E2,1.5E1,3E0,4E0,3.7E1,6.2E1,1.5E1,2.8E1,1.1E1,6E0,3E0,3E0,5.09E2,2.8E1,3.3E1,7E0,8.2E1,4.1E1,1.5E1,1.4E1,8.2E1,4.65E2,3.02E2,3.75E2,3E0,2E1,3E0,3E0,7E0,3.57E2,2.55E2,4.4E1,2.4E1,1.22E2,9E0,6E0,1.5E1,2.2E1,1.8E1,4.4E1,1.2E1,3E0,1E1,1.8E1,6E0,5E0],"tree_param":{"num_deleted":"0","num_feature":"23","num_nodes":"89","size_leaf_vector":"1"}},{"base_weights":[8.492457E-5,-5.0882855E-3,7.051529E-2,-9.667404E-3,2.2954116E-2,1.4379108E-2,1.4795457E-1,-1.12150945E-2,8.860784E-3,4.9253968E-3,5.898206E-2,4.379586E-3,9.411767E-2,1.031977E-1,2.9600003E-1,-9.906214E-3,-1.965697E-2,6.063832E-2,-3.9266776E-3,2.1837587E-3,6.9375006E-3,4.9689464E-2,2.6428574E-1,-7.39285E-4,3.41912E-2,-6.749993E-4,6.8437504E-3,1.3028172E-1,-7.0312433E-4,1.8684213E-1,1.65E-2,-1.182115E-2,-4.358138E-3,-2.220706E-2,5.3846177E-2,-7.0833263E-4,1.0916669E-1,-1.3428547E-2,9.411767E-2,4.482761E-2,-1.8914236E-3,6.609851E-2,-7.249993E-4,-5.6249945E-4,1.44375E-2,5.885419E-2,-7.1428507E-4,1.14E-2,1.09701514E-1,2.6250002E-1,-6.249994E-4,-3.067336E-4,-7.462114E-4,-2.223677E-4,7.137104E-4,-7.478379E-4,7.142864E-4,5.4000006E-3,-6.66666E-4,1.44375E-2,1.5000007E-3,-7.439509E-4,4.1826992E-4,-6.749993E-4,6.8437504E-3,2.2875008E-3,-6.749993E-4,-1.3310507E-4,1.8125005E-3,1.2382083E-3,4.8333337E-3,8.4868487E-4,4.772728E-3,5.3125067E-4,4.7215917E-3,5.3250007E-3,1.14E-2],"categories":[],"categories_nodes":[],"categories_segments":[],"categories_sizes":[],"default_left":[0,0,0,0,0,0,0,0,0,0,0,0,0,0,0,0,0,0,0,0,0,0,0,0,0,0,0,0,0,0,0,0,0,0,0,0,0,0,0,0,0,0,0,0,0,0,0,0,0,0,0,0,0,0,0,0,0,0,0,0,0,0,0,0,0,0,0,0,0,0,0,0,0,0,0,0,0],"id":2,"left_children":[1,3,5,7,9,11,13,15,17,19,21,23,25,27,29,31,33,35,37,39,-1,41,43,-1,45,-1,-1,47,-1,49,-1,51,53,55,57,-1,59,61,63,65,67,69,-1,-1,-1,71,-1,-1,73,75,-1,-1,-1,-1,-1,-1,-1,-1,-1,-1,-1,-1,-1,-1,-1,-1,-1,-1,-1,-1,-1,-1,-1,-1,-1,-1,-1],"loss_changes":[1.3950948E0,4.5825848E-1,1.1368245E0,8.80484E-2,3.2512787E-1,1.2158197E-1,6.983192E-1,3.1086147E-2,1.5715659E-1,2.0736259E-1,3.0547106E-1,1.19375676E-1,2.7080238E-1,2.980153E-1,5.9038925E-1,2.6009679E-2,7.223545E-2,1.9473642E-1,1.7920034E-1,5.7780236E-2,0E0,1.9671458E-1,4.3888393E-1,0E0,9.8673284E-2,0E0,0E0,3.2320035E-1,0E0,3.0400229E-1,0E0,3.77388E-2,5.4422665E-2,4.6543837E-2,1.2875213E-1,0E0,6.363854E-1,5.4806076E-2,2.7080238E-1,6.306788E-2,4.8482418E-2,3.0469602E-1,0E0,0E0,0E0,1.4255728E-1,0E0,0E0,2.911206E-1,7.237494E-2,0E0,0E0,0E0,0E0,0E0,0E0,0E0,0E0,0E0,0E0,0E0,0E0,0E0,0E0,0E0,0E0,0E0,0E0,0E0,0E0,0E0,0E0,0E0,0E0,0E0,0E0,0E0],"parents":[2147483647,0,0,1,1,2,2,3,3,4,4,5,5,6,6,7,7,8,8,9,9,10,10,11,11,12,12,13,13,14,14,15,15,16,16,17,17,18,18,19,19,21,21,22,22,24,24,27,27,29,29,31,31,32,32,33,33,34,34,36,36,37,37,38,38,39,39,40,40,41,41,45,45,48,48,49,49],"right_children":[2,4,6,8,10,12,14,16,18,20,22,24,26,28,30,32,34,36,38,40,-1,42,44,-1,46,-1,-1,48,-1,50,-1,52,54,56,58,-1,60,62,64,66,68,70,-1,-1,-1,72,-1,-1,74,76,-1,-1,-1,-1,-1,-1,-1,-1,-1,-1,-1,-1,-1,-1,-1,-1,-1,-1,-1,-1,-1,-1,-1,-1,-1,-1,-1],"split_conditions":[1.1E1,1.701E1,3.75E0,7E0,3E0,1E0,2.6E1,1E0,8E0,1E0,3.85E1,1.5E-1,4.4E1,2E1,1E0,1E0,6E0,1E0,1E0,1.78E1,3.4911713E-1,2.775E1,1E0,-4.2578583E0,1.4E0,-1.8222564E-1,1.3193197E0,4.05E0,-1.6181213E-1,5E1,3.4770446E0,5E0,5E0,1E0,3.15E-1,-3.6245286E0,7E-1,5.75E0,1E0,2E0,3.85E1,2.561E1,-4.9242552E-2,-3.5056896E0,2.2742798E0,9.5E-1,-1.5079046E0,8.6257505E-1,7.5E0,1.113E1,-5.34223E-1,-1.5242814E0,-1.7476859E0,-6.3059527E-1,1.2145334E0,-5.290158E0,3.7854931E0,1.0341916E0,-8.236671E0,3.968637E0,3.4259949E0,-3.2514777E0,2.9733856E0,-7.7809186E0,1.6218997E0,1.6365298E0,-5.871002E-2,-4.2780247E-1,1.6916968E0,2.4132826E0,3.878994E0,3.801373E0,1.4638623E0,1.2511926E0,2.2231283E0,1.507251E-1,1.1644528E0],"split_indices":[2,0,0,2,2,10,2,6,2,4,0,0,2,2,14,20,2,7,9,0,0,0,20,0,0,0,0,0,0,2,0,2,2,17,0,0,0,0,13,2,0,0,0,0,0,0,0,0,0,0,0,0,0,0,0,0,0,0,0,0,0,0,0,0,0,0,0,0,0,0,0,0,0,0,0,0,0],"split_type":[0,0,0,0,0,0,0,0,0,0,0,0,0,0,0,0,0,0,0,0,0,0,0,0,0,0,0,0,0,0,0,0,0,0,0,0,0,0,0,0,0,0,0,0,0,0,0,0,0,0,0,0,0,0,0,0,0,0,0,0,0,0,0,0,0,0,0,0,0,0,0,0,0,0,0,0,0],"sum_hessian":[3.827E3,3.566E3,2.61E2,3.066E3,5E2,1.52E2,1.09E2,2.83E3,2.36E2,3.34E2,1.66E2,1.36E2,1.6E1,8.5E1,2.4E1,2.452E3,3.78E2,4.6E1,1.9E2,3.31E2,3E0,1.6E2,6E0,6.9E1,6.7E1,9E0,7E0,7E1,1.5E1,1.8E1,6E0,1.822E3,6.3E2,3.66E2,1.2E1,1.7E1,2.9E1,1.74E2,1.6E1,2.8E1,3.03E2,1.31E2,2.9E1,3E0,3E0,4.7E1,2E1,4E0,6.6E1,1.3E1,5E0,1.625E3,1.97E2,5.69E2,6.1E1,3.46E2,2E1,4E0,8E0,3E0,2.6E1,1.23E2,5.1E1,9E0,7E0,1.9E1,9E0,2.92E2,1.1E1,1.05E2,2.6E1,3.7E1,1E1,2.3E1,4.3E1,9E0,4E0],"tree_param":{"num_deleted":"0","num_feature":"23","num_nodes":"77","size_leaf_vector":"1"}},{"base_weights":[-2.3850118E-4,-1.5337597E-2,9.864482E-3,-1.6695417E-2,3.009283E-3,5.358887E-3,4.738958E-2,1.1818205E-2,-1.7808441E-2,-7.3369493E-4,2.3015896E-2,-8.756733E-3,1.6688392E-2,2.9579232E-2,1.2135419E-1,-7.285707E-4,7.14286E-2,-2.074522E-2,-1.1581268E-2,6.9375006E-3,8.750023E-3,-1.5876599E-2,2.6442332E-2,1.1000002E-1,1.5443785E-2,1.8378401E-2,1.4305557E-1,2.6770836E-1,-7.199993E-4,2.0000002E-1,-6.92307E-4,-2.3697563E-2,-6.0937265E-3,4.3750005E-3,-1.3682408E-2,-7.211531E-4,3.2857165E-2,-1.8956432E-2,3.8095475E-3,2.0000002E-1,1.5709484E-2,5.3250007E-3,-6.249994E-4,1.7853841E-2,-7.384608E-4,2.7110413E-2,-7.265618E-4,-6.964279E-4,1.74E-2,1.9375E-2,1.3421054E-1,-5.6249945E-4,9.375E-3,-5.222215E-4,-7.488507E-4,1.3106866E-4,-7.3706824E-4,4.7635203E-4,-5.8625266E-4,6.9375006E-3,2.1093819E-4,-7.475877E-4,-4.108139E-4,-4.2631506E-4,4.772728E-3,1.44375E-2,-6.249994E-4,1.3138757E-4,4.312501E-3,2.1733025E-4,8.4186543E-4,1.1019238E-3,-7.199993E-4,-6.66666E-4,7.5000008E-3],"categories":[],"categories_nodes":[],"categories_segments":[],"categories_sizes":[],"default_left":[0,0,0,0,0,0,0,0,0,0,0,0,0,0,0,0,0,0,0,0,0,0,0,0,0,0,0,0,0,0,0,0,0,0,0,0,0,0,0,0,0,0,0,0,0,0,0,0,0,0,0,0,0,0,0,0,0,0,0,0,0,0,0,0,0,0,0,0,0,0,0,0,0,0,0],"id":3,"left_children":[1,3,5,7,9,11,13,15,17,-1,19,21,23,25,27,-1,29,31,33,-1,35,37,39,41,43,45,47,49,-1,51,-1,53,55,-1,57,-1,59,61,63,65,67,-1,-1,69,-1,71,-1,-1,-1,-1,73,-1,-1,-1,-1,-1,-1,-1,-1,-1,-1,-1,-1,-1,-1,-1,-1,-1,-1,-1,-1,-1,-1,-1,-1],"loss_changes":[5.9172434E-1,3.878805E-2,3.9267147E-1,4.616466E-2,5.99086E-2,3.3214626E-1,3.2442695E-1,1.20103896E-1,2.5252968E-2,0E0,1.8512698E-1,2.322365E-1,1.3209024E-1,2.5411877E-1,1.0275381E0,0E0,2.597802E-1,4.0775985E-2,1.5050223E-1,0E0,4.8216004E-2,4.6757355E-2,2.8744996E-1,1.3616668E-1,1.10307455E-1,6.9468915E-2,1.3211766E0,1.1248149E0,0E0,2.2734374E-1,0E0,5.823374E-3,3.1035386E-2,0E0,7.72142E-2,0E0,1.7770256E-1,2.0559117E-2,2.960695E-1,5.6901044E-1,2.1407202E-1,0E0,0E0,1.1611667E-1,0E0,7.6603554E-2,0E0,0E0,0E0,0E0,3.497076E-1,0E0,0E0,0E0,0E0,0E0,0E0,0E0,0E0,0E0,0E0,0E0,0E0,0E0,0E0,0E0,0E0,0E0,0E0,0E0,0E0,0E0,0E0,0E0,0E0],"parents":[2147483647,0,0,1,1,2,2,3,3,4,4,5,5,6,6,7,7,8,8,10,10,11,11,12,12,13,13,14,14,16,16,17,17,18,18,20,20,21,21,22,22,23,23,24,24,25,25,26,26,27,27,29,29,31,31,32,32,34,34,36,36,37,37,38,38,39,39,40,40,43,43,45,45,50,50],"right_children":[2,4,6,8,10,12,14,16,18,-1,20,22,24,26,28,-1,30,32,34,-1,36,38,40,42,44,46,48,50,-1,52,-1,54,56,-1,58,-1,60,62,64,66,68,-1,-1,70,-1,72,-1,-1,-1,-1,74,-1,-1,-1,-1,-1,-1,-1,-1,-1,-1,-1,-1,-1,-1,-1,-1,-1,-1,-1,-1,-1,-1,-1,-1],"split_conditions":[1E0,2.7742369E1,2.275E1,1E-3,1.21E0,-7.972466E-1,1E0,5.085737E0,5.59E-1,-1.074594E0,6.5E-2,1.653E0,1E-3,3.85E1,2.64E1,-1.3072266E-1,1E0,1E0,5.64E-1,3.6719284E0,3.25E0,1E0,1.711E0,1E0,2.8329245E1,1E0,1E0,-9.557289E0,-4.9044003E0,1E0,-3.8618352E0,-1.3692654E1,1.6E0,1.4931427E0,3.94E0,-4.8985333E0,3.45E0,3.7E0,1E0,1E0,1E0,3.8495781E0,-1.016979E1,5.75E0,-9.595106E-1,3.08E1,-1.56958E-1,-3.4005194E0,2.2060509E0,3.1980753E0,1E0,-9.951383E0,3.5177214E0,-6.595667E0,-3.244708E0,6.355881E-1,-6.0925E0,1.5002029E0,-3.3863053E0,7.629556E-1,1.4793805E0,-2.0100365E0,-1.3620573E0,-2.564447E-1,3.1758828E0,3.056683E0,-1.9786724E0,6.7131585E-1,1.5176247E0,5.8665067E-1,2.0571394E0,2.4140975E0,-1.7178543E0,-5.512062E0,1.8266684E0],"split_indices":[7,22,0,1,0,22,8,22,1,0,1,1,1,0,0,0,20,9,1,0,0,9,1,13,22,9,20,22,0,15,0,22,0,0,0,0,0,0,15,9,9,0,0,0,0,0,0,0,0,0,18,0,0,0,0,0,0,0,0,0,0,0,0,0,0,0,0,0,0,0,0,0,0,0,0],"split_type":[0,0,0,0,0,0,0,0,0,0,0,0,0,0,0,0,0,0,0,0,0,0,0,0,0,0,0,0,0,0,0,0,0,0,0,0,0,0,0,0,0,0,0,0,0,0,0,0,0,0,0,0,0,0,0,0,0,0,0,0,0,0,0,0,0,0,0,0,0,0,0,0,0,0,0],"sum_hessian":[3.877E3,1.554E3,2.323E3,1.447E3,1.07E2,2.075E3,2.48E2,5.4E1,1.393E3,4.5E1,6.2E1,9.24E2,1.151E3,2.01E2,4.7E1,3.4E1,2E1,9.45E2,4.48E2,3E0,5.9E1,7.69E2,1.55E2,1.4E1,1.137E3,1.84E2,1.7E1,2.3E1,2.4E1,8E0,1.2E1,7.86E2,1.59E2,5E0,4.43E2,2.5E1,3.4E1,6.65E2,1.04E2,8E0,1.47E2,9E0,5E0,1.073E3,6.4E1,1.53E2,3.1E1,1.3E1,4E0,5E0,1.8E1,3E0,5E0,1.34E2,6.52E2,1.02E2,5.7E1,7.3E1,3.7E2,3E0,3.1E1,3.1E2,3.55E2,9.4E1,1E1,3E0,5E0,1.36E2,1.1E1,5.27E2,5.46E2,1.29E2,2.4E1,8E0,1E1],"tree_param":{"num_deleted":"0","num_feature":"23","num_nodes":"75","size_leaf_vector":"1"}},{"base_weights":[-1.948709E-5,-4.847486E-3,6.365316E-2,-9.617289E-3,1.9639818E-2,8.724856E-3,1.2967482E-1,-1.7798109E-2,-2.4984146E-3,1.1857145E-1,1.3296927E-2,-1.4749977E-2,5.5500023E-2,1.9117649E-1,8.493153E-2,-2.014893E-2,1.6556528E-3,-9.25067E-3,1.1516338E-2,5.288464E-2,2.7750003E-1,8.94541E-3,1.3421054E-1,-7.4038387E-4,1.956524E-2,1.2820745E-3,2.2708336E-1,1.1193184E-1,1.809375E-2,-7.159084E-4,1.2932694E-1,-2.236496E-2,6.842129E-3,4.0760893E-2,-1.5330165E-2,2.1802349E-2,-1.1922667E-2,3.1111112E-1,6.2378407E-3,-7.0833263E-4,2.0000002E-1,-5.6249945E-4,1.2214286E-2,-1.729321E-2,1.7669197E-2,-6.8181753E-4,3.1111112E-1,8.888891E-2,-6.9999933E-4,-7.285707E-4,5.4000006E-3,3.1111112E-1,-5.6249945E-4,1.4375E-2,5.2564126E-2,2.6190478E-1,3.8281273E-2,-6.9472176E-4,-1.349993E-4,-8.96732E-5,6.9375006E-3,3.8462233E-5,6.8437504E-3,-7.410707E-4,5.8695715E-4,-2.8409017E-4,3.571429E-3,-4.7199696E-4,4.0076405E-4,-5.6249945E-4,1.4375E-2,-2.0401482E-4,1.3652351E-3,1.14E-2,-5.999994E-4,-7.436433E-4,1.1718756E-3,4.772728E-3,4.0874106E-4,1.4375E-2,-5.6249945E-4,-6.249994E-4,6.9375006E-3,4.3750005E-3,1.44375E-2,-7.0833263E-4,3.3750006E-3,9.2916675E-3,-5.6249945E-4,-7.222215E-4,9.375E-3],"categories":[],"categories_nodes":[],"categories_segments":[],"categories_sizes":[],"default_left":[0,0,0,0,0,0,0,0,0,0,0,0,0,0,0,0,0,0,0,0,0,0,0,0,0,0,0,0,0,0,0,0,0,0,0,0,0,0,0,0,0,0,0,0,0,0,0,0,0,0,0,0,0,0,0,0,0,0,0,0,0,0,0,0,0,0,0,0,0,0,0,0,0,0,0,0,0,0,0,0,0,0,0,0,0,0,0,0,0,0,0],"id":4,"left_children":[1,3,5,7,9,11,13,15,17,19,21,23,25,27,29,31,33,35,37,39,41,43,45,-1,47,49,51,53,-1,-1,55,57,59,61,63,65,67,69,71,-1,73,-1,-1,75,77,-1,79,81,-1,-1,-1,83,-1,-1,85,87,89,-1,-1,-1,-1,-1,-1,-1,-1,-1,-1,-1,-1,-1,-1,-1,-1,-1,-1,-1,-1,-1,-1,-1,-1,-1,-1,-1,-1,-1,-1,-1,-1,-1,-1],"loss_changes":[1.1819981E0,4.1763067E-1,9.816388E-1,1.7420432E-1,3.6426318E-1,1.6442648E-1,3.2223272E-1,6.369272E-2,1.5161107E-1,3.507074E-1,2.8766E-1,3.4556113E-2,4.648537E-1,1.5973718E0,3.5567665E-1,7.444072E-2,1.0092428E-1,8.9954376E-2,8.219742E-1,2.9731837E-1,3.917008E-1,1.2185152E-1,5.345561E-1,0E0,7.0473425E-2,1.8257874E-1,2.5371528E-1,9.3409646E-1,0E0,0E0,6.1764705E-1,1.6147852E-2,2.1028088E-1,3.3996558E-1,3.515023E-2,2.6265824E-1,9.6161515E-2,5.0789934E-1,2.6297334E-1,0E0,3.6399996E-1,0E0,0E0,5.7144925E-2,2.2605224E-1,0E0,5.0789934E-1,1.453993E-1,0E0,0E0,0E0,1.828993E-1,0E0,0E0,1.8071583E-1,2.876314E-1,5.546911E-1,0E0,0E0,0E0,0E0,0E0,0E0,0E0,0E0,0E0,0E0,0E0,0E0,0E0,0E0,0E0,0E0,0E0,0E0,0E0,0E0,0E0,0E0,0E0,0E0,0E0,0E0,0E0,0E0,0E0,0E0,0E0,0E0,0E0,0E0],"parents":[2147483647,0,0,1,1,2,2,3,3,4,4,5,5,6,6,7,7,8,8,9,9,10,10,11,11,12,12,13,13,14,14,15,15,16,16,17,17,18,18,19,19,20,20,21,21,22,22,24,24,25,25,26,26,27,27,30,30,31,31,32,32,33,33,34,34,35,35,36,36,37,37,38,38,40,40,43,43,44,44,46,46,47,47,51,51,54,54,55,55,56,56],"right_children":[2,4,6,8,10,12,14,16,18,20,22,24,26,28,30,32,34,36,38,40,42,44,46,-1,48,50,52,54,-1,-1,56,58,60,62,64,66,68,70,72,-1,74,-1,-1,76,78,-1,80,82,-1,-1,-1,84,-1,-1,86,88,90,-1,-1,-1,-1,-1,-1,-1,-1,-1,-1,-1,-1,-1,-1,-1,-1,-1,-1,-1,-1,-1,-1,-1,-1,-1,-1,-1,-1,-1,-1,-1,-1,-1,-1],"split_conditions":[1.1E1,1.58E1,3.75E0,-7.972466E-1,6.77E-1,3.2E1,5.085737E0,1E0,5.75E0,1E0,3.85E1,1E0,3.15E-1,2.6E1,7.1E0,1E0,2E0,1.9E-2,5.8E0,6.928238E0,4.22E-1,1.065E0,2E0,-1.3756989E0,1.8E-1,1E0,1.4E0,4.625E0,2.9649827E0,-4.7115967E-1,1.113E1,1E0,9E0,-9.557289E0,1E0,1E0,7.44E-1,1.097E0,1E0,-3.0385015E0,1.1433434E1,-1.0757036E1,3.1021326E0,3.02E1,1.133E0,-5.4411335E0,1.943E0,1.5E-1,-2.5956938E-1,-4.6012278E0,1.1742086E0,7.5E-1,-4.4403644E0,1.2545187E0,1.06E1,1.474E0,2.396E0,-2.9019842E0,4.5347515E-1,-2.4980555E-1,1.048471E-1,2.1207917E0,2.6008017E0,-5.6363997E0,1.2010363E0,6.766875E-1,4.1102295E0,-1.7680781E0,2.9285645E-1,-8.328284E0,2.8000734E0,-8.3673656E-1,1.1283088E0,2.1064699E0,-6.653336E0,-1.8585229E0,3.4774795E0,3.8966975E0,6.534449E-1,2.1398695E0,-3.2985039E0,-7.7613077E0,3.6697328E0,3.0806067E0,1.6178164E0,-7.981568E-3,2.4128878E0,3.3110192E0,-6.358154E-2,-2.7786162E-1,2.065653E0],"split_indices":[2,0,0,22,1,2,22,15,0,21,0,8,0,2,0,3,2,1,0,22,1,1,2,0,0,6,0,0,0,0,0,17,2,22,19,7,1,1,14,0,22,0,0,0,1,0,1,0,0,0,0,0,0,0,0,1,1,0,0,0,0,0,0,0,0,0,0,0,0,0,0,0,0,0,0,0,0,0,0,0,0,0,0,0,0,0,0,0,0,0,0],"split_type":[0,0,0,0,0,0,0,0,0,0,0,0,0,0,0,0,0,0,0,0,0,0,0,0,0,0,0,0,0,0,0,0,0,0,0,0,0,0,0,0,0,0,0,0,0,0,0,0,0,0,0,0,0,0,0,0,0,0,0,0,0,0,0,0,0,0,0,0,0,0,0,0,0,0,0,0,0,0,0,0,0,0,0,0,0,0,0,0,0,0,0],"sum_hessian":[3.843E3,3.573E3,2.7E2,2.991E3,5.82E2,1.48E2,1.22E2,1.391E3,1.6E3,3.4E1,5.48E2,9.9E1,4.9E1,5E1,7.2E1,1.241E3,1.5E2,1.08E3,5.2E2,2.5E1,9E0,5.3E2,1.8E1,7.7E1,2.2E1,3.8E1,1.1E1,4.3E1,7E0,2.1E1,5.1E1,1.147E3,9.4E1,4.5E1,1.05E2,8.5E1,9.95E2,8E0,5.12E2,1.7E1,8E0,3E0,6E0,1.32E2,3.98E2,1E1,8E0,8E0,1.4E1,3.4E1,4E0,8E0,3E0,5E0,3.8E1,2E1,3.1E1,1.098E3,4.9E1,9.1E1,3E0,3.8E1,7E0,8.3E1,2.2E1,6.5E1,2E1,8.65E2,1.3E2,3E0,5E0,3.85E2,1.27E2,4E0,4E0,1.17E2,1.5E1,1E1,3.88E2,5E0,3E0,5E0,3E0,5E0,3E0,1.7E1,2.1E1,1.7E1,3E0,2.6E1,5E0],"tree_param":{"num_deleted":"0","num_feature":"23","num_nodes":"91","size_leaf_vector":"1"}},{"base_weights":[-1.0553172E-3,-5.4500173E-3,6.205536E-2,-1.1341246E-2,3.2902915E-2,3.182992E-2,1.5875003E-1,-1.8797226E-2,-4.938066E-3,1.0000024E-2,7.5147085E-2,1.7750002E-1,2.3783807E-2,1.0597829E-1,3.1000003E-1,-2.0042319E-2,2.69231E-2,-2.3166428E-3,-7.461922E-4,7.131434E-3,6.9375006E-3,2.1428573E-1,5.516669E-2,-5.999994E-4,9.375E-3,-7.405056E-4,5.934582E-2,5.9027802E-2,2.5000003E-1,1.4375003E-1,2.19375E-2,-2.252857E-2,-4.2525535E-3,6.9375006E-3,3.4722453E-3,-2.939188E-3,6.9375006E-3,5.4605287E-2,5.454783E-4,6.818184E-2,3.4090912E-1,4.4137955E-2,9.375E-3,9.375E-3,4.3872572E-2,6.8437504E-3,1.0344851E-2,1.44375E-2,1.0312502E-1,7.928572E-3,-6.249994E-4,-5.2140985E-4,-7.490935E-4,-2.723677E-4,5.4000006E-3,-7.199993E-4,1.8125005E-3,-3.4358035E-4,1.612804E-4,1.8181888E-4,9.375E-3,-3.0074187E-4,8.817574E-4,6.9375006E-3,-6.5624935E-4,1.4375E-2,4.3750005E-3,6.0000005E-3,1.0073E-3,2.6000007E-3,2.974145E-4,6.9375006E-3,-7.211531E-4,-5.999994E-4,6.9375006E-3],"categories":[],"categories_nodes":[],"categories_segments":[],"categories_sizes":[],"default_left":[0,0,0,0,0,0,0,0,0,0,0,0,0,0,0,0,0,0,0,0,0,0,0,0,0,0,0,0,0,0,0,0,0,0,0,0,0,0,0,0,0,0,0,0,0,0,0,0,0,0,0,0,0,0,0,0,0,0,0,0,0,0,0,0,0,0,0,0,0,0,0,0,0,0,0],"id":5,"left_children":[1,3,5,7,9,11,13,15,17,19,21,23,25,27,29,31,33,35,-1,37,-1,39,41,-1,-1,-1,43,45,47,49,-1,51,53,-1,55,57,-1,59,61,63,65,67,-1,-1,69,-1,71,-1,73,-1,-1,-1,-1,-1,-1,-1,-1,-1,-1,-1,-1,-1,-1,-1,-1,-1,-1,-1,-1,-1,-1,-1,-1,-1,-1],"loss_changes":[1.0778527E0,8.2123464E-1,7.3437464E-1,1.5029445E-1,4.6752512E-1,2.2316155E-1,4.4605017E-1,8.336699E-2,8.8572085E-2,1.9827363E-1,4.6078616E-1,2.7287495E-1,3.2033005E-1,2.9628998E-1,9.4537497E-1,5.55318E-2,1.8607105E-1,2.1878836E-1,0E0,9.752035E-2,0E0,3.652597E-1,4.1191605E-1,0E0,0E0,0E0,4.0542135E-1,2.9399753E-1,3.2398438E-1,2.4356396E-1,0E0,1.4949203E-2,1.7415279E-1,0E0,5.7768054E-2,1.06036276E-1,0E0,4.7384366E-1,8.414568E-2,1.6659802E-1,2.2679937E-1,2.3196974E-1,0E0,0E0,1.4737079E-1,0E0,2.2582683E-1,0E0,1.3082811E-1,0E0,0E0,0E0,0E0,0E0,0E0,0E0,0E0,0E0,0E0,0E0,0E0,0E0,0E0,0E0,0E0,0E0,0E0,0E0,0E0,0E0,0E0,0E0,0E0,0E0,0E0],"parents":[2147483647,0,0,1,1,2,2,3,3,4,4,5,5,6,6,7,7,8,8,9,9,10,10,11,11,12,12,13,13,14,14,15,15,16,16,17,17,19,19,21,21,22,22,26,26,27,27,28,28,29,29,31,31,32,32,34,34,35,35,37,37,38,38,39,39,40,40,41,41,44,44,46,46,48,48],"right_children":[2,4,6,8,10,12,14,16,18,20,22,24,26,28,30,32,34,36,-1,38,-1,40,42,-1,-1,-1,44,46,48,50,-1,52,54,-1,56,58,-1,60,62,64,66,68,-1,-1,70,-1,72,-1,74,-1,-1,-1,-1,-1,-1,-1,-1,-1,-1,-1,-1,-1,-1,-1,-1,-1,-1,-1,-1,-1,-1,-1,-1,-1,-1],"split_conditions":[1.1E1,1.701E1,1.036E0,-7.972466E-1,3E0,1E-3,2.3E1,1.595E1,1.6E0,1E0,-1.3692654E1,2.4E1,3.4E-2,1E0,1E0,1E0,5.8E-1,1.574E0,-2.589282E0,1.816E1,2.0119812E-1,2.063E0,3.85E1,-3.7047088E0,1.1389828E0,-4.4378333E0,3.9E-2,1.108E0,1.875E1,3.4E1,3.211689E0,1.81E-1,1.752E0,2.5176957E0,1E0,1E0,2.6085205E0,1.1433434E1,3.125E0,8.33E-1,3.125E0,6.19E-1,2.0756736E0,2.5227256E0,2.53E-1,2.0243738E0,3.94E0,1.4046258E0,2.574E0,2.876033E0,-6.1674498E-2,-2.2979777E0,-3.1010432E0,-7.727052E-1,1.559155E0,-2.0646808E0,1.3255655E0,-2.31177E0,5.1044536E-1,7.602264E-2,1.408819E0,-4.2642823E-1,2.6129732E0,3.0090683E0,-4.7074566E0,3.670598E0,1.12710565E-1,3.0081573E0,2.5096521E0,3.48821E0,6.9352067E-1,7.789224E-1,-4.5702484E-1,-2.862592E0,2.0036838E0],"split_indices":[2,0,1,22,2,1,2,0,1,15,22,2,1,20,19,9,1,1,0,0,0,1,0,0,0,0,1,1,0,2,0,1,1,0,20,7,0,22,1,1,1,1,0,0,1,0,0,0,1,0,0,0,0,0,0,0,0,0,0,0,0,0,0,0,0,0,0,0,0,0,0,0,0,0,0],"split_type":[0,0,0,0,0,0,0,0,0,0,0,0,0,0,0,0,0,0,0,0,0,0,0,0,0,0,0,0,0,0,0,0,0,0,0,0,0,0,0,0,0,0,0,0,0,0,0,0,0,0,0,0,0,0,0,0,0,0,0,0,0,0,0,0,0,0,0,0,0,0,0,0,0,0,0],"sum_hessian":[3.884E3,3.632E3,2.52E2,3.149E3,4.83E2,1.93E2,5.9E1,1.454E3,1.695E3,3.14E2,1.69E2,9E0,1.84E2,4.5E1,1.4E1,1.416E3,3.8E1,1.499E3,1.96E2,3.11E2,3E0,2E1,1.49E2,4E0,5E0,7.8E1,1.06E2,3.5E1,1E1,1.1E1,3E0,1.223E3,1.93E2,3E0,3.5E1,1.496E3,3E0,3.7E1,2.74E2,1E1,1E1,1.44E2,5E0,5E0,1.01E2,7E0,2.8E1,3E0,7E0,6E0,5E0,3.96E2,8.27E2,1.89E2,4E0,2.4E1,1.1E1,7.39E2,7.57E2,3.2E1,5E0,2.01E2,7.3E1,3E0,7E0,5E0,5E0,8E0,1.36E2,4.4E1,5.7E1,3E0,2.5E1,4E0,3E0],"tree_param":{"num_deleted":"0","num_feature":"23","num_nodes":"75","size_leaf_vector":"1"}},{"base_weights":[-2.3607982E-3,-6.0567847E-3,4.9901597E-2,-9.009325E-3,2.943843E-2,-7.421868E-4,9.465411E-2,-1.840458E-2,-1.057294E-3,1.4410504E-2,1.0052086E-1,5.2801747E-2,2.0284094E-1,-1.9864742E-2,-5.2287346E-3,2.2655497E-3,-7.465902E-4,-6.441694E-3,6.4925395E-2,3.104167E-1,2.9729754E-2,2.961959E-2,1.3600002E-1,3.2941177E-1,1.1875002E-1,1.7708356E-2,-2.0520423E-2,4.0760893E-2,-7.430548E-4,6.24502E-3,-1.2803007E-2,-1.1677608E-2,6.0416687E-2,6.060629E-3,1.1857145E-1,5.5E-1,-6.249994E-4,8.750002E-2,-7.124993E-4,2.0000002E-1,1.1011928E-2,-6.749993E-4,2.2656253E-1,1.21428594E-1,4.3181822E-1,5.937502E-2,1.14E-2,-7.058817E-4,3.0937504E-3,-6.3527323E-4,2.1093819E-4,5.9211223E-5,6.0000005E-3,1.6409102E-5,1.4117653E-3,-5.5211654E-4,1.7812506E-3,1.4464293E-3,-5.2877626E-4,-6.66666E-4,6.9375006E-3,-7.2321354E-4,4.3750005E-3,5.958334E-3,9.58334E-4,6.9375006E-3,2.19375E-2,5.3250007E-3,-6.66666E-4,1.14E-2,-5.999994E-4,1.4634153E-3,-7.3295383E-4,1.4375E-2,2.0454552E-3,6.9375006E-3,-5.6249945E-4,5.4000006E-3,1.65E-2,5.3250007E-3,-6.9999933E-4],"categories":[],"categories_nodes":[],"categories_segments":[],"categories_sizes":[],"default_left":[0,0,0,0,0,0,0,0,0,0,0,0,0,0,0,0,0,0,0,0,0,0,0,0,0,0,0,0,0,0,0,0,0,0,0,0,0,0,0,0,0,0,0,0,0,0,0,0,0,0,0,0,0,0,0,0,0,0,0,0,0,0,0,0,0,0,0,0,0,0,0,0,0,0,0,0,0,0,0,0,0],"id":6,"left_children":[1,3,5,7,9,-1,11,13,15,17,19,21,23,25,27,29,-1,31,33,35,37,39,41,43,45,47,49,51,-1,53,55,57,59,61,63,65,-1,67,-1,69,71,-1,73,75,77,79,-1,-1,-1,-1,-1,-1,-1,-1,-1,-1,-1,-1,-1,-1,-1,-1,-1,-1,-1,-1,-1,-1,-1,-1,-1,-1,-1,-1,-1,-1,-1,-1,-1,-1,-1],"loss_changes":[7.428135E-1,3.7660575E-1,8.50798E-1,2.477234E-1,2.9338056E-1,0E0,7.092215E-1,2.913928E-2,1.423432E-1,2.4163459E-1,7.039918E-1,2.1970272E-1,4.291947E-1,3.4065247E-2,1.3849941E-1,9.470452E-2,0E0,5.7766076E-2,2.1085817E-1,9.638021E-1,1.1639103E-1,2.8947267E-1,3.6395153E-1,3.0964458E-1,4.117656E-1,8.696384E-2,2.4434328E-2,2.837214E-1,0E0,2.9044074E-1,1.3449866E-1,5.5000305E-2,1.7454861E-1,1.4266436E-1,2.3633134E-1,2.3531246E-1,0E0,1.8169446E-1,0E0,3.6399996E-1,1.1363917E-1,0E0,6.074515E-1,1.1209822E-1,2.2836351E-1,2.3861977E-1,0E0,0E0,0E0,0E0,0E0,0E0,0E0,0E0,0E0,0E0,0E0,0E0,0E0,0E0,0E0,0E0,0E0,0E0,0E0,0E0,0E0,0E0,0E0,0E0,0E0,0E0,0E0,0E0,0E0,0E0,0E0,0E0,0E0,0E0,0E0],"parents":[2147483647,0,0,1,1,2,2,3,3,4,4,6,6,7,7,8,8,9,9,10,10,11,11,12,12,13,13,14,14,15,15,17,17,18,18,19,19,20,20,21,21,22,22,23,23,24,24,25,25,26,26,27,27,29,29,30,30,31,31,32,32,33,33,34,34,35,35,37,37,39,39,40,40,42,42,43,43,44,44,45,45],"right_children":[2,4,6,8,10,-1,12,14,16,18,20,22,24,26,28,30,-1,32,34,36,38,40,42,44,46,48,50,52,-1,54,56,58,60,62,64,66,-1,68,-1,70,72,-1,74,76,78,80,-1,-1,-1,-1,-1,-1,-1,-1,-1,-1,-1,-1,-1,-1,-1,-1,-1,-1,-1,-1,-1,-1,-1,-1,-1,-1,-1,-1,-1,-1,-1,-1,-1,-1,-1],"split_conditions":[1.2E1,2.1E1,5.5E-2,-7.972466E-1,1E0,-4.1361256E0,2.6E1,1E0,1E0,3E0,-9.557289E0,1E0,5.085737E0,1E-3,2E0,1.393E0,-3.571707E0,3.85E1,2.64E1,2.64E1,3E0,8.8E-2,5.43E-1,1.97E-1,1.1433434E1,1E0,1E1,-9.557289E0,-3.7094238E0,1.01E0,4.204E0,9.35E-1,1.108E0,1E0,1.943E0,2.275E1,-4.936882E0,1E0,-1.365336E0,1E0,1.7558789E0,-2.8037996E0,1.5E1,3.2E1,3.4E1,3.9E1,3.115338E0,-2.65398E0,2.9197996E-2,-2.953041E0,1.24882504E-1,2.1261072E0,2.5459588E0,3.1637275E-1,2.015133E0,-6.7062813E-1,2.393289E-1,1.1360302E0,-6.065494E-1,-5.265107E0,1.5233606E0,-9.439462E-1,2.5050044E0,3.7045074E0,3.5604804E0,3.9988081E0,2.9187963E0,1.8404168E0,-9.410923E0,3.4549942E0,-6.716701E0,1.9423578E0,-3.0562922E-1,1.3624868E0,1.943573E0,1.1114877E0,-4.7711573E0,2.093637E-1,2.883542E0,1.8683267E0,-5.9238005E-1],"split_indices":[2,0,1,22,8,0,2,15,6,2,22,20,22,1,2,1,0,0,0,0,2,1,1,1,22,6,2,22,0,1,1,1,1,10,1,0,0,20,0,11,22,0,0,2,2,2,0,0,0,0,0,0,0,0,0,0,0,0,0,0,0,0,0,0,0,0,0,0,0,0,0,0,0,0,0,0,0,0,0,0,0],"split_type":[0,0,0,0,0,0,0,0,0,0,0,0,0,0,0,0,0,0,0,0,0,0,0,0,0,0,0,0,0,0,0,0,0,0,0,0,0,0,0,0,0,0,0,0,0,0,0,0,0,0,0,0,0,0,0,0,0,0,0,0,0,0,0,0,0,0,0,0,0,0,0,0,0,0,0,0,0,0,0,0,0],"sum_hessian":[3.843E3,3.59E3,2.53E2,3.315E3,2.75E2,9.5E1,1.58E2,1.519E3,1.796E3,2.28E2,4.7E1,1.15E2,4.3E1,1.367E3,1.52E2,1.577E3,2.19E2,1.62E2,6.6E1,1.1E1,3.6E1,9.1E1,2.4E1,1.6E1,2.7E1,2.3E1,1.344E3,4.5E1,1.07E2,1.248E3,3.29E2,1.51E2,1.1E1,3.2E1,3.4E1,6E0,5E0,1.7E1,1.9E1,8E0,8.3E1,9E0,1.5E1,6E0,1E1,2.3E1,4E0,1.6E1,7E0,1.313E3,3.1E1,3.7E1,8E0,1.096E3,1.52E2,3.06E2,2.3E1,1.3E1,1.38E2,8E0,3E0,2.7E1,5E0,1.7E1,1.7E1,3E0,3E0,9E0,8E0,4E0,4E0,4E1,4.3E1,5E0,1E1,3E0,3E0,4E0,6E0,9E0,1.4E1],"tree_param":{"num_deleted":"0","num_feature":"23","num_nodes":"81","size_leaf_vector":"1"}},{"base_weights":[6.0773006E-4,-1.8919039E-3,9.289218E-2,-6.211491E-3,2.5144532E-2,-7.3275627E-3,2.2000003E-1,-7.889618E-3,2.8500024E-2,1.5795457E-1,1.9226931E-2,5.4000006E-3,-7.361104E-4,3.8823533E-1,1.1379313E-1,-1.4529593E-2,-2.1621382E-3,-1.4851461E-2,1.15500025E-1,2.6250002E-1,-6.66666E-4,7.8879334E-2,1.1337892E-2,4.3750005E-3,4.7708336E-1,5.6000024E-2,1.14E-2,-1.5716298E-2,3.636366E-2,7.7968487E-4,-7.4607256E-4,1.9737075E-3,-7.3828053E-4,6.250002E-2,1.74E-2,1.21428594E-1,1.05937505E-2,-6.9999933E-4,1.1193184E-1,-3.7102236E-3,3.805034E-2,6.9375006E-3,5.3333336E-1,9.375E-3,-7.124993E-4,-2.4368614E-4,-6.3796225E-4,6.9375006E-3,2.7500067E-4,-1.4381761E-4,7.1602856E-4,-7.159084E-4,1.0588242E-3,4.5000007E-3,-7.187493E-4,-5.6249945E-4,6.9375006E-3,1.05937505E-2,1.7027033E-3,-5.647583E-4,5.275431E-4,-3.96551E-4,2.9589047E-3,1.9375E-2,6.9375006E-3],"categories":[],"categories_nodes":[],"categories_segments":[],"categories_sizes":[],"default_left":[0,0,0,0,0,0,0,0,0,0,0,0,0,0,0,0,0,0,0,0,0,0,0,0,0,0,0,0,0,0,0,0,0,0,0,0,0,0,0,0,0,0,0,0,0,0,0,0,0,0,0,0,0,0,0,0,0,0,0,0,0,0,0,0,0],"id":7,"left_children":[1,3,5,7,9,11,13,15,17,19,21,-1,-1,23,25,27,29,31,33,35,-1,37,39,-1,41,43,-1,45,47,49,-1,51,-1,53,-1,55,-1,-1,57,59,61,-1,63,-1,-1,-1,-1,-1,-1,-1,-1,-1,-1,-1,-1,-1,-1,-1,-1,-1,-1,-1,-1,-1,-1],"loss_changes":[8.9220506E-1,4.3997318E-1,1.300961E0,1.8942192E-1,4.048538E-1,1.9139734E-1,7.5987005E-1,1.1782454E-1,5.674523E-1,4.2023993E-1,2.3346454E-1,0E0,0E0,2.9655337E-1,4.2488274E-1,8.723876E-2,1.1124109E-1,1.6630564E-2,1.194675E0,1.3610494E-1,0E0,1.9855803E-1,1.7741084E-1,0E0,4.2604208E-2,5.1881874E-1,0E0,5.894512E-2,1.727907E-1,1.899219E-1,0E0,3.3556856E-2,0E0,3.5158855E-1,0E0,1.1209822E-1,0E0,0E0,5.655031E-1,9.142166E-2,4.951337E-1,0E0,1.5651035E-1,0E0,0E0,0E0,0E0,0E0,0E0,0E0,0E0,0E0,0E0,0E0,0E0,0E0,0E0,0E0,0E0,0E0,0E0,0E0,0E0,0E0,0E0],"parents":[2147483647,0,0,1,1,2,2,3,3,4,4,5,5,6,6,7,7,8,8,9,9,10,10,13,13,14,14,15,15,16,16,17,17,18,18,19,19,21,21,22,22,24,24,25,25,27,27,28,28,29,29,31,31,33,33,35,35,38,38,39,39,40,40,42,42],"right_children":[2,4,6,8,10,12,14,16,18,20,22,-1,-1,24,26,28,30,32,34,36,-1,38,40,-1,42,44,-1,46,48,50,-1,52,-1,54,-1,56,-1,-1,58,60,62,-1,64,-1,-1,-1,-1,-1,-1,-1,-1,-1,-1,-1,-1,-1,-1,-1,-1,-1,-1,-1,-1,-1,-1],"split_conditions":[2.5E1,1.701E1,5.2E-2,1.1E1,6.77E-1,1E-3,5.085737E0,-7.972466E-1,6.8E-1,1E0,1.854E1,1.1865215E0,-4.355022E0,1.97E-1,1E0,1.595E1,1.6E0,1.3E1,1E0,1.7558789E0,-3.7304342E0,1.003E0,3E0,1.0781432E0,2.8E1,3.3E1,3.0218782E0,2.61E-1,5.8E-1,7.5E0,-1.7711679E0,3.4E-2,-2.9792514E-1,1.108E0,1.3216122E0,1.935E1,2.9084215E0,-3.313645E0,1.415E0,1E0,2.435E1,2.0308319E-1,1E0,8.844406E-1,-4.2052917E-2,-1.3084867E0,-2.8541636E0,2.5307555E0,1.3743896E0,-9.7025365E-1,1.395275E0,-3.4694834E0,2.5711277E0,2.2614248E0,-4.3414488E-1,-2.949027E0,2.8312325E0,1.3061005E0,1.3198745E0,-1.7435168E0,1.8170696E0,-2.8510836E-1,3.4781146E0,2.7834713E0,2.7970357E0],"split_indices":[2,0,1,2,1,1,22,22,1,13,0,0,0,1,19,0,1,2,20,22,0,1,2,0,2,2,0,1,1,0,0,1,0,1,0,0,0,0,1,18,0,0,9,0,0,0,0,0,0,0,0,0,0,0,0,0,0,0,0,0,0,0,0,0,0],"split_type":[0,0,0,0,0,0,0,0,0,0,0,0,0,0,0,0,0,0,0,0,0,0,0,0,0,0,0,0,0,0,0,0,0,0,0,0,0,0,0,0,0,0,0,0,0,0,0,0,0,0,0,0,0,0,0,0,0,0,0,0,0,0,0,0,0],"sum_hessian":[3.866E3,3.765E3,1.01E2,3.247E3,5.18E2,5.7E1,4.4E1,3.098E3,1.49E2,2.1E1,4.97E2,4E0,5.3E1,1.6E1,2.8E1,1.434E3,1.664E3,1E2,4.9E1,1.3E1,8E0,5.7E1,4.4E2,5E0,1.1E1,2.4E1,4E0,1.402E3,3.2E1,1.474E3,1.9E2,3.7E1,6.3E1,4.5E1,4E0,6E0,7E0,1.4E1,4.3E1,2.82E2,1.58E2,3E0,8E0,5E0,1.9E1,5.93E2,8.09E2,3E0,2.9E1,1.188E3,2.86E2,2.1E1,1.6E1,2.2E1,2.3E1,3E0,3E0,7E0,3.6E1,1.65E2,1.17E2,8.6E1,7.2E1,5E0,3E0],"tree_param":{"num_deleted":"0","num_feature":"23","num_nodes":"65","size_leaf_vector":"1"}},{"base_weights":[1.6036744E-3,-8.775217E-4,9.0625025E-2,-5.803133E-3,3.0826718E-2,9.913816E-3,1.882979E-1,-7.5104972E-3,3.1118905E-2,9.345818E-3,6.854398E-2,-7.307685E-4,7.6250024E-2,1.4226192E-1,1.4375E-2,-1.8400852E-2,-2.9398017E-3,8.547245E-4,1.6111113E-1,6.525181E-3,6.9375006E-3,5.988703E-2,9.375E-3,2.2812502E-1,-6.92307E-4,9.0000026E-2,3.5312504E-1,-1.9410431E-2,4.3333355E-2,-1.1749722E-2,4.3096473E-3,-1.4322893E-2,6.704548E-2,2.4333335E-1,5.3846177E-2,-5.294094E-3,5.351565E-2,1.9861114E-1,4.3906275E-2,1.14E-2,-5.6249945E-4,4.482761E-2,2.6428574E-1,1.44375E-2,5.4000006E-3,7.064254E-10,-6.391934E-4,-6.8181753E-4,5.4000006E-3,-4.7103054E-4,4.9586844E-4,4.5013952E-5,1.6428578E-3,-7.40259E-4,7.875007E-4,8.684217E-4,6.9375006E-3,1.14E-2,4.772728E-3,6.9375006E-3,-6.749993E-4,1.3448283E-3,-3.5021955E-4,5.156257E-4,4.5882356E-3,-5.999994E-4,7.875E-3,1.5468757E-3,-7.058817E-4,4.312501E-3,-7.0833263E-4,1.44375E-2,-5.6249945E-4],"categories":[],"categories_nodes":[],"categories_segments":[],"categories_sizes":[],"default_left":[0,0,0,0,0,0,0,0,0,0,0,0,0,0,0,0,0,0,0,0,0,0,0,0,0,0,0,0,0,0,0,0,0,0,0,0,0,0,0,0,0,0,0,0,0,0,0,0,0,0,0,0,0,0,0,0,0,0,0,0,0,0,0,0,0,0,0,0,0,0,0,0,0],"id":8,"left_children":[1,3,5,7,9,11,13,15,17,19,21,-1,23,25,-1,27,29,31,33,35,-1,37,-1,39,-1,41,43,45,47,49,51,53,55,57,59,61,63,65,67,-1,-1,69,71,-1,-1,-1,-1,-1,-1,-1,-1,-1,-1,-1,-1,-1,-1,-1,-1,-1,-1,-1,-1,-1,-1,-1,-1,-1,-1,-1,-1,-1,-1],"loss_changes":[8.471522E-1,5.829783E-1,8.179959E-1,2.0391391E-1,4.060802E-1,1.3372184E-1,5.611831E-1,1.537055E-1,5.624398E-1,1.9940856E-1,3.6565387E-1,0E0,3.0696994E-1,4.310633E-1,0E0,5.7744384E-2,1.3908924E-1,1.1850059E-1,2.2502553E-1,1.7689838E-1,0E0,3.8367385E-1,0E0,3.0707812E-1,0E0,2.637044E-1,9.082806E-2,3.3085495E-2,1.3951515E-1,1.1009741E-1,1.6928476E-1,4.0970355E-2,1.3093525E-1,1.1224246E-1,1.8127644E-1,8.206493E-2,2.2853573E-1,2.5665277E-1,8.382195E-2,0E0,0E0,1.9972761E-1,4.3888393E-1,0E0,0E0,0E0,0E0,0E0,0E0,0E0,0E0,0E0,0E0,0E0,0E0,0E0,0E0,0E0,0E0,0E0,0E0,0E0,0E0,0E0,0E0,0E0,0E0,0E0,0E0,0E0,0E0,0E0,0E0],"parents":[2147483647,0,0,1,1,2,2,3,3,4,4,5,5,6,6,7,7,8,8,9,9,10,10,12,12,13,13,15,15,16,16,17,17,18,18,19,19,21,21,23,23,25,25,26,26,27,27,28,28,29,29,30,30,31,31,32,32,33,33,34,34,35,35,36,36,37,37,38,38,41,41,42,42],"right_children":[2,4,6,8,10,12,14,16,18,20,22,-1,24,26,-1,28,30,32,34,36,-1,38,-1,40,-1,42,44,46,48,50,52,54,56,58,60,62,64,66,68,-1,-1,70,72,-1,-1,-1,-1,-1,-1,-1,-1,-1,-1,-1,-1,-1,-1,-1,-1,-1,-1,-1,-1,-1,-1,-1,-1,-1,-1,-1,-1,-1,-1],"split_conditions":[2.5E1,1.701E1,4E-1,1.1E1,3E0,1.7558789E0,1E0,-9.557289E0,8.55E0,1E0,3.85E1,-5.576098E0,5.665519E0,5.665519E0,2.713125E0,1.645E1,1E0,1E0,1.205E1,1E0,7.382904E-2,-1.3692654E1,1.7979245E0,1.13E-2,-3.0610793E0,1E0,3.3E1,2.5E-1,1E0,5E0,1E0,1E0,3.55E0,1.3E1,-1.3692654E1,1.816E1,5.665519E0,4E0,1.2E1,1.1933019E0,-9.946597E0,5.085737E0,1.462E1,8.579077E-1,2.931222E0,6.4363964E-2,-2.9666483E0,-3.5685663E0,1.3331579E0,-3.170425E0,6.1732614E-1,7.6201834E-2,1.7866261E0,-2.9058483E-1,2.4939935E0,3.360282E0,1.0629034E0,1.3455734E0,2.1935823E0,2.3237182E-1,-4.4798703E0,9.578439E-1,-5.0824165E-1,3.4910607E0,3.2385533E0,-8.257782E-2,3.349322E0,2.5915134E0,-2.4170837E-1,2.699967E0,-4.079132E-2,1.7216208E0,-2.3520365E0],"split_indices":[2,0,0,2,2,22,21,22,0,15,0,0,22,22,0,0,7,8,0,8,0,22,0,0,0,19,2,0,8,2,15,21,0,2,22,0,22,2,2,0,0,22,0,0,0,0,0,0,0,0,0,0,0,0,0,0,0,0,0,0,0,0,0,0,0,0,0,0,0,0,0,0,0],"split_type":[0,0,0,0,0,0,0,0,0,0,0,0,0,0,0,0,0,0,0,0,0,0,0,0,0,0,0,0,0,0,0,0,0,0,0,0,0,0,0,0,0,0,0,0,0,0,0,0,0,0,0,0,0,0,0,0,0,0,0,0,0,0,0,0,0,0,0,0,0,0,0,0,0],"sum_hessian":[3.834E3,3.731E3,1.03E2,3.23E3,5.01E2,5.7E1,4.6E1,3.088E3,1.42E2,3.2E2,1.81E2,3.8E1,1.9E1,4.1E1,5E0,9.12E2,2.176E3,1.16E2,2.6E1,3.17E2,3E0,1.76E2,5E0,7E0,1.2E1,3.4E1,7E0,8.98E2,1.4E1,9.82E2,1.194E3,9.5E1,2.1E1,1.4E1,1.2E1,2.54E2,6.3E1,1.7E1,1.59E2,4E0,3E0,2.8E1,6E0,3E0,4E0,8E1,8.18E2,1E1,4E0,8.62E2,1.2E2,1.132E3,6.2E1,7.6E1,1.9E1,1.8E1,3E0,4E0,1E1,3E0,9E0,2.8E1,2.26E2,4.7E1,1.6E1,4E0,1.3E1,1.43E2,1.6E1,1.1E1,1.7E1,3E0,3E0],"tree_param":{"num_deleted":"0","num_feature":"23","num_nodes":"73","size_leaf_vector":"1"}},{"base_weights":[-4.457126E-4,-3.1051976E-3,1.272152E-1,-7.6618795E-3,2.6636928E-2,2.2093046E-2,2.4594598E-1,-1.7812883E-2,1.2101606E-3,8.308181E-3,6.13506E-2,1.14E-2,-7.307685E-4,1.65E-2,1.6935486E-1,-2.0038817E-2,8.823553E-3,-7.533891E-3,1.3655196E-2,-1.8344132E-2,3.1320248E-2,2.5000003E-1,4.8323195E-2,1.1875002E-1,1.44375E-2,-2.2952454E-2,-1.3259322E-2,1.0776098E-3,6.9375006E-3,-1.0329474E-2,2.7272752E-2,2.8817229E-2,-1.3409938E-2,-7.441399E-4,1.2962986E-2,1.3600002E-1,1.4123401E-2,4.3750005E-3,9.375E-3,3.844939E-2,2.6428574E-1,2.2708336E-1,3.529414E-2,3.4821496E-4,-7.1803463E-4,-5.124338E-4,5.425539E-4,-2.02702E-4,4.3750005E-3,6.330282E-4,-4.3071862E-4,1.14E-2,8.2192484E-5,1.4241216E-5,1.2978903E-3,-5.13618E-4,5.4000006E-3,3.6428578E-3,-7.1428507E-4,1.1718756E-3,8.325001E-3,2.4834508E-4,6.9375006E-3,6.9375006E-3,9.967749E-4,-5.6249945E-4,1.44375E-2,9.333333E-3,-5.6249945E-4,-6.964279E-4,6.9375006E-3],"categories":[],"categories_nodes":[],"categories_segments":[],"categories_sizes":[],"default_left":[0,0,0,0,0,0,0,0,0,0,0,0,0,0,0,0,0,0,0,0,0,0,0,0,0,0,0,0,0,0,0,0,0,0,0,0,0,0,0,0,0,0,0,0,0,0,0,0,0,0,0,0,0,0,0,0,0,0,0,0,0,0,0,0,0,0,0,0,0,0,0],"id":9,"left_children":[1,3,5,7,9,11,13,15,17,19,21,-1,-1,-1,23,25,27,29,31,33,35,37,39,41,-1,43,45,47,-1,49,51,53,55,-1,57,59,61,-1,-1,63,65,67,69,-1,-1,-1,-1,-1,-1,-1,-1,-1,-1,-1,-1,-1,-1,-1,-1,-1,-1,-1,-1,-1,-1,-1,-1,-1,-1,-1,-1],"loss_changes":[1.3143078E0,5.1411647E-1,9.8058367E-1,2.9622924E-1,3.201644E-1,7.241526E-1,7.6850486E-1,9.1129154E-2,1.9119087E-1,2.0358506E-1,4.1554374E-1,0E0,0E0,0E0,4.3213707E-1,2.7665913E-2,2.0477624E-1,1.00700326E-1,2.978992E-1,3.146968E-2,3.185081E-1,2.6041627E-2,3.3954734E-1,2.451348E-1,0E0,3.384322E-2,5.1580064E-2,1.3253702E-1,0E0,1.2132858E-1,6.6527516E-1,1.903643E-1,1.9039586E-1,0E0,1.1058201E-1,3.3207652E-1,1.9353558E-1,0E0,0E0,1.5143923E-1,4.3888393E-1,2.5371528E-1,2.0027441E-1,0E0,0E0,0E0,0E0,0E0,0E0,0E0,0E0,0E0,0E0,0E0,0E0,0E0,0E0,0E0,0E0,0E0,0E0,0E0,0E0,0E0,0E0,0E0,0E0,0E0,0E0,0E0,0E0],"parents":[2147483647,0,0,1,1,2,2,3,3,4,4,5,5,6,6,7,7,8,8,9,9,10,10,14,14,15,15,16,16,17,17,18,18,19,19,20,20,21,21,22,22,23,23,25,25,26,26,27,27,29,29,30,30,31,31,32,32,34,34,35,35,36,36,39,39,40,40,41,41,42,42],"right_children":[2,4,6,8,10,12,14,16,18,20,22,-1,-1,-1,24,26,28,30,32,34,36,38,40,42,-1,44,46,48,-1,50,52,54,56,-1,58,60,62,-1,-1,64,66,68,70,-1,-1,-1,-1,-1,-1,-1,-1,-1,-1,-1,-1,-1,-1,-1,-1,-1,-1,-1,-1,-1,-1,-1,-1,-1,-1,-1,-1],"split_conditions":[3.2E1,1.701E1,3.15E-1,-7.972466E-1,3E0,1E-3,-9.557289E0,1E1,5.59E-1,-7.972466E-1,6.19E-1,1.157503E0,-3.9080381E0,2.6317308E0,1.1433434E1,-4.3557577E0,1E0,7.65E0,1.005E1,3.694E0,1.7558789E0,1.88E1,3.85E1,3.9E1,2.8432856E0,1E-3,1.2E1,2.063E0,1.8824066E-1,1.9E-2,8.15E0,2E0,1.6E1,-1.7721978E0,3.889E0,2E0,1E0,1.7785418E0,2.7434235E0,1.73E1,1E0,1.462E1,2.355E1,6.564514E-2,-3.0488317E0,-2.0067894E0,1.4117868E0,4.606911E-1,7.1902585E-1,3.6758842E0,-1.7367115E0,2.788222E0,2.480392E0,2.1415344E-1,1.5542548E0,-1.2274348E0,8.3217037E-1,2.3832138E0,-4.716881E0,2.5528563E-2,1.62596E0,3.6591497E-1,7.161438E-2,1.1797979E0,1.8203479E0,-3.5269153E0,1.7439871E0,1.6699722E0,-4.488384E0,-5.721231E-1,1.74569E0],"split_indices":[2,0,0,22,2,1,22,2,1,22,1,0,0,0,22,22,3,0,0,1,22,0,0,2,0,1,0,1,0,1,0,2,2,0,1,2,15,0,0,0,20,0,0,0,0,0,0,0,0,0,0,0,0,0,0,0,0,0,0,0,0,0,0,0,0,0,0,0,0,0,0],"split_type":[0,0,0,0,0,0,0,0,0,0,0,0,0,0,0,0,0,0,0,0,0,0,0,0,0,0,0,0,0,0,0,0,0,0,0,0,0,0,0,0,0,0,0,0,0,0,0,0,0,0,0,0,0,0,0,0,0,0,0,0,0,0,0,0,0,0,0,0,0,0,0],"sum_hessian":[3.869E3,3.791E3,7.8E1,3.288E3,5.03E2,4.2E1,3.6E1,1.533E3,1.755E3,3.3E2,1.73E2,4E0,3.8E1,6E0,3E1,1.415E3,1.18E2,1.031E3,7.24E2,1.53E2,1.77E2,1E1,1.63E2,2.7E1,3E0,9.88E2,4.27E2,1.15E2,3E0,9.55E2,7.6E1,4.64E2,2.6E2,1.27E2,2.6E1,2.4E1,1.53E2,5E0,5E0,1.57E2,6E0,1.1E1,1.6E1,2.7E1,9.61E2,3.81E2,4.6E1,1.1E2,5E0,1.08E2,8.47E2,4E0,7.2E1,1.57E2,3.07E2,2.56E2,4E0,6E0,2E1,1.5E1,9E0,1.5E2,3E0,3E0,1.54E2,3E0,3E0,8E0,3E0,1.3E1,3E0],"tree_param":{"num_deleted":"0","num_feature":"23","num_nodes":"71","size_leaf_vector":"1"}}]},"name":"gbtree"},"learner_model_param":{"base_score":"[4.366615E2]","boost_from_average":"1","num_class":"0","num_feature":"23","num_target":"1"},"objective":{"name":"reg:quantileerror","quantile_loss_param":{"quantile_alpha":"[9.75E-1]"}}},"version":[3,2,0]}