{"learner":{"attributes":{},"feature_names":["Weight","Cube","Quantity","aisle_33","aisle_34","aisle_35","aisle_36","aisle_other","level_2","level_3","level_4","level_5+","level_nan","UoM_CA","UoM_CS","UoM_EA","UoM_PK","UoM_other","t25_products_1","t25_50_products_1","t50_75_products_1","other_products_1","worker_effect"],"feature_types":["float","float","float","float","float","float","float","float","float","float","float","float","float","float","float","float","float","float","float","float","float","float","float"],"gradient_booster":{"model":{"cats":{"enc":[],"feature_segments":[],"sorted_idx":[]},"gbtree_model_param":{"num_parallel_tree":"1","num_trees":"10"},"iteration_indptr":[0,1,2,3,4,5,6,7,8,9,10],"tree_info":[0,0,0,0,0,0,0,0,0,0],"trees":[{"base_weights":[2.8057273E-3,-4.369603E-3,2.3956211E-2,2.836588E-5,-5.0496034E-2,7.490953E-4,1.8344156E-2,3.6773921E-3,-3.4623016E-2,-6.937173E-2,8.467742E-3,7.44403E-4,-2.3809524E-2,-3.1924464E-3,1.9455923E-2,-1.6399084E-2,-1.4714286E-1,-4.9228396E-2,-1.7583334E-1,7.3369563E-4,-3.529412E-2,-6.9375E-3,7.0833333E-4,-1.6172917E-3,-1.7666668E-1,1.4062501E-2,7.479108E-4,-4.6798033E-3,-1.640625E-1,-3.2941177E-1,7.105263E-4,-1.2812501E-2,-8.3734944E-2,-9.411765E-2,-7.875E-3,-6.9375E-3,6.964286E-4,7.266091E-5,-1.2820946E-3,-2.0454545E-3,-1.1399999E-2,5.013698E-4,-6.9375E-3,-3.7500072E-6,-6.9375E-3,-9.374999E-3,-2.0454545E-3,-2.325E-3,-1.809375E-2,-3.0312499E-3,7.368421E-4,-8.763158E-3,-6.461539E-4,-4.3125E-3,6.25E-4],"categories":[],"categories_nodes":[],"categories_segments":[],"categories_sizes":[],"default_left":[0,0,0,0,0,0,0,0,0,0,0,0,0,0,0,0,0,0,0,0,0,0,0,0,0,0,0,0,0,0,0,0,0,0,0,0,0,0,0,0,0,0,0,0,0,0,0,0,0,0,0,0,0,0,0],"id":0,"left_children":[1,3,5,7,9,-1,11,13,15,17,19,-1,21,23,25,27,29,31,33,-1,35,-1,-1,37,39,41,-1,43,45,47,-1,49,51,53,-1,-1,-1,-1,-1,-1,-1,-1,-1,-1,-1,-1,-1,-1,-1,-1,-1,-1,-1,-1,-1],"loss_changes":[5.8833313E-1,5.872887E-1,5.128145E-3,3.344448E-1,2.8105897E-1,0E0,4.2587187E-2,2.5945362E-1,5.143266E-1,4.009419E-1,4.4244494E-2,0E0,2.1203622E-1,4.5549318E-1,2.1085262E-2,3.764832E-1,1.097578E0,2.024942E-1,1.8775487E-1,0E0,2.0027442E-1,0E0,0E0,2.7482244E-1,3.0496967E-1,2.4307801E-1,0E0,2.0946357E-1,2.0640984E-1,1.1254348E0,0E0,2.6627922E-1,1.0693803E0,9.9984676E-2,0E0,0E0,0E0,0E0,0E0,0E0,0E0,0E0,0E0,0E0,0E0,0E0,0E0,0E0,0E0,0E0,0E0,0E0,0E0,0E0,0E0],"parents":[2147483647,0,0,1,1,2,2,3,3,4,4,6,6,7,7,8,8,9,9,10,10,12,12,13,13,14,14,15,15,16,16,17,17,18,18,20,20,23,23,24,24,25,25,27,27,28,28,29,29,31,31,32,32,33,33],"right_children":[2,4,6,8,10,-1,12,14,16,18,20,-1,22,24,26,28,30,32,34,-1,36,-1,-1,38,40,42,-1,44,46,48,-1,50,52,54,-1,-1,-1,-1,-1,-1,-1,-1,-1,-1,-1,-1,-1,-1,-1,-1,-1,-1,-1,-1,-1],"split_conditions":[1E0,1E0,1E0,1E0,4E0,4.6989E-1,8.55E0,1E0,1E0,1E0,1.3E-1,4.418985E-1,9.2E0,3.5E1,5.6E0,8.59E-1,7.5E-1,1.6E0,1E0,5.5754846E-1,8.5E-1,-4.563E-3,3.6734697E-1,1E0,2E0,5.51E0,6.309547E-1,2.5E1,3.19E0,6.9E-2,6.36057E-1,3.1E-2,2.2E0,2E0,-4.5330003E-3,-4.5330003E-3,1.2246569E0,1.3304995E-3,-4.6800002E-3,-4.9230005E-3,-4.6530003E-3,1.00347005E-1,-3.7530004E-3,-2.1330004E-3,-4.6530003E-3,-3.8430006E-3,-5.433E-3,-4.743E-3,-4.4430005E-3,-4.6530003E-3,9.562496E-4,-5.0430004E-3,-3.7455002E-3,-3.0630003E-3,1.460847E0],"split_indices":[21,5,5,6,2,0,0,20,18,18,1,0,0,0,0,1,0,0,11,0,0,0,0,10,2,0,0,2,0,1,0,1,0,2,0,0,0,0,0,0,0,0,0,0,0,0,0,0,0,0,0,0,0,0,0],"split_type":[0,0,0,0,0,0,0,0,0,0,0,0,0,0,0,0,0,0,0,0,0,0,0,0,0,0,0,0,0,0,0,0,0,0,0,0,0,0,0,0,0,0,0,0,0,0,0,0,0,0,0,0,0,0,0],"sum_hessian":[3.875E3,2.894E3,9.81E2,2.643E3,2.51E2,8.28E2,1.53E2,2.392E3,2.51E2,1.9E2,6.1E1,1.33E2,2E1,1.667E3,7.25E2,2.17E2,3.4E1,1.61E2,2.9E1,4.5E1,1.6E1,3E0,1.7E1,1.653E3,1.4E1,3.67E2,3.58E2,2.02E2,1.5E1,1.6E1,1.8E1,7.9E1,8.2E1,1.6E1,1.3E1,3E0,1.3E1,1.506E3,1.47E2,1E1,4E0,3.64E2,3E0,1.99E2,3E0,5E0,1E1,9E0,7E0,2.3E1,5.6E1,1.8E1,6.4E1,1.1E1,5E0],"tree_param":{"num_deleted":"0","num_feature":"23","num_nodes":"55","size_leaf_vector":"1"}},{"base_weights":[-2.1393166E-3,-1.0735346E-2,2.3922188E-2,-6.544453E-3,-5.4464288E-2,7.4905774E-4,1.8429488E-2,1.1897851E-3,-2.1181319E-2,-3.14554E-2,-1.7562501E-1,7.442748E-4,-1.4423078E-2,3.156342E-3,-1.13793105E-1,-8.2644634E-2,-1.1740507E-2,-4.0000003E-2,7.2413794E-4,-2.2578126E-1,6.6666666E-4,7.173913E-4,-6.9375E-3,-8.680556E-2,5.1054214E-3,-6.704546E-2,-2.28125E-1,-1.01456314E-1,7.105263E-4,-1.0104167E-1,-8.9309E-3,-1.0916667E-1,-2.6442308E-2,-1.1E-1,-3.0972224E-1,-4.3269232E-4,-7.5E-3,6.1022245E-5,7.4663677E-4,-4.3125E-3,6.818182E-4,-1.44375E-2,5.9999997E-4,-2.2252747E-3,-8.538461E-3,7.058823E-4,-1.059375E-2,-3.8978102E-4,7.4096385E-4,-6.352941E-3,6.964286E-4,7.3255814E-4,-1.361842E-3,-4.772727E-3,5.9999997E-4,-1.0846154E-2,-4.375E-3],"categories":[],"categories_nodes":[],"categories_segments":[],"categories_sizes":[],"default_left":[0,0,0,0,0,0,0,0,0,0,0,0,0,0,0,0,0,0,0,0,0,0,0,0,0,0,0,0,0,0,0,0,0,0,0,0,0,0,0,0,0,0,0,0,0,0,0,0,0,0,0,0,0,0,0,0,0],"id":1,"left_children":[1,3,5,7,9,-1,11,13,15,17,19,-1,21,23,25,27,29,31,-1,33,-1,-1,-1,35,37,39,41,43,-1,45,47,49,51,53,55,-1,-1,-1,-1,-1,-1,-1,-1,-1,-1,-1,-1,-1,-1,-1,-1,-1,-1,-1,-1,-1,-1],"loss_changes":[8.5894626E-1,5.2799165E-1,5.0058365E-3,2.9798082E-1,6.969945E-1,0E0,3.305365E-2,3.8996464E-1,5.2706957E-1,1.0214536E-1,4.0194833E-1,0E0,2.2164978E-1,2.9764938E-1,1.3970292E-1,2.4443012E-1,1.973095E-1,1.7059541E-1,0E0,2.7693188E-1,0E0,0E0,0E0,4.2164132E-1,1.0080902E-1,1.5475853E-1,5.1207817E-1,4.935453E-1,0E0,7.619639E-1,1.050909E-1,4.1237676E-1,1.5148279E-1,9.8909125E-2,1.0013342E-1,0E0,0E0,0E0,0E0,0E0,0E0,0E0,0E0,0E0,0E0,0E0,0E0,0E0,0E0,0E0,0E0,0E0,0E0,0E0,0E0,0E0,0E0],"parents":[2147483647,0,0,1,1,2,2,3,3,4,4,6,6,7,7,8,8,9,9,10,10,12,12,13,13,14,14,15,15,16,16,17,17,19,19,23,23,24,24,25,25,26,26,27,27,29,29,30,30,31,31,32,32,33,33,34,34],"right_children":[2,4,6,8,10,-1,12,14,16,18,20,-1,22,24,26,28,30,32,-1,34,-1,-1,-1,36,38,40,42,44,-1,46,48,50,52,54,56,-1,-1,-1,-1,-1,-1,-1,-1,-1,-1,-1,-1,-1,-1,-1,-1,-1,-1,-1,-1,-1,-1],"split_conditions":[1E0,1E0,1E0,1E0,1E0,4.399803E-1,5E0,4.991E0,1E0,6E0,4E0,4.1233575E-1,8E-2,5E-3,4E0,1E0,2.9E-2,3.1E-2,1.1848304E0,1E0,5.233305E-1,9.012E-1,-4.42611E-3,6E0,7E0,2E0,5E0,5.64E-1,7.525074E-1,2E-3,1.1E1,1E0,1.34E-1,2E0,5.6E-2,-5.2634105E-3,-5.2929153E-3,1.4022801E-3,6.2579465E-1,-2.3761641E-2,1.956227E0,-4.5134104E-3,3.1633973E0,-4.5764796E-3,-4.182915E-3,4.162974E-1,-4.4826004E-3,-3.6729155E-3,1.0307735E0,-4.5134104E-3,6.436966E-1,3.5525072E-2,-4.4712154E-3,-2.9711106E-3,1.4170216E0,-4.7270106E-3,-3.7070108E-3],"split_indices":[21,5,5,18,18,0,2,1,7,2,2,0,1,1,2,14,1,1,0,11,0,0,0,2,2,2,2,1,0,1,2,11,1,2,1,0,0,0,0,0,0,0,0,0,0,0,0,0,0,0,0,0,0,0,0,0,0],"split_type":[0,0,0,0,0,0,0,0,0,0,0,0,0,0,0,0,0,0,0,0,0,0,0,0,0,0,0,0,0,0,0,0,0,0,0,0,0,0,0,0,0,0,0,0,0,0,0,0,0,0,0,0,0,0,0,0,0],"sum_hessian":[3.832E3,2.882E3,9.5E2,2.631E3,2.51E2,7.95E2,1.55E2,1.722E3,9.09E2,2.12E2,3.9E1,1.3E2,2.5E1,1.694E3,2.8E1,1.2E2,7.89E2,1.84E2,2.8E1,3.1E1,8E0,2.2E1,3E0,3.5E1,1.659E3,2.1E1,7E0,1.02E2,1.8E1,2.3E1,7.66E2,2.9E1,1.55E2,1.4E1,1.7E1,2.5E1,1E1,1.437E3,2.22E2,1.1E1,1E1,3E0,4E0,9E1,1.2E1,1.6E1,7E0,6.84E2,8.2E1,1.6E1,1.3E1,4.2E1,1.13E2,1E1,4E0,1.2E1,5E0],"tree_param":{"num_deleted":"0","num_feature":"23","num_nodes":"57","size_leaf_vector":"1"}},{"base_weights":[-8.6860004E-4,-9.190792E-3,2.3934511E-2,-5.9137736E-3,-4.3927126E-2,7.490695E-4,1.8471338E-2,-2.014574E-3,-3.7370242E-2,-6.321244E-2,7.3636364E-4,7.445652E-4,-2.6250001E-2,-1.3152224E-3,-1.1E-1,7.3529413E-4,-5.041841E-2,-8.555195E-2,7.3125004E-4,7.058823E-4,-6.9375E-3,-4.7688633E-3,1.3527397E-2,-2E-1,6.4285717E-4,-1.4226191E-1,-3.0681819E-2,-5.773196E-2,-1.3060345E-1,-4.9968283E-5,-6.2052114E-4,5.875668E-4,-6.461539E-4,-9.374999E-3,5.6250003E-4,-1.5865384E-3,-8.117647E-3,-7.135135E-4,-3.5892858E-3,-3.1527777E-3,5.1136354E-5,-4.4567306E-3,6.4285717E-4],"categories":[],"categories_nodes":[],"categories_segments":[],"categories_sizes":[],"default_left":[0,0,0,0,0,0,0,0,0,0,0,0,0,0,0,0,0,0,0,0,0,0,0,0,0,0,0,0,0,0,0,0,0,0,0,0,0,0,0,0,0,0,0],"id":2,"left_children":[1,3,5,7,9,-1,11,13,15,17,-1,-1,19,21,23,-1,25,27,-1,-1,-1,29,31,33,-1,35,37,39,41,-1,-1,-1,-1,-1,-1,-1,-1,-1,-1,-1,-1,-1,-1],"loss_changes":[7.9038143E-1,3.2609546E-1,4.9754977E-3,3.2140362E-1,3.2771882E-1,0E0,4.5218904E-2,1.7604293E-1,2.3458055E-1,3.7972087E-1,0E0,0E0,2.0953678E-1,1.18938945E-1,1.8171431E-1,0E0,4.2886508E-1,1.854732E-1,0E0,0E0,0E0,9.291533E-2,9.346828E-2,2.273438E-1,0E0,4.6740746E-1,1.18658364E-1,2.7322936E-1,1.6150135E-1,0E0,0E0,0E0,0E0,0E0,0E0,0E0,0E0,0E0,0E0,0E0,0E0,0E0,0E0],"parents":[2147483647,0,0,1,1,2,2,3,3,4,4,6,6,7,7,8,8,9,9,12,12,13,13,14,14,16,16,17,17,21,21,22,22,23,23,25,25,26,26,27,27,28,28],"right_children":[2,4,6,8,10,-1,12,14,16,18,-1,-1,20,22,24,-1,26,28,-1,-1,-1,30,32,34,-1,36,38,40,42,-1,-1,-1,-1,-1,-1,-1,-1,-1,-1,-1,-1,-1,-1],"split_conditions":[1E0,1E0,1E0,1E0,4E0,4.662054E-1,8.64E0,3.85E1,3.8E-1,4.84E0,5.959418E-1,4.0437046E-1,4E0,1E0,2E0,2.820056E-1,7E-1,1.3E0,5.3940344E-1,7.985765E-1,-4.2933263E-3,1E0,2.1E1,1E0,5.120974E0,5.8E-1,2.71E1,3.15E-1,1E0,-1.768727E-3,-3.973299E-3,8.212983E-3,-4.9164775E-3,-1.0658792E-2,7.6948777E-3,-3.9624167E-3,-5.1246686E-3,-3.9889356E-3,-3.0824125E-3,-4.4697006E-3,2.5506038E-2,-4.7848215E-3,1.0553523E0],"split_indices":[21,5,5,10,2,0,0,0,0,0,0,0,2,14,2,0,0,0,0,0,0,11,0,9,0,0,0,0,14,0,0,0,0,0,0,0,0,0,0,0,0,0,0],"split_type":[0,0,0,0,0,0,0,0,0,0,0,0,0,0,0,0,0,0,0,0,0,0,0,0,0,0,0,0,0,0,0,0,0,0,0,0,0,0,0,0,0,0,0],"sum_hessian":[3.827E3,2.866E3,9.61E2,2.62E3,2.46E2,8.05E2,1.56E2,2.332E3,2.88E2,1.92E2,5.4E1,1.37E2,1.9E1,2.318E3,1.4E1,5E1,2.38E2,1.53E2,3.9E1,1.6E1,3E0,1.881E3,4.37E2,8E0,6E0,4.1E1,1.97E2,9.6E1,5.7E1,1.575E3,3.06E2,3.73E2,6.4E1,5E0,3E0,2.5E1,1.6E1,1.84E2,1.3E1,5.3E1,4.3E1,5.1E1,6E0],"tree_param":{"num_deleted":"0","num_feature":"23","num_nodes":"43","size_leaf_vector":"1"}},{"base_weights":[-1.8243943E-3,6.803363E-3,-2.7875649E-2,-1.6658127E-3,2.3936722E-2,-1.1064517E-1,-1.2022195E-2,3.1465515E-3,-4.1155662E-2,7.490741E-4,1.8387098E-2,-1.6654412E-1,-6.6193186E-2,-4.8037893E-3,-8.493151E-2,-7.820513E-2,5.008813E-3,-7.3437504E-2,-4.9504954E-3,7.4436085E-4,-1.9565217E-2,-9.464286E-2,-2.7222222E-1,-3.1690143E-2,-1.9861111E-1,-7.625E-2,-2.8125003E-3,-1.5500001E-2,-2.2604167E-1,7.232143E-4,-3.1041667E-1,5.982779E-3,-8.157895E-2,-2.6271187E-2,-1.23611115E-1,1.21875005E-2,-6.704546E-2,-5.4E-3,7.105263E-4,-3.828125E-2,-2.5E-1,6.5625E-4,-3.7625E-1,-7.1428576E-3,-6E-3,-2.6250002E-1,5.9999997E-4,7.0312497E-4,-1.1399999E-2,2.0833332E-3,-3.0275231E-2,-5.4E-3,2.7173911E-3,-2.9210526E-1,6.25E-4,-1.2666667E-2,5.6250003E-4,6.309962E-5,6.5681816E-4,7.0312497E-4,-1.44375E-2,1.4705882E-4,-6E-3,-1.0017857E-2,-1.4634146E-3,-1.4464286E-3,7.38806E-4,6.875E-4,-4.772727E-3,-6E-3,7.1874994E-4,-4.375E-3,-9.374999E-3,-1.3411764E-2,5.6250003E-4,7.3076924E-4,-1.68E-3,-3.642857E-3,-1.059375E-2,-8.7053573E-4,1.5619388E-4,-2.5363637E-3,7.3636364E-4,-4.3269232E-4,7.142857E-4,-1.0017857E-2,-4.375E-3],"categories":[],"categories_nodes":[],"categories_segments":[],"categories_sizes":[],"default_left":[0,0,0,0,0,0,0,0,0,0,0,0,0,0,0,0,0,0,0,0,0,0,0,0,0,0,0,0,0,0,0,0,0,0,0,0,0,0,0,0,0,0,0,0,0,0,0,0,0,0,0,0,0,0,0,0,0,0,0,0,0,0,0,0,0,0,0,0,0,0,0,0,0,0,0,0,0,0,0,0,0,0,0,0,0,0,0],"id":3,"left_children":[1,3,5,7,9,11,13,15,17,-1,19,21,23,25,27,29,31,33,35,-1,37,39,41,43,45,47,49,51,53,-1,55,57,59,61,63,65,67,-1,-1,69,71,-1,73,75,-1,77,-1,-1,-1,79,81,-1,83,85,-1,-1,-1,-1,-1,-1,-1,-1,-1,-1,-1,-1,-1,-1,-1,-1,-1,-1,-1,-1,-1,-1,-1,-1,-1,-1,-1,-1,-1,-1,-1,-1,-1],"loss_changes":[8.718241E-1,4.2287707E-1,1.264926E0,3.7089667E-1,5.06413E-3,3.7412286E-1,4.264124E-1,2.6399842E-1,2.4741554E-1,0E0,3.8280826E-2,4.9092674E-1,3.9576226E-1,1.04923114E-1,7.1171314E-1,9.340488E-1,1.4402375E-1,2.6180106E-1,1.0829961E-1,0E0,1.6385356E-1,3.5818923E-1,8.3427596E-1,2.9191148E-1,2.5665277E-1,6.145078E-1,9.68692E-2,1.5032719E-1,3.9751244E-1,0E0,4.495486E-1,1.039017E-1,8.08748E-1,3.2050517E-1,8.335729E-1,6.1296165E-2,1.8581916E-1,0E0,0E0,3.2688153E-1,2.6041687E-2,0E0,5.677719E-1,9.832675E-2,0E0,1.36105E-1,0E0,0E0,0E0,5.9596516E-2,3.263645E-1,0E0,1.6973743E-2,6.753588E-2,0E0,0E0,0E0,0E0,0E0,0E0,0E0,0E0,0E0,0E0,0E0,0E0,0E0,0E0,0E0,0E0,0E0,0E0,0E0,0E0,0E0,0E0,0E0,0E0,0E0,0E0,0E0,0E0,0E0,0E0,0E0,0E0,0E0],"parents":[2147483647,0,0,1,1,2,2,3,3,4,4,5,5,6,6,7,7,8,8,10,10,11,11,12,12,13,13,14,14,15,15,16,16,17,17,18,18,20,20,21,21,22,22,23,23,24,24,25,25,26,26,27,27,28,28,30,30,31,31,32,32,33,33,34,34,35,35,36,36,39,39,40,40,42,42,43,43,45,45,49,49,50,50,52,52,53,53],"right_children":[2,4,6,8,10,12,14,16,18,-1,20,22,24,26,28,30,32,34,36,-1,38,40,42,44,46,48,50,52,54,-1,56,58,60,62,64,66,68,-1,-1,70,72,-1,74,76,-1,78,-1,-1,-1,80,82,-1,84,86,-1,-1,-1,-1,-1,-1,-1,-1,-1,-1,-1,-1,-1,-1,-1,-1,-1,-1,-1,-1,-1,-1,-1,-1,-1,-1,-1,-1,-1,-1,-1,-1,-1],"split_conditions":[1E0,1E0,1E0,1E0,1E0,9E-1,2.6E1,3.33E-2,1.7558789E0,4.291072E-1,8.64E0,6.06E-1,4.55E0,2.9E-2,5.665519E0,7.1691155E0,5.476E0,1.6E0,1E0,3.8887036E-1,9.2E0,1E0,-4.3557577E0,1E0,8.64E0,1.2E-1,1E0,1E0,1.1433434E1,7.324755E-2,5E-3,1E0,3.5E1,1E0,2.2E0,7E-2,5.665519E0,-4.1645267E-3,3.1999922E-1,-1.3692654E1,6.928238E0,7.6567966E-1,1.1433434E1,3.65E0,-3.4522554E-3,4.715E0,7.300518E-1,3.953483E-1,-4.1943826E-3,-1.5917348E1,9.24E-1,-4.015233E-3,-7.972466E-1,2.775E1,1.86529E0,-5.0810655E-3,2.547526E0,2.8143288E-3,4.5253655E-1,1.2895687E0,-1.0339028E-2,8.032933E-2,-3.133917E-3,-3.5698142E-2,-1.9020213E-2,-3.043917E-3,3.0022365E-1,5.9806603E-1,-5.1431893E-3,-4.1211094E-3,4.6683577E-1,-3.8435438E-3,-4.309676E-3,-5.2303816E-3,1.7538875E0,5.215174E-1,-4.2556385E-3,-3.6374454E-3,-4.394366E-3,-2.8676651E-3,2.9688764E-3,-5.1521654E-3,4.3803346E-3,-1.4096653E-3,9.263703E-1,-4.3999394E-3,-1.5473244E-1],"split_indices":[18,21,7,5,5,0,0,0,22,0,0,0,0,1,22,22,1,0,9,0,0,10,22,5,0,0,8,13,22,0,1,14,0,9,0,0,22,0,0,22,22,0,22,0,0,0,0,0,0,22,1,0,22,0,0,0,0,0,0,0,0,0,0,0,0,0,0,0,0,0,0,0,0,0,0,0,0,0,0,0,0,0,0,0,0,0,0],"split_type":[0,0,0,0,0,0,0,0,0,0,0,0,0,0,0,0,0,0,0,0,0,0,0,0,0,0,0,0,0,0,0,0,0,0,0,0,0,0,0,0,0,0,0,0,0,0,0,0,0,0,0,0,0,0,0,0,0,0,0,0,0,0,0,0,0,0,0,0,0,0,0,0,0,0,0,0,0,0,0,0,0,0,0,0,0,0,0],"sum_hessian":[3.877E3,2.913E3,9.64E2,1.95E3,9.63E2,1.54E2,8.1E2,1.739E3,2.11E2,8.09E2,1.54E2,6.7E1,8.7E1,7.38E2,7.2E1,3.8E1,1.701E3,1.11E2,1E2,1.32E2,2.2E1,4.1E1,2.6E1,7E1,1.7E1,1.9E1,7.19E2,4.9E1,2.3E1,2.7E1,1.1E1,1.683E3,1.8E1,5.8E1,5.3E1,7.9E1,2.1E1,4E0,1.8E1,3.1E1,1E1,7E0,1.9E1,6.2E1,8E0,1.3E1,4E0,1.5E1,4E0,6.11E2,1.08E2,4E0,4.5E1,1.8E1,5E0,8E0,3E0,1.354E3,3.29E2,1.5E1,3E0,5E1,8E0,1.3E1,4E1,1.3E1,6.6E1,1.1E1,1E1,8E0,2.3E1,5E0,5E0,1.6E1,3E0,3.8E1,2.4E1,6E0,7E0,5.5E1,5.56E2,5.4E1,5.4E1,2.5E1,2E1,1.3E1,5E0],"tree_param":{"num_deleted":"0","num_feature":"23","num_nodes":"87","size_leaf_vector":"1"}},{"base_weights":[-2.842092E-3,-1.1140744E-2,2.284345E-2,-5.8596693E-3,-6.746988E-2,2.3890693E-2,-3.90625E-2,-4.264818E-3,-1.6111112E-1,-9.419643E-2,-1.1890245E-2,7.4902974E-4,1.8256579E-2,6.75E-4,-1.2142857E-1,-1.0902097E-3,-2.9506804E-2,-6.304348E-2,-1.74E-2,-8.4242426E-2,-1.44375E-2,-6.3291163E-4,-6.9375E-3,7.440945E-4,-1.4423078E-2,-6.9375E-3,5.6250003E-4,-1.1769617E-2,2.5847212E-3,7.3529413E-4,-4.0676232E-2,-1.7750001E-1,6.964286E-4,-1.16875E-1,2.7173911E-3,9.926471E-3,-6.041667E-2,7.173913E-4,-6.9375E-3,-5.5841584E-4,7.4210524E-4,-6.2045455E-4,1.2454044E-4,-1.1325E-2,-7.851064E-4,-3.642857E-3,-6.9375E-3,-2.1929347E-3,-7.5517246E-3,7.321428E-4,-5.4E-3,-2.325E-3,7.372881E-4,6.6666666E-4,-6.9375E-3],"categories":[],"categories_nodes":[],"categories_segments":[],"categories_sizes":[],"default_left":[0,0,0,0,0,0,0,0,0,0,0,0,0,0,0,0,0,0,0,0,0,0,0,0,0,0,0,0,0,0,0,0,0,0,0,0,0,0,0,0,0,0,0,0,0,0,0,0,0,0,0,0,0,0,0],"id":4,"left_children":[1,3,5,7,9,11,13,15,17,19,21,-1,23,-1,25,27,29,31,-1,33,-1,35,-1,-1,37,-1,-1,39,41,-1,43,45,-1,47,49,51,53,-1,-1,-1,-1,-1,-1,-1,-1,-1,-1,-1,-1,-1,-1,-1,-1,-1,-1],"loss_changes":[8.1962377E-1,8.640768E-1,6.1809063E-2,6.574416E-1,3.687575E-1,5.150795E-3,8.386272E-2,2.1087898E-1,1.0725799E0,6.067176E-1,2.0234492E-1,0E0,3.287657E-2,0E0,1.12098224E-1,9.1827005E-2,1.7837733E-1,2.3119411E-1,0E0,4.6854186E-1,0E0,5.0470807E-2,0E0,0E0,2.2164978E-1,0E0,0E0,1.501261E-1,6.354528E-2,0E0,1.1822978E0,2.0580292E-3,0E0,6.899973E-1,1.8667522E-1,8.899774E-2,1.7454863E-1,0E0,0E0,0E0,0E0,0E0,0E0,0E0,0E0,0E0,0E0,0E0,0E0,0E0,0E0,0E0,0E0,0E0,0E0],"parents":[2147483647,0,0,1,1,2,2,3,3,4,4,5,5,6,6,7,7,8,8,9,9,10,10,12,12,14,14,15,15,16,16,17,17,19,19,21,21,24,24,27,27,28,28,30,30,31,31,33,33,34,34,35,35,36,36],"right_children":[2,4,6,8,10,12,14,16,18,20,22,-1,24,-1,26,28,30,32,-1,34,-1,36,-1,-1,38,-1,-1,40,42,-1,44,46,-1,48,50,52,54,-1,-1,-1,-1,-1,-1,-1,-1,-1,-1,-1,-1,-1,-1,-1,-1,-1,-1],"split_conditions":[1E0,1E0,2.8329245E1,3.5E1,3.45E-1,1.1433434E1,4.55E0,1E0,4.427E0,3.37E-1,1.854E1,3.76395E-1,1E0,8.4161156E-1,6.9E0,1E0,3.8E-1,1.108E0,-1.0028858E-2,4E0,-3.4627195E-2,1E0,-1.8817997E-2,6.467689E-1,8.64E0,-8.490086E-6,1.6265914E0,8.64E0,4.4E-2,2.702226E-1,2.9E-2,1.097E0,1.2809906E0,7.1691155E0,1E0,-1.3692654E1,5.8E-1,3.8194275E-1,-4.039591E-3,-3.9663133E-3,5.781428E-1,-4.969446E-3,2.6073025E-3,-4.1803853E-3,-3.908052E-3,-1.5009046E-1,-4.582045E-3,-3.9434764E-3,-8.200058E-3,4.9306267E-1,-2.4551006E-2,-2.8530848E-3,6.041511E-1,1.0247627E0,-4.082348E-3],"split_indices":[21,5,22,0,1,22,0,10,1,1,0,0,5,0,0,7,0,1,0,2,0,10,0,0,0,0,0,0,1,0,1,1,0,22,13,22,1,0,0,0,0,0,0,0,0,0,0,0,0,0,0,0,0,0,0],"split_type":[0,0,0,0,0,0,0,0,0,0,0,0,0,0,0,0,0,0,0,0,0,0,0,0,0,0,0,0,0,0,0,0,0,0,0,0,0,0,0,0,0,0,0,0,0,0,0,0,0,0,0,0,0,0,0],"sum_hessian":[3.843E3,2.905E3,9.38E2,2.657E3,2.48E2,9.23E2,1.5E1,2.631E3,2.6E1,1.67E2,8.1E1,7.72E2,1.51E2,9E0,6E0,2.338E3,2.93E2,2.2E1,4E0,1.64E2,3E0,7.8E1,3E0,1.26E2,2.5E1,3E0,3E0,5.98E2,1.74E3,5E1,2.43E2,9E0,1.3E1,1.19E2,4.5E1,6.7E1,1.1E1,2.2E1,3E0,5.04E2,9.4E1,1.09E2,1.631E3,9E0,2.34E2,6E0,3E0,9.1E1,2.8E1,4.1E1,4E0,9E0,5.8E1,8E0,3E0],"tree_param":{"num_deleted":"0","num_feature":"23","num_nodes":"55","size_leaf_vector":"1"}},{"base_weights":[-2.548263E-3,-1.122801E-2,2.2948328E-2,-7.4745193E-3,-5.0796814E-2,2.3944387E-2,-3.529412E-2,1.7701681E-3,-2.4649408E-2,-8.288462E-2,-1.6188525E-2,7.490854E-4,1.8256579E-2,6.818182E-4,-1.2142857E-1,-5.902778E-2,3.0657582E-3,-8.543307E-2,-1.4981274E-2,-1.0022321E-1,7.105263E-4,5.7142857E-3,-1.4305556E-1,7.4390246E-4,-9.166667E-3,-6.9375E-3,5.6250003E-4,7.1874994E-4,-2.0769231E-1,1.1843676E-2,-5.581669E-3,-6.611571E-2,-1.2214286E-2,-7.687075E-3,-9.4776124E-2,-1.4204545E-1,-3.9361704E-2,7.4127904E-4,-7.625E-2,6.25E-4,-2.0769231E-1,7.222222E-4,-6.9375E-3,6.25E-4,-1.059375E-2,4.5524476E-4,-2.2379032E-4,-1.3636364E-4,-5.4E-3,-4.51875E-3,-7.22561E-4,4.3026314E-4,-4.6016485E-4,-6.306818E-4,-6.7812502E-3,-2.265E-3,-9.882353E-3,-8.108109E-5,-4.772727E-3,6.875E-4,-6E-3,-9.333333E-3,5.9999997E-4],"categories":[],"categories_nodes":[],"categories_segments":[],"categories_sizes":[],"default_left":[0,0,0,0,0,0,0,0,0,0,0,0,0,0,0,0,0,0,0,0,0,0,0,0,0,0,0,0,0,0,0,0,0,0,0,0,0,0,0,0,0,0,0,0,0,0,0,0,0,0,0,0,0,0,0,0,0,0,0,0,0,0,0],"id":5,"left_children":[1,3,5,7,9,11,13,15,17,19,21,-1,23,-1,25,27,29,31,33,35,-1,37,39,-1,41,-1,-1,-1,43,45,47,49,-1,51,53,55,57,-1,59,-1,61,-1,-1,-1,-1,-1,-1,-1,-1,-1,-1,-1,-1,-1,-1,-1,-1,-1,-1,-1,-1,-1,-1],"loss_changes":[8.600236E-1,4.3018314E-1,5.81038E-2,4.206425E-1,2.773947E-1,5.2057505E-3,8.7719634E-2,1.3590032E-1,5.4348516E-1,2.4258173E-1,3.398243E-1,0E0,2.7488913E-2,0E0,1.12098224E-1,4.4911128E-1,1.281961E-1,7.6233405E-1,4.654851E-1,2.7948976E-1,0E0,1.6535994E-1,1.9500539E-1,0E0,2.2703359E-1,0E0,0E0,0E0,4.3941313E-1,5.3998597E-2,1.5298708E-1,4.2615873E-1,0E0,1.2411296E-1,6.4389366E-1,7.980423E-1,2.0586026E-1,0E0,2.5002086E-1,0E0,3.1234187E-1,0E0,0E0,0E0,0E0,0E0,0E0,0E0,0E0,0E0,0E0,0E0,0E0,0E0,0E0,0E0,0E0,0E0,0E0,0E0,0E0,0E0,0E0],"parents":[2147483647,0,0,1,1,2,2,3,3,4,4,5,5,6,6,7,7,8,8,9,9,10,10,12,12,14,14,15,15,16,16,17,17,18,18,19,19,21,21,22,22,24,24,28,28,29,29,30,30,31,31,33,33,34,34,35,35,36,36,38,38,40,40],"right_children":[2,4,6,8,10,12,14,16,18,20,22,-1,24,-1,26,28,30,32,34,36,-1,38,40,-1,42,-1,-1,-1,44,46,48,50,-1,52,54,56,58,-1,60,-1,62,-1,-1,-1,-1,-1,-1,-1,-1,-1,-1,-1,-1,-1,-1,-1,-1,-1,-1,-1,-1,-1,-1],"split_conditions":[1E0,1E0,2.8329245E1,1E0,1.7558789E0,1.1433434E1,5.1E0,3.33E-2,1E0,6E0,1E0,3.5907528E-1,1E0,7.2954315E-1,8.64E0,7.1691155E0,1E0,9.01E-1,2.6E1,2.2E0,1.1142056E0,1E0,2.89E-1,5.695431E-1,8.64E0,-8.232593E-6,1.5777937E0,4.5237848E-1,3E0,1E0,3.85E1,9E-1,-4.1435463E-3,2E0,5.665519E0,1.4E0,9.24E-1,5.402882E-1,5.665519E0,5.3132975E-1,3E0,3.7048444E-1,-3.9184038E-3,2.0591295E0,-4.7795502E-3,3.3633742E-1,-3.3692783E-3,-2.6674652E-3,-4.444584E-3,-4.406659E-3,-3.6784094E-3,2.5181863E-3,-3.9747027E-3,-3.720255E-3,-1.4558776E-1,-1.891315E-2,-3.358838E-2,-2.1640442E-3,-1.8253457E-2,5.802424E-1,-2.2104267E-2,-3.9274697E-3,1.2034554E0],"split_indices":[21,5,22,18,22,22,0,0,7,2,18,0,5,0,0,22,19,1,0,0,0,9,0,0,0,0,0,0,2,6,0,0,0,2,22,0,1,0,22,0,2,0,0,0,0,0,0,0,0,0,0,0,0,0,0,0,0,0,0,0,0,0,0],"split_type":[0,0,0,0,0,0,0,0,0,0,0,0,0,0,0,0,0,0,0,0,0,0,0,0,0,0,0,0,0,0,0,0,0,0,0,0,0,0,0,0,0,0,0,0,0,0,0,0,0,0,0,0,0,0,0,0,0,0,0,0,0,0,0],"sum_hessian":[3.884E3,2.898E3,9.86E2,2.648E3,2.5E2,9.7E2,1.6E1,1.722E3,9.26E2,1.29E2,1.21E2,8.19E2,1.51E2,1E1,6E0,3.5E1,1.687E3,1.26E2,8E2,1.11E2,1.8E1,1.04E2,1.7E1,1.22E2,2.9E1,3E0,3E0,2.3E1,1.2E1,8.37E2,8.5E2,1.2E2,6E0,7.34E2,6.6E1,6.5E1,4.6E1,8.5E1,1.9E1,5E0,1.2E1,2.6E1,3E0,5E0,7E0,7.14E2,1.23E2,8.46E2,4E0,3.9E1,8.1E1,1.89E2,5.45E2,4.3E1,2.3E1,4.9E1,1.6E1,3.6E1,1E1,1.1E1,8E0,8E0,4E0],"tree_param":{"num_deleted":"0","num_feature":"23","num_nodes":"63","size_leaf_vector":"1"}},{"base_weights":[-5.007807E-4,-8.458189E-3,2.2923077E-2,-4.320518E-3,-5.2971315E-2,2.393118E-2,-3.529412E-2,-3.3403526E-3,-1.640625E-1,-7.1390375E-2,7.327586E-3,7.490625E-4,1.859375E-2,-4.375E-3,6.875E-4,-1.984E-2,1.8485914E-3,-2.2708334E-1,5.9999997E-4,-1.0679825E-1,-1.587838E-2,7.3469384E-4,-7.75E-2,7.44403E-4,-1.2962963E-2,3.8343537E-4,-4.1750003E-2,-6.755374E-3,1.0153162E-2,-1.2142857E-1,-9.374999E-3,-8.6342596E-2,-1.2214286E-2,-1.590909E-1,8.984375E-3,-6.9375E-3,6.4285717E-4,7.1874994E-4,-6.9375E-3,-1.4062499E-3,3.0442805E-4,-2.0409836E-3,-1.9067804E-5,6.8359304E-6,-9.6785714E-4,4.036649E-4,-1.3318965E-3,5.6250003E-4,-6.9375E-3,-4.1008065E-3,-5.425532E-4,5.6250003E-4,-6.84375E-3,7.366071E-4,-2.6666666E-3],"categories":[],"categories_nodes":[],"categories_segments":[],"categories_sizes":[],"default_left":[0,0,0,0,0,0,0,0,0,0,0,0,0,0,0,0,0,0,0,0,0,0,0,0,0,0,0,0,0,0,0,0,0,0,0,0,0,0,0,0,0,0,0,0,0,0,0,0,0,0,0,0,0,0,0],"id":6,"left_children":[1,3,5,7,9,11,13,15,17,19,21,-1,23,-1,-1,25,27,29,-1,31,33,-1,35,-1,37,39,41,43,45,47,-1,49,-1,51,53,-1,-1,-1,-1,-1,-1,-1,-1,-1,-1,-1,-1,-1,-1,-1,-1,-1,-1,-1,-1],"loss_changes":[7.1668935E-1,5.2836955E-1,5.806625E-2,4.107708E-1,2.715215E-1,4.8466325E-3,1.1272979E-1,2.23665E-1,1.9013801E-1,3.6586434E-1,8.633604E-2,0E0,3.17253E-2,0E0,0E0,2.7695072E-1,1.4211564E-1,7.034969E-2,0E0,6.6523325E-1,2.6491806E-1,0E0,1.5705803E-1,0E0,2.2314526E-1,1.5090486E-1,3.241371E-1,1.7402883E-1,1.8290052E-1,1.12098224E-1,0E0,3.6870557E-1,0E0,1.3932526E-1,9.9706255E-2,0E0,0E0,0E0,0E0,0E0,0E0,0E0,0E0,0E0,0E0,0E0,0E0,0E0,0E0,0E0,0E0,0E0,0E0,0E0,0E0],"parents":[2147483647,0,0,1,1,2,2,3,3,4,4,5,5,6,6,7,7,8,8,9,9,10,10,12,12,15,15,16,16,17,17,19,19,20,20,22,22,24,24,25,25,26,26,27,27,28,28,29,29,31,31,33,33,34,34],"right_children":[2,4,6,8,10,12,14,16,18,20,22,-1,24,-1,-1,26,28,30,-1,32,34,-1,36,-1,38,40,42,44,46,48,-1,50,-1,52,54,-1,-1,-1,-1,-1,-1,-1,-1,-1,-1,-1,-1,-1,-1,-1,-1,-1,-1,-1,-1],"split_conditions":[1E0,1E0,2.8329245E1,3.85E1,4E0,1.1433434E1,1E0,1.4E0,1.1433434E1,3.45E-1,1E0,3.5285863E-1,1E0,-7.982254E-6,1.1726868E0,5E-1,1.7558789E0,-7.972466E-1,2.506182E0,2.9E-1,-1.3692654E1,4.9870983E-1,2.3E0,5.882807E-1,8.15E0,3.33E-2,1E0,1E0,3.333E0,1.097E0,-1.4122012E-1,1E0,-3.258073E-2,3.82E-1,1E0,-2.324708E-2,1.3607641E0,3.5936993E-1,-3.8008515E-3,-4.6102987E-3,5.2906615E-3,-4.5124656E-3,-3.7502993E-3,-4.6643484E-4,-4.836579E-3,2.88015E-1,-2.0443272E-2,1.2120643E-2,-4.311247E-3,-4.2146454E-3,-2.0301575E-2,1.0712141E0,-1.7705854E-2,4.8505375E-1,-3.4122744E-3],"split_indices":[21,5,22,0,2,22,13,0,22,1,13,0,5,0,0,0,22,22,0,1,22,0,0,0,0,0,20,8,1,1,0,20,0,1,10,0,0,0,0,0,0,0,0,0,0,0,0,0,0,0,0,0,0,0,0],"split_type":[0,0,0,0,0,0,0,0,0,0,0,0,0,0,0,0,0,0,0,0,0,0,0,0,0,0,0,0,0,0,0,0,0,0,0,0,0,0,0,0,0,0,0,0,0,0,0,0,0,0,0,0,0,0,0],"sum_hessian":[3.843E3,2.869E3,9.74E2,2.626E3,2.43E2,9.58E2,1.6E1,2.611E3,1.5E1,1.86E2,5.7E1,7.99E2,1.59E2,5E0,1.1E1,6.24E2,1.987E3,1.1E1,4E0,1.13E2,7.3E1,4.8E1,9E0,1.33E2,2.6E1,3.25E2,2.99E2,9.76E2,1.011E3,6E0,5E0,1.07E2,6E0,1E1,6.3E1,3E0,6E0,2.3E1,3E0,5.5E1,2.7E2,1.82E2,1.17E2,7.67E2,2.09E2,9.54E2,5.7E1,3E0,3E0,6.1E1,4.6E1,3E0,7E0,5.5E1,8E0],"tree_param":{"num_deleted":"0","num_feature":"23","num_nodes":"55","size_leaf_vector":"1"}},{"base_weights":[-4.745281E-3,3.648881E-3,-3.0062307E-2,4.455273E-3,-6.666667E-2,-2.1902902E-2,-1.3713236E-1,9.763779E-3,-5.9855524E-3,-1.1607143E-2,-9.374999E-3,-1.32081285E-2,-1.04705885E-1,-6.1428573E-2,-2.1102941E-1,2.1845672E-2,-2.4815209E-3,-1.1262078E-2,7.447183E-4,7.2E-4,-6.9375E-3,-4.2613638E-3,-4.111675E-2,-2.1369047E-1,1.7045452E-3,-2.2708334E-1,7.1874994E-4,6.75E-4,-2.96E-1,2.2857143E-2,-4.3333333E-2,-1.8157328E-2,1.2551653E-2,-2.1461718E-2,-1.8844244E-4,-1.0000001E-2,7.4264704E-4,-1.6826923E-1,-2.1656977E-2,-3.5714287E-1,-6.704546E-2,7.317073E-4,-6.9375E-3,-1.44375E-2,-8.888889E-2,-4.4705883E-1,6.6666666E-4,7.488263E-4,5.5211724E-4,-4.375E-3,6.75E-4,-3.2514457E-5,-2.0294117E-3,-2.325E-3,4.3263155E-4,-2.9478612E-4,-2.8836208E-3,-1.8428571E-3,1.7101648E-4,1.3719511E-4,-6.9722225E-4,6.875E-4,-9.3E-3,7.3636364E-4,-1.2902543E-3,-8.117647E-3,-1.74E-2,7.058823E-4,-9.374999E-3,5.9999997E-4,-5.4E-3,-2.19375E-2,-1.0017857E-2],"categories":[],"categories_nodes":[],"categories_segments":[],"categories_sizes":[],"default_left":[0,0,0,0,0,0,0,0,0,0,0,0,0,0,0,0,0,0,0,0,0,0,0,0,0,0,0,0,0,0,0,0,0,0,0,0,0,0,0,0,0,0,0,0,0,0,0,0,0,0,0,0,0,0,0,0,0,0,0,0,0,0,0,0,0,0,0,0,0,0,0,0,0],"id":7,"left_children":[1,3,5,7,9,11,13,15,17,19,-1,21,23,25,27,29,31,33,-1,-1,-1,35,37,39,41,43,-1,-1,45,47,49,51,53,55,57,59,-1,61,63,65,67,-1,-1,-1,69,71,-1,-1,-1,-1,-1,-1,-1,-1,-1,-1,-1,-1,-1,-1,-1,-1,-1,-1,-1,-1,-1,-1,-1,-1,-1,-1,-1],"loss_changes":[8.2190603E-1,1.6501603E-1,8.383E-1,1.59295E-1,4.430432E-1,6.436951E-1,3.6744833E-1,2.8189215E-1,1.578071E-1,2.2453395E-1,0E0,2.025746E-1,9.861174E-1,5.0050676E-1,6.813265E-1,6.421411E-2,2.2339523E-1,9.351614E-2,0E0,0E0,0E0,1.0282005E-1,4.8380455E-1,8.595916E-1,2.3816867E-1,3.7871534E-1,0E0,0E0,1.2116914E0,8.393794E-3,1.0450001E-1,3.9198983E-1,8.2595415E-2,3.7346327E-1,1.4388596E-1,9.948048E-2,0E0,7.116242E-1,1.7073214E-1,2.4813461E-1,4.9645728E-1,0E0,0E0,0E0,9.288891E-2,3.0237508E-1,0E0,0E0,0E0,0E0,0E0,0E0,0E0,0E0,0E0,0E0,0E0,0E0,0E0,0E0,0E0,0E0,0E0,0E0,0E0,0E0,0E0,0E0,0E0,0E0,0E0,0E0,0E0],"parents":[2147483647,0,0,1,1,2,2,3,3,4,4,5,5,6,6,7,7,8,8,9,9,11,11,12,12,13,13,14,14,15,15,16,16,17,17,21,21,22,22,23,23,24,24,25,25,28,28,29,29,30,30,31,31,32,32,33,33,34,34,35,35,37,37,38,38,39,39,40,40,44,44,45,45],"right_children":[2,4,6,8,10,12,14,16,18,20,-1,22,24,26,28,30,32,34,-1,-1,-1,36,38,40,42,44,-1,-1,46,48,50,52,54,56,58,60,-1,62,64,66,68,-1,-1,-1,70,72,-1,-1,-1,-1,-1,-1,-1,-1,-1,-1,-1,-1,-1,-1,-1,-1,-1,-1,-1,-1,-1,-1,-1,-1,-1,-1,-1],"split_conditions":[1E0,4.991E0,1E0,1E0,3.5E1,1E0,1.7558789E0,1E0,7E0,1E0,-1.5581512E-2,1.67E1,3E0,2E0,4.2E-1,2.8329245E1,1E0,1.7558789E0,1.0138346E0,1.1232243E0,-3.2569062E-2,1E0,9.7E-1,4.715E0,1E0,2.5E-1,4.5292315E-1,5.1551634E-1,3.25E0,3E0,1E0,7.1691155E0,3.33E-2,-7.972466E-1,4E-2,3E0,4.3816978E-1,8.33E-1,1.065E0,1E0,2.435E1,3.7580898E-1,-3.7874007E-3,-3.5153388E-3,4.15E0,7.5E-1,1.8980579E0,3.420451E-1,4.7532508E-1,-7.746219E-6,7.5929624E-1,-1.3201587E-3,-2.3864632E-2,-2.0922134E-3,3.254098E-1,-2.8424554E-3,-1.2772564E-2,-4.785964E-3,5.1275045E-1,1.498463E-3,-4.442681E-3,1.956982E0,-1.219816E-2,8.4940517E-1,-8.253705E-3,-1.1927226E-2,-3.688525E-3,6.0678184E-1,-8.423518E-3,7.435214E-1,-3.563064E-3,-3.5097438E-3,-4.5832056E-3],"split_indices":[18,1,11,19,0,10,22,20,2,11,0,0,2,2,0,22,7,22,0,0,0,9,1,0,6,0,0,0,0,2,13,22,0,22,1,2,0,1,1,7,0,0,0,0,0,0,0,0,0,0,0,0,0,0,0,0,0,0,0,0,0,0,0,0,0,0,0,0,0,0,0,0,0],"split_type":[0,0,0,0,0,0,0,0,0,0,0,0,0,0,0,0,0,0,0,0,0,0,0,0,0,0,0,0,0,0,0,0,0,0,0,0,0,0,0,0,0,0,0,0,0,0,0,0,0,0,0,0,0,0,0,0,0,0,0,0,0,0,0,0,0,0,0,0,0,0,0,0,0],"sum_hessian":[3.866E3,2.904E3,9.62E2,2.872E3,3.2E1,8.95E2,6.7E1,1.904E3,9.68E2,2.7E1,5E0,8.11E2,8.4E1,3.4E1,3.3E1,9.58E2,9.46E2,8.27E2,1.41E2,2.4E1,3E0,6.15E2,1.96E2,4.1E1,4.3E1,1.1E1,2.3E1,9E0,2.4E1,9.44E2,1.4E1,4.63E2,4.83E2,4.3E2,3.97E2,5.14E2,1.01E2,2.5E1,1.71E2,2E1,2.1E1,4E1,3E0,3E0,8E0,1.6E1,8E0,6.38E2,3.06E2,5E0,9E0,3.45E2,1.18E2,9E0,4.74E2,3.73E2,5.7E1,3.4E1,3.63E2,2.45E2,2.69E2,1.1E1,1.4E1,5.4E1,1.17E2,1.6E1,4E0,1.6E1,5E0,4E0,4E0,3E0,1.3E1],"tree_param":{"num_deleted":"0","num_feature":"23","num_nodes":"73","size_leaf_vector":"1"}},{"base_weights":[-5.514994E-3,-1.4564539E-2,2.1829141E-2,-1.317402E-2,-1.6111112E-1,2.2838848E-2,-3.1944446E-2,-2.0653848E-2,2.9217198E-3,-1.0104167E-1,-1.44375E-2,7.488076E-4,1.8446602E-2,6.875E-4,-1.2142857E-1,-3.0796813E-2,-2.3347705E-3,1.6526612E-2,-5.898367E-3,6.6666666E-4,-1.640625E-1,7.450658E-4,1.2183544E-2,-6.9375E-3,5.6250003E-4,-4.969618E-2,-1.4742647E-2,-8.703704E-2,1.0820894E-3,7.4581004E-4,8.100559E-3,-1.0652174E-1,-1.5122877E-3,-6.8125E-3,5.9999997E-4,-1.9565217E-2,1.7463235E-2,-5.2615386E-3,-1.0092773E-3,-6.343085E-4,4.871795E-4,7.0833333E-4,-8.325E-3,-1.4634146E-3,1.297619E-4,-5.652174E-4,7.432432E-4,6.818182E-4,-6.230769E-3,-1.8947368E-3,1.7758986E-4,-6.9375E-3,7.1249995E-4,7.425742E-4,-1.0416667E-4],"categories":[],"categories_nodes":[],"categories_segments":[],"categories_sizes":[],"default_left":[0,0,0,0,0,0,0,0,0,0,0,0,0,0,0,0,0,0,0,0,0,0,0,0,0,0,0,0,0,0,0,0,0,0,0,0,0,0,0,0,0,0,0,0,0,0,0,0,0,0,0,0,0,0,0],"id":8,"left_children":[1,3,5,7,9,11,13,15,17,19,-1,-1,21,-1,23,25,27,29,31,-1,33,-1,35,-1,-1,37,39,41,43,-1,45,47,49,-1,-1,51,53,-1,-1,-1,-1,-1,-1,-1,-1,-1,-1,-1,-1,-1,-1,-1,-1,-1,-1],"loss_changes":[9.4929636E-1,5.8515936E-1,5.2527547E-2,3.4390372E-1,4.70599E-1,8.2702935E-3,9.114831E-2,3.6225718E-1,1.0893415E-1,1.9008249E-1,0E0,0E0,1.20618045E-2,0E0,1.12098224E-1,3.800515E-1,2.0152757E-1,2.4867296E-2,2.4301842E-1,0E0,1.9013801E-1,0E0,2.6826208E-2,0E0,0E0,1.1563249E0,1.3519728E-1,5.755603E-1,1.0856316E-1,0E0,8.087757E-2,3.054728E-1,2.4273367E-1,0E0,0E0,2.1638316E-1,2.084003E-2,0E0,0E0,0E0,0E0,0E0,0E0,0E0,0E0,0E0,0E0,0E0,0E0,0E0,0E0,0E0,0E0,0E0,0E0],"parents":[2147483647,0,0,1,1,2,2,3,3,4,4,5,5,6,6,7,7,8,8,9,9,12,12,14,14,15,15,16,16,17,17,18,18,20,20,22,22,25,25,26,26,27,27,28,28,30,30,31,31,32,32,35,35,36,36],"right_children":[2,4,6,8,10,12,14,16,18,20,-1,-1,22,-1,24,26,28,30,32,-1,34,-1,36,-1,-1,38,40,42,44,-1,46,48,50,-1,-1,52,54,-1,-1,-1,-1,-1,-1,-1,-1,-1,-1,-1,-1,-1,-1,-1,-1,-1,-1],"split_conditions":[1E0,3.5E1,2.8329245E1,4E0,1E0,3E0,5.1E0,1E0,-7.972466E-1,3.85E1,-2.5137314E-3,2.9760054E-1,-7.972466E-1,7.076573E-1,8.64E0,1E0,1.2E-1,1E0,3.33E-2,8.2848674E-1,1.1433434E1,4.6731016E-1,1.2E-1,-7.5173375E-6,1.4725004E0,9E-1,1.4E1,9.754035E0,-1.5917348E1,3.802802E-1,5.9E0,6E0,5.085737E0,-1.367359E-1,2.431464E0,5E0,8.46E0,-4.6286904E-3,-3.9190636E-3,-3.3752369E-3,6.5971285E-1,5.782893E-2,-2.2837717E-2,-2.6821569E-2,7.896891E-2,-3.689054E-3,7.656548E-1,1.4516104E0,-4.354276E-3,-4.960945E-3,5.6154644E-1,-3.3666864E-2,7.2888184E-1,5.1686877E-1,-1.7946579E-2],"split_indices":[21,0,22,2,14,2,0,20,22,0,0,0,22,0,0,19,0,13,0,0,22,0,0,0,0,0,0,22,22,0,0,2,22,0,0,2,0,0,0,0,0,0,0,0,0,0,0,0,0,0,0,0,0,0,0],"split_type":[0,0,0,0,0,0,0,0,0,0,0,0,0,0,0,0,0,0,0,0,0,0,0,0,0,0,0,0,0,0,0,0,0,0,0,0,0,0,0,0,0,0,0,0,0,0,0,0,0,0,0,0,0,0,0],"sum_hessian":[3.834E3,2.881E3,9.53E2,2.855E3,2.6E1,9.36E2,1.7E1,1.949E3,9.06E2,2.3E1,3E0,6.28E2,3.08E2,1.1E1,6E0,1.254E3,6.95E2,3.56E2,5.5E2,8E0,1.5E1,1.51E2,1.57E2,3E0,3E0,5.75E2,6.79E2,2.6E1,6.69E2,1.78E2,1.78E2,2.2E1,5.28E2,1.1E1,4E0,2.2E1,1.35E2,6.4E1,5.11E2,5.63E2,1.16E2,1.7E1,9E0,4E1,6.29E2,6.8E1,1.1E2,1E1,1.2E1,5.6E1,4.72E2,3E0,1.9E1,1E2,3.5E1],"tree_param":{"num_deleted":"0","num_feature":"23","num_nodes":"55","size_leaf_vector":"1"}},{"base_weights":[-4.4638244E-3,5.6743706E-3,-3.4696504E-2,-2.776323E-3,2.1947527E-2,-2.3754153E-2,-1.7535715E-1,8.81834E-4,-3.2535885E-2,2.2927329E-2,-4.3333333E-2,-1.5446429E-1,-1.9549087E-2,-2.1271187E-1,6.875E-4,2.2713686E-3,-7.931035E-2,-4.877301E-2,7.3404255E-4,7.490854E-4,1.2183544E-2,-4.375E-3,6.75E-4,7.0833333E-4,-1.2954545E-2,-1.3540373E-2,-8.645833E-2,6.5625E-4,-2.4471155E-1,-1.8159383E-3,7.470703E-4,-1.6E-2,-1.1399999E-2,-8.244048E-2,-1.2812501E-2,7.432432E-4,-1.71875E-2,-2.9457367E-3,-5.5900622E-2,-1.5500001E-2,-2.3695652E-1,-3.090278E-1,-9.411765E-2,-3.2258133E-6,-3.0312499E-3,7.1590906E-4,-6.9375E-3,-7.6875003E-4,-3.9333333E-3,-1.51875E-3,7.317073E-4,6.666666E-5,-6.9375E-3,-2.3677007E-4,7.423469E-4,-3.2783505E-3,7.384615E-4,-1.4196429E-3,7.173913E-4,-1.0846154E-2,-2.0454545E-3,-1.10625E-2,-2.6666666E-3,6.75E-4,-6.84375E-3],"categories":[],"categories_nodes":[],"categories_segments":[],"categories_sizes":[],"default_left":[0,0,0,0,0,0,0,0,0,0,0,0,0,0,0,0,0,0,0,0,0,0,0,0,0,0,0,0,0,0,0,0,0,0,0,0,0,0,0,0,0,0,0,0,0,0,0,0,0,0,0,0,0,0,0,0,0,0,0,0,0,0,0,0,0],"id":9,"left_children":[1,3,5,7,9,11,13,15,17,19,21,23,25,27,-1,29,31,33,-1,-1,35,-1,-1,-1,-1,37,39,-1,41,43,-1,45,-1,47,49,-1,51,53,55,57,59,61,63,-1,-1,-1,-1,-1,-1,-1,-1,-1,-1,-1,-1,-1,-1,-1,-1,-1,-1,-1,-1,-1,-1],"loss_changes":[1.1863705E0,3.9872986E-1,1.4918958E0,2.0785226E-1,6.438008E-2,4.9330962E-1,5.233271E-1,1.8972225E-1,1.946397E-1,2.1131933E-2,1.0450001E-1,1.3931133E0,3.51015E-1,4.482484E-1,0E0,1.5479729E-1,5.459862E-1,1.9628772E-1,0E0,0E0,5.8856994E-2,0E0,0E0,0E0,0E0,3.6111245E-1,7.6522243E-1,0E0,4.7456813E-1,2.4036613E-1,0E0,2.2003466E-1,0E0,2.2892088E-1,1.1377305E-1,0E0,1.9994879E-1,8.854384E-2,6.9462955E-1,6.384057E-2,4.589541E-1,4.40521E-1,2.7080238E-1,0E0,0E0,0E0,0E0,0E0,0E0,0E0,0E0,0E0,0E0,0E0,0E0,0E0,0E0,0E0,0E0,0E0,0E0,0E0,0E0,0E0,0E0],"parents":[2147483647,0,0,1,1,2,2,3,3,4,4,5,5,6,6,7,7,8,8,9,9,10,10,11,11,12,12,13,13,15,15,16,16,17,17,20,20,25,25,26,26,28,28,29,29,31,31,33,33,34,34,36,36,37,37,38,38,39,39,40,40,41,41,42,42],"right_children":[2,4,6,8,10,12,14,16,18,20,22,24,26,28,-1,30,32,34,-1,-1,36,-1,-1,-1,-1,38,40,-1,42,44,-1,46,-1,48,50,-1,52,54,56,58,60,62,64,-1,-1,-1,-1,-1,-1,-1,-1,-1,-1,-1,-1,-1,-1,-1,-1,-1,-1,-1,-1,-1,-1],"split_conditions":[1E0,1E0,1E0,1E0,2.8329245E1,2.9E-2,1E0,4.991E0,4E0,1E0,2E0,1.2E-1,2.6E1,1E-2,4.848911E-1,1.812E0,3.5E1,1.7558789E0,6.359194E-1,3.7206745E-1,3E0,-7.288456E-6,1.0934976E0,3.5295603E-1,-2.0520171E-2,1E0,5.665519E0,1.3590891E0,3.25E0,1.63E0,6.336394E-1,1E0,-1.101199E-2,1.6E0,1E0,3.2899764E-1,4.45E0,9E0,4E0,3E0,2.396E0,5E0,4.715E0,-2.8335812E-4,-6.8180494E-2,1.0697362E0,-3.3961058E-2,-2.0412307E-3,-2.7670195E-2,-3.764588E-2,6.2910324E-1,2.0893743E-2,-1.740818E-2,-3.323606E-3,1.5594585E0,-4.6474636E-3,5.243965E-3,-3.4822118E-3,1.3064641E0,-1.3263384E-1,-4.173762E-3,-1.6454171E-2,-1.9911846E-2,8.894147E-1,-3.3385996E-3],"split_indices":[18,21,11,5,22,1,7,1,2,5,2,0,0,0,0,1,0,22,0,0,2,0,0,0,0,8,22,0,0,1,0,11,0,0,11,0,0,2,2,2,1,2,0,0,0,0,0,0,0,0,0,0,0,0,0,0,0,0,0,0,0,0,0,0,0],"split_type":[0,0,0,0,0,0,0,0,0,0,0,0,0,0,0,0,0,0,0,0,0,0,0,0,0,0,0,0,0,0,0,0,0,0,0,0,0,0,0,0,0,0,0,0,0,0,0,0,0,0,0,0,0,0,0,0,0,0,0,0,0,0,0,0,0],"sum_hessian":[3.869E3,2.898E3,9.71E2,1.908E3,9.9E2,9.02E2,6.9E1,1.7E3,2.08E2,9.76E2,1.4E1,2.7E1,8.75E2,5.8E1,1.1E1,1.672E3,2.8E1,1.62E2,4.6E1,8.19E2,1.57E2,5E0,9E0,1.7E1,1E1,8.04E2,7.1E1,7E0,5.1E1,1.417E3,2.55E2,2.4E1,4E0,8.3E1,7.9E1,1.1E2,4.7E1,6.44E2,1.6E2,4.9E1,2.2E1,3.5E1,1.6E1,1.394E3,2.3E1,2.1E1,3E0,3.9E1,4.4E1,3.9E1,4E1,4.4E1,3E0,5.47E2,9.7E1,9.6E1,6.4E1,2.7E1,2.2E1,1.2E1,1E1,2.7E1,8E0,9E0,7E0],"tree_param":{"num_deleted":"0","num_feature":"23","num_nodes":"65","size_leaf_vector":"1"}}]},"name":"gbtree"},"learner_model_param":{"base_score":"[3.3810002E-1]","boost_from_average":"1","num_class":"0","num_feature":"23","num_target":"1"},"objective":{"name":"reg:quantileerror","quantile_loss_param":{"quantile_alpha":"[2.5E-2]"}}},"version":[3,2,0]}